"x1","x2","x3","x4","x5","y","w","w1","w2","obs_weight","tau_r_t1","tau_r_t2","tau_true_t1","tau_true_t2"
1.37095844714667,-0.248482933189933,-0.746516451736769,-1.22133337042893,1.32750455958168,1.51714039909164,1,1,0,1.37706777732819,1.14935797373968,-1.61018075398367,1.12247551395674,-2.8639913506202
-0.564698171396089,0.422320385832393,0.0366061204319243,-0.452985993615507,-0.600835831817181,-0.93516225688185,2,0,1,0.670672512846068,0.185934492057023,0.717568581470086,-0.142377785563696,0.637910412259937
0.363128411337339,0.987653293639674,0.323309624203048,-0.702319931281127,0.0565068582510194,1.45751060394359,1,1,0,1.52639711555094,1.09220226065035,0.846009397787104,1.35078170497701,0.283490837068757
0.63286260496104,0.835568172035023,0.379676032401592,-0.674380385485126,-0.531076289581877,2.98411012186913,1,1,0,1.98876316577662,1.30174597244312,0.615583559097933,1.46843077699606,0.126489459842143
0.404268323140999,-0.660521859045705,0.876556495795362,-2.30302319048591,-0.0808987843769502,2.12914011509441,2,0,1,1.30249037675094,0.283403789770605,1.62330958208021,-0.256253535904706,1.34884466844973
-0.106124516091484,1.56406949329184,0.933387987569637,-0.149332904782873,0.160755586671381,1.97122686359291,2,0,1,1.94992109609302,0.582852772220284,1.78877808384461,1.45794497720035,1.97290049123076
1.51152199743894,-1.62297593529155,-2.42880752268242,0.948689589970129,-0.102140564663634,2.9718174873359,1,1,0,1.50714134040754,0.680976849734653,-2.00735451775632,-0.111453937852608,-6.36913704280377
-0.0946590384130976,0.863896373478988,1.72799402342117,1.15636246052357,-0.354749969786071,-0.363300036601243,0,0,0,0.941866568289697,0.351333235400134,2.1018576100202,0.76923733506589,3.55064708525543
2.01842371387704,-0.5116027734362,0.456002646277211,2.07435248589762,-0.471227347093368,3.86694559995982,0,0,0,1.03754447691608,1.24719058308982,0.358809069014817,1.50682094044084,-1.10641842132262
-0.062714099052421,-1.9173650254454,-0.570360345745652,0.265289970321459,0.0340441773616117,-3.55338969381248,1,1,0,0.762972129625268,-0.887185706910075,-1.08243300874954,-1.98007912449782,-1.07800659243888
1.30486965422349,-1.86581384861995,-1.11462440217797,-1.05200382914047,-0.200721207356766,1.02498668852106,1,1,0,1.32322607922833,0.991307237562451,-1.96718109007765,-0.560944194396463,-3.53411845857942
2.28664539270111,0.245179063439689,0.905064265563895,0.50234223621863,-0.544448628769274,5.72276331416194,1,1,0,1.25817755446769,1.24950471041876,0.813913779103499,2.5318244561408,-0.476516861573317
-1.38886070111234,2.22353430190807,0.328096015484134,1.09984502312187,0.377362269645537,-0.250203273484351,0,0,0,0.790754708694294,0.194382277497681,1.4674747498192,0.834673600795727,2.04505273208061
-0.278788766817371,0.273376064144465,1.07808996004782,1.88650483041417,0.403728160580446,-1.7311269105097,0,0,0,1.45535616739653,0.0715773580924774,2.03940478547183,-0.00541270267290617,2.43496868691302
-0.133321336393658,1.13078479452828,-0.060315553702501,0.811253500689395,0.170236937543032,0.237788800198851,1,1,0,1.53170014172792,0.791990973727032,-0.104772827582715,0.997463458134624,0.0126902289886561
0.635950398070074,0.838669374060099,-0.243518761963125,1.41824380879396,-1.10107992122072,-2.41911309990316,2,0,1,1.4602861541789,1.56934403141357,-0.776255890951055,1.47461977213017,-1.12298792199632
-0.284252921416072,-0.654615277878205,2.24142256068828,0.439169901702954,0.402469699291095,-0.523314511727677,0,0,0,1.03682803967968,-0.227355317313881,2.43427808240818,-0.938868199294278,4.76709804279262
-2.65645542090478,0.953960978479396,-2.03599297085583,-1.2775016086011,0.425816177210946,-4.85922136376362,1,1,0,0.65387749823276,0.046855891289915,-1.04669150127529,-1.70249444242538,-1.41553052080689
-2.44046692857552,0.352951465489323,0.390914465082838,-0.861373205211443,-0.283128718862383,-3.54051066129261,1,1,0,0.64668638270814,-0.206448863170999,1.61794943263389,-2.0875154630862,3.22229585874119
1.32011334573019,0.206599292649613,0.384813342899653,1.88698587497109,0.553632072115556,3.26224721135245,1,1,0,0.774329383857548,1.57615054965867,0.313449639843283,1.52671263837981,-0.550486659930885
-0.306638594078475,1.00111323431025,0.438695599541397,0.704087313182904,1.26435623247709,0.581274879930515,2,0,1,0.841855210834183,0.533502862124427,1.17206137366734,0.694474640231774,1.18402979316127
-1.78130843398,0.747451991640276,0.55814090204657,-0.667720525332029,0.327802463194629,-0.419086694734453,0,0,0,0.620786224724725,-0.0623595970843042,1.71728779930611,-1.03385644233972,2.89759023807314
-0.171917355759621,-0.626574836723139,-0.276406382977446,-0.705714342057153,0.765106373309395,-0.316213817478353,0,0,0,1.73242763325106,-0.83028074168968,-0.826965016557029,-0.79849219248276,-0.380895410195271
1.2146746991726,0.395223685936714,1.16628807898223,-0.920718579914376,1.28257345881025,3.64830403350894,2,0,1,1.3866709653521,1.28759131457407,1.2421813670588,1.60989838510931,1.11790145879187
1.89519346126497,-0.892167954045578,-2.45427723493739,0.148473291996029,1.65888693382934,3.56482973492947,1,1,0,1.66008352825884,0.589547183577381,-2.05245680892897,1.00302550721939,-6.80374793113974
-0.4304691316062,0.630818410091773,-0.805566259454567,-0.250017361132774,-0.480729813134911,-0.949768742916347,2,0,1,1.02512896549888,0.386976356913407,-1.21805925687188,0.200349278485573,-1.18066338730294
-0.25726938276893,-0.432705183284567,-0.119144550620025,-0.941768954111299,-0.407834514587087,0.668431271340897,2,0,1,0.509091984131373,-0.640899082019682,-0.475085771048385,-0.689974566053497,0.0189802815288803
-1.76316308519478,0.452138644218517,0.163216234138794,1.21419901863892,-0.328918791729082,-0.294166991016801,2,0,1,1.72175933409017,-0.283952042345148,1.34510000681772,-1.31102444097626,2.08959555347237
0.460097354831271,0.367999045196345,0.406479507762917,0.018566433000226,1.10107658785062,-0.598617271300811,2,0,1,0.501768843154423,1.08384808287335,0.812110445470643,0.828096400027617,0.352861660694562
-0.639994875960119,-0.270387489661909,0.639339995644309,0.757831699457548,0.581717960782718,2.08892427818061,2,0,1,0.801035273936577,-0.557845059481955,1.46034666511608,-0.910382365622028,1.91867486724874
0.455450123241219,0.465512617712979,-1.50851763737235,-0.380062699996006,0.957779202757363,0.0754148609520535,1,1,0,1.25015905918553,0.730978809450938,-1.93693304689094,0.920962740954198,-3.47248539798592
0.704837337228819,0.574356225626969,0.00767060439702689,0.174948713347219,0.301421804337359,-0.198774464559773,0,0,0,0.985254993429407,1.52477376149666,-0.259199335625664,1.27919356285579,-0.689496128434765
1.03510352196992,-0.230699990157411,0.524168022000385,1.03352330902476,-0.288461063573085,0.816360057321086,0,0,0,1.02017526351847,1.16356346555456,0.391184411421097,0.804403531812511,0.013232522030848
-0.608926375407211,1.17224250830245,1.32633587157079,0.67572399543247,-1.45615158789359,0.518977754668952,1,1,0,1.31823090324178,0.00856127499380428,2.27912221394568,0.56331613289524,3.26159811854879
0.50495512329797,1.39270270673312,-0.113567734432564,0.94128124291257,-1.70465154066219,3.01186934510064,1,1,0,0.56073504127562,1.41524505051648,-0.54276306821212,1.89765783003109,-0.732090592163099
-1.71700867907334,-0.661991255709585,1.59914947839686,-1.82663007251395,2.01122119129554,-5.93202948264393,1,1,0,1.16577087319456,-0.488081463938338,2.61281628288748,-2.37899993478293,4.91530763586706
-0.784459008379496,-0.777369206725014,-0.281528098928179,0.177204381296563,0.00396133245276825,-0.54031239871143,0,0,0,1.53647071484011,-1.23896188923434,-0.175925858146798,-1.56182821510451,0.221402810523138
-0.850907594176518,0.51353857890878,-0.0498981389105064,-0.191807861947269,0.558221906568822,-1.87115811164592,2,0,1,1.73577697155997,-0.00103303256634127,0.34142420396536,-0.337369015267738,0.751111316355506
-2.41420764994663,-0.913312238041272,0.160214127321124,-0.650198710009829,0.694493685600807,-0.163597380494847,0,0,0,1.41018005902879,-0.879961640960049,1.46408395342124,-3.3275198879879,2.73463590458888
0.0361226068922556,-0.449423805250301,-0.502380562405328,-0.560696341260001,1.44632123678831,-1.32018744525854,1,1,0,1.96616272977553,-0.421671190921675,-0.922771645072535,-0.413301198358045,-1.04088373170291
0.205998600200254,0.802932699103618,0.715938048776189,1.67576579329994,0.633468743359524,3.11876555374857,2,0,1,1.79614827141631,0.897394936188674,1.12876446918292,1.00893129930387,1.22587749735212
-0.361057298548666,-0.573476850981104,-1.34578730316321,0.430534600439241,0.0263703369604992,-0.699869224982023,0,0,0,1.22337727167178,-0.663012598008152,-1.77825105901969,-0.93453414952977,-2.33051730777776
0.758163235699517,-1.92812516784833,-0.0056435653021491,-0.144606620357246,0.742875516154548,0.208914895072872,1,1,0,1.66119323985185,0.899459268411296,-0.335130976030366,-1.16996193214881,-0.769450366303815
-0.726704827076575,0.664390833822148,-0.540542549739533,0.939025712144101,0.347303392127326,-1.88380618633646,2,0,1,1.89552549144719,0.199097035963267,-0.482846389089726,-0.0623139932544269,-0.354380272402491
-1.36828104441929,-1.60254022379425,-0.547073740849682,-0.545496749523291,-0.628654925909304,-0.977553598510511,2,0,1,1.21446516597643,-1.47390834190362,-0.186163937203027,-2.97082126821355,0.27413356271993
0.432818025888717,-1.35460025745385,1.15144538704443,0.138850363215646,0.958491926298926,0.119103186413366,1,1,0,1.87534497759771,0.136104066661484,1.96098199117375,-0.921782231565133,1.87007274820015
-0.811393176186672,-3.0179326794179,1.05221968194591,1.44686231335255,0.164441350143759,-3.11277719633585,1,1,0,1.0478139242623,-0.47205995761048,2.36711733937572,-3.82932585560457,2.91583254007849
1.44410126172125,0.831237822230063,1.59802652870266,-0.332628086150536,-0.034705900963032,3.09236435175468,1,1,0,1.14015395264141,1.15505152528838,1.54216688508193,2.27533908395132,1.75195179568406
-0.431446202613345,0.251097088847344,-0.263796793108458,-0.799156272263214,-0.920743815374439,-2.0918603321959,2,0,1,1.38215475017205,-0.0199082485498109,-0.426821523218777,-0.180349113766001,-0.0961473836035716
0.655647883402207,0.46229346594133,0.0324007875469165,-0.548292745132407,1.14805514963721,-1.16078042372956,2,0,1,0.665434843162075,1.45511159888237,-0.0430638197729571,1.11794134934354,-0.590846308308374
0.321925265203947,0.844792223223237,-1.55158330768591,-1.05079620451942,-0.389880110029636,-2.9771994502577,2,0,1,1.56417893769685,0.736864330250421,-1.74881243386933,1.16671748842718,-3.42509188057576
-0.783838940880375,-0.0419715243215621,-0.388179430024523,0.252662491033329,-0.0992632632773881,-0.524508119815772,0,0,0,1.72876029706094,-0.744770726714289,-0.288065351324711,-0.825810465201938,0.00748008083132878
1.57572751979198,-1.10557590570003,1.76414812218013,0.327861853995298,-0.0279660623672148,3.25300973552773,2,0,1,1.62934943800792,0.69307595621013,1.50966284385796,0.47015161409195,1.95256872456828
0.642899305717316,0.563775652330874,-0.41652772756372,0.855672400490503,-0.0569888848706201,-0.783288239617804,2,0,1,1.96863427502103,1.54864661978164,-1.03335390198532,1.20667495804819,-1.47595476084476
0.0897606465996056,1.30336475581967,-1.16633868878939,1.80176227162749,0.555659016748442,-0.220937078351132,0,0,0,0.938861624221317,0.630381035108793,-1.76079429117379,1.39312540241928,-2.42243802417839
0.276550747291463,-1.50022093779466,0.0418945661851059,1.40524081174873,0.901923838993518,-1.368554891092,1,1,0,1.7820613742806,-0.183104711015378,0.387931198080426,-1.22367019050319,-0.192761614921251
0.679288816055271,-0.606989235119036,1.24648913025954,-1.25079179413567,0.536623088234037,4.73918605563196,2,0,1,0.628616473637521,0.604629265396117,1.83766903329186,0.0722995809362347,1.81368944446382
0.0898328865790817,-0.292245065656577,-1.57797130420835,1.99910885447275,-1.47118613826484,-3.0692852354242,2,0,1,1.32396651559975,-0.388764460805827,-1.85002049930971,-0.202412179077496,-3.24577549499578
-2.99309008315293,-1.2896833433236,-0.253820471789102,0.139278487592147,-2.40935940826857,-6.05234963415393,1,1,0,1.87887665303424,-1.36668965368604,0.075007611447457,-4.28277342647654,2.48544913957473
0.284882953530659,0.694105848774699,0.467830542050614,-0.386669103439724,-0.365017377779538,3.88210457574772,1,1,0,1.08259664103389,0.815722712204683,1.06975169765235,0.978988802305358,0.650778130570568
-0.367234642740975,-0.599181902897119,1.97752999445585,1.85563569044348,-0.181268484634166,-2.659032165633,1,1,0,1.87269831588492,-0.26893954002231,2.46239578649277,-0.966416545638094,4.32229463165267
0.185230564865609,1.25690664397164,-0.615605794843624,0.42885538447628,-0.149062942660811,0.0474717426909508,0,0,0,0.93103198823519,0.97422793214865,-1.0540690657913,1.44213720883725,-1.41644215455286
0.581823727365507,0.053508013627363,1.51942160121109,1.73079013958977,-1.39271469385941,1.21448648385299,1,1,0,1.5106059050886,0.782332289554563,1.80281794436827,0.63533174099287,2.45701947505668
1.39973682729268,0.728092517671852,-0.43289519356181,-0.0435236741393199,-0.679359244378277,4.73347562244159,1,1,0,1.60133082489483,1.73578964730822,-1.33129706202142,2.12782934496453,-2.2655272144163
-0.727292059474465,1.56109806821061,-1.03101770806171,-0.73108580813751,-1.81911796861397,-0.221935126436346,1,1,0,1.1627670613816,0.288915029665679,-1.0817830762855,0.833806008736142,-1.33474335664896
1.30254263204414,0.26562475359719,-1.13433449832271,-1.96596407622063,2.63898221848215,3.18499558499505,1,1,0,1.77250167087186,1.1788205586319,-2.02747662349927,1.56816738564133,-3.57121162868956
0.335848119752074,1.07672625920727,-0.221098125377531,1.12686531518852,0.546608278218245,0.51731337345611,0,0,0,1.32644597545732,1.09059837714221,-0.623047259618247,1.41257437895934,-0.778044370507137
1.03850609869762,0.210697931679245,-0.0224146989039466,-0.888084388434115,-0.0061539389294077,0.329954694228897,2,0,1,1.88264273363166,1.56591843729656,-0.611819435305566,1.24920403037687,-1.08333549650551
0.920728568290646,-1.51167352582237,-0.32290182802397,0.871359260391993,-1.8901394678583,-1.28832885373053,2,0,1,0.516311842249706,0.761595701671229,-1.19078836035675,-0.590944957531722,-1.56653222433859
0.720878162866863,0.022402259913625,1.05222315972554,0.119893566616341,-0.266783371165174,4.03961190429226,1,1,0,1.76201027771458,0.759295343227052,1.46417135861822,0.743280422780488,1.38356815658422
-1.04311893856785,0.718136206042103,0.189541165695199,0.472434944803404,0.820431010197318,-0.761608180831844,2,0,1,0.628820344572887,-0.111889463249183,1.34335599189267,-0.324982732525752,1.42220126995825
-0.0901863866107067,0.48945701784227,-0.105827608865873,1.26663990982006,0.778193540049604,-0.521402340737562,2,0,1,1.45158397080377,0.501181324219689,-0.331709178244568,0.399270631231563,-0.12146883112104
0.623518161999544,-0.17388834587827,-0.602554472532716,-0.485316378946902,0.454092023522563,-0.788865897872925,2,0,1,1.13258921657689,0.739413219914646,-1.43653901780749,0.449629816121274,-1.82862710706498
-0.953523357772344,-1.2176994886684,-1.29601593126204,-0.461533586184343,1.41005217305168,-0.521992787071854,0,0,0,1.1164060808951,-1.06377803188061,-1.19345249918246,-2.17122284644074,-1.63850850475173
-0.542828814573857,0.646398368709462,-1.95932663870655,-0.231758337278765,-1.81106410509648,-1.60839616647235,1,1,0,1.29071198881138,0.153291482315892,-1.51240862402494,0.103569554135605,-3.37582446283925
0.580996497681682,-0.91645602834789,0.21341173052117,1.06035377243819,-1.10245174108699,0.276651069669427,2,0,1,0.635616794344969,0.477242992157072,0.500156069980782,-0.335459530666207,-0.154173036639341
0.768178737834591,-1.25182344242557,0.0253358701112366,-0.474785704501272,-0.0191678713168816,-0.630943380211763,0,0,0,1.30408461962361,0.500842120520198,-0.308864833072285,-0.483644704590975,-0.717506997612118
0.463767588540167,0.594927718405501,1.36502318785994,-0.175510280957715,0.149303719680044,1.38110680222322,0,0,0,0.676693500368856,0.763927406313991,1.9753482079278,1.05869530694567,2.26627878717971
-0.88577629740968,-1.23281066518983,0.291093808244857,0.796324499089145,-0.532431870264935,-1.80540184308455,0,0,0,1.43984221667051,-0.960797892428272,1.37381400106506,-2.11858696259951,1.46796391389939
-1.09978089864786,0.244364414906138,0.79721770112609,0.77874531585307,1.19784612620355,-3.08139094402721,1,1,0,1.58770493068732,-0.237891853744085,1.80872361983796,-0.855416483741718,2.69421630090004
1.51270700980493,0.00277218534359506,0.0409863743756614,0.796802566246094,-2.0425957688947,1.50687197094353,0,0,0,1.32934228237718,1.44580190279725,-0.437522285091603,1.51547919514852,-1.43073426105361
0.257921437532031,-1.32820968602556,-0.818324049625889,0.0490515728363375,-1.01431086481328,-2.06849979254253,1,1,0,1.47059149213601,-0.468936360857201,-1.31890770711785,-1.07028824849353,-1.89456953678381
0.0884402291595863,1.17969641183278,0.289640643164427,0.762612934834823,1.60391822138318,0.792072760354264,2,0,1,0.569825403159484,0.781663289074423,0.97164211194074,1.26813664099236,0.490841057169268
-0.120896537539089,-0.592804999148929,0.339787111301115,0.285993069636396,0.892350034157026,0.123954593132552,2,0,1,1.36245715164114,-0.373737783826584,0.97365159507759,-0.713701536688018,0.800470760141319
-1.19432889516053,1.19997831633667,-0.817392730763433,-0.632815038152827,-1.51770556163796,-2.26309555057034,2,0,1,1.08548318303656,0.0283178705955969,-0.449461777698398,0.00564942117614375,-0.440456566366337
0.611996898040387,-0.475033679612135,-0.0287493152280801,1.8043844808011,0.823528276152144,-1.65250008386018,2,0,1,0.712479429668747,0.532756649125324,-0.353879155285095,0.136963218428252,-0.669495528496547
-0.217139845746521,-0.575057096150816,2.00078165111199,-1.86301097301425,0.365562248008499,-2.69359034026908,0,0,0,0.590422939043492,-0.264081140215454,2.31397108712272,-0.792196941897337,4.21870314797051
-0.182756706331922,-0.031226024608499,-1.12926606328462,0.845528381213056,-1.33092166830989,0.713555974474507,1,1,0,0.974934194004163,-0.432468531356232,-1.69075069422649,-0.213982730940421,-2.07577542023732
0.93334632857116,-0.358056995978456,1.47217859206972,0.341667682894606,0.3595761544677,2.69386392314718,0,0,0,0.625759447109886,0.884328971090888,1.58622757404792,0.575289332592704,2.01101085556829
0.821773110508249,-0.356601077647731,-0.227068916484902,0.0227776061434687,0.892994609988693,0.802361913529139,2,0,1,1.73698496131692,0.8931394581096,-1.12127138740698,0.465172032860518,-1.27591094347805
1.39211637593427,-0.877664383433726,1.48231059624201,-0.611399988446644,-0.995098995899314,1.31058247791463,0,0,0,0.631072415970266,0.799170220682488,1.746980390257,0.514451992500545,1.57250481654975
-0.476173923054674,-1.21289712517796,-0.843053174487288,-0.260526772474753,0.51967192258579,-0.328902338391123,0,0,0,1.76440587453544,-1.02057219632303,-1.29530296673542,-1.68907104823264,-1.2099324259199
0.650348560726305,0.613286618687034,-0.0661953274558979,1.80567031464304,-1.23573344828329,2.26858129968202,1,1,0,0.767734110588208,1.57139000165534,-0.702475800748913,1.26363517941334,-0.782739215638101
1.39111045639,-0.806203341462477,0.311233498357864,-0.0969992670036506,0.529726874322074,1.05396935302897,0,0,0,1.23660548543558,0.96258235165504,0.250337479888017,0.584907114927523,-0.768643459674273
-1.1107888794479,-1.3764569299089,-0.112590228303414,-0.384486699785057,-0.983041720955936,-0.618134927791418,0,0,0,0.789531418471597,-1.33095342340949,0.305406291598495,-2.48724580935679,0.885608422841071
-0.860792586877842,-0.507847899163547,0.658738838942645,-0.878362142505014,-0.375745484254249,-0.0309257932939697,0,0,0,0.820699131116271,-0.538251175224969,1.66216877093325,-1.36864048604139,2.17827026476313
-1.13173868085377,-0.800935486737338,-0.16686150010949,-0.495578521936919,-1.04173538449989,-2.11680130884167,1,1,0,1.92680645687506,-1.41519338601453,0.204773142349059,-1.93267416759111,0.798015680634791
-1.4592139995024,-2.19278568567007,1.20887346516015,-0.0842924535744518,0.697667357430169,3.58317576478632,2,0,1,1.2286412717076,-0.79307950696761,2.4060997392326,-3.65199968517246,3.8769609298227
0.0799825532411612,-0.290937149267675,0.170419433884223,-1.357722067055,-0.144448803419361,-0.341183813049268,0,0,0,1.15756886207964,-0.154962235864427,0.818901939057471,-0.210954596026514,0.260856314527284
0.65320433964919,0.167174121160518,0.692419636244747,1.14269781676707,0.498543397139294,0.987807096086179,0,0,0,0.52585126250051,1.24079526120217,0.832155218494042,0.820378460809708,0.731634932840303
1.20096537559849,0.294692356485688,-1.18554693655878,0.0978270374471885,0.617336709876794,-2.47731652809074,2,0,1,0.586173900868744,1.36932036612737,-1.97526076488253,1.49565773208418,-3.57205924871606
1.04475108716773,0.392741265420726,-0.658389290697043,1.46502102859676,-0.00454114147551432,-0.242335399050419,0,0,0,1.71415903605521,1.54051902785161,-1.66182044881084,1.43749235258845,-2.36152966856181
-1.00320864683985,-1.00084371300082,1.08950794879155,0.990435852724288,-0.0912563600897754,1.27095603753315,2,0,1,1.60056999570224,-0.558479215605445,2.50315378924677,-2.00405235984066,3.18222454442295
1.84848190167275,-0.325727119823434,0.508785941160661,1.41438675072227,0.399959374815336,0.733636133642321,2,0,1,0.635398347279988,1.09521806979296,0.444789089022424,1.52275478184931,-0.830910019351425
-0.666773408757817,-1.00834880542884,-0.135906625600424,-1.33589776931334,0.588901656549108,-0.00522079280166626,2,0,1,1.44407507847063,-1.18133422107424,-0.284116290676186,-1.67512221418666,0.394960157556968
0.105513812456069,-0.635431482033766,-0.108782736956893,0.579583638393261,-0.0168780393868136,1.32983312141335,0,0,0,1.53157420118805,-0.428587327277979,-0.367567360261337,-0.529917669577697,-0.323079286369855
-0.422255881868856,-1.20984068798734,0.754900160454641,-0.361821214298648,0.418704182088633,-1.23282692489933,1,1,0,1.01790505019017,-0.50044265133067,1.68149528500276,-1.6320965698562,1.93205620277814
-0.122350171954971,-1.11646380065269,-0.223811321619966,-0.046852449651786,0.800727964524838,-1.69538943550195,2,0,1,1.3851326154545,-0.891428286324048,-0.524374376490168,-1.23881397260766,-0.325272471284961
0.188193034501498,0.629881162575935,0.0749551709399243,-0.599477471411771,0.679893103827864,1.60754224543729,1,1,0,0.709640439948998,0.787060510580809,0.431036900370925,0.818074197077433,-0.0382826926216494
0.119160957997006,-0.272521570178626,-1.64595480215,0.215104493222833,1.30966392253954,-4.20066182042905,2,0,1,0.736629242659546,-0.267055148382091,-1.92690722982112,-0.153360612181619,-3.41107056229701
-0.0250925508674029,-0.258841168378671,1.77400936515502,0.0936314854790409,-1.89121447886908,0.875252336879894,0,0,0,1.20401415857486,-0.0670320528814809,2.44997856755409,-0.283933719246074,3.57311128117745
0.108072727942033,1.72955817989149,0.765967915976574,-2.11983441513135,0.344907334668953,0.578064318007055,2,0,1,1.86359630001243,0.656604548698983,1.53522917029844,1.83763090783353,1.42386310401112
-0.485435235846668,-0.0583921654073716,0.832287843010755,0.852443088824704,0.154762656644616,-1.72632695025957,0,0,0,0.949407646083273,-0.403314075071158,1.8753682865399,-0.543827401254039,2.15001092186818
-0.504217130687903,-0.537063784608919,-1.90545752247312,0.15437457231326,-0.766441731925565,-1.463947950183,1,1,0,1.99529246333987,-0.7798168533177,-1.58116969407312,-1.04128091529682,-3.30669791425834
-1.66109907991481,0.74728669616574,-0.0208366761944145,-0.971861640205415,-0.752915043322023,-3.38798837511365,1,1,0,1.47831264184788,-0.032033192608542,0.555273023970028,-0.913812383749072,1.61942572752598
-0.382333726873818,-0.487257835389733,-0.408933912448218,-1.10142783592314,0.524270675654365,0.246916833905379,2,0,1,1.00619778095279,-0.797864004787482,-0.839403598831677,-0.869591562263551,-0.435534098022617
-0.5126502578778,1.37290778147951,-1.3763863065768,-0.690244888297098,-0.355425297900245,-3.80179183164954,2,0,1,0.872163137886673,0.367746973249924,-1.41173864663313,0.860257523601705,-2.24012235527579
2.7018910003448,-0.377672360646221,0.727430374393256,-1.58363492221125,-0.260266497121109,5.54211896521079,1,1,0,0.782787122647278,1.12001225286306,0.548774868430972,2.32421863969858,-1.24703025155829
-1.36211623118972,-0.616152614118394,1.23413078123709,0.137766066513836,0.507208110031767,-2.35463809207947,1,1,0,0.840529921231791,-0.640052783978918,2.52543488005028,-1.97826884530811,3.83037779366391
0.137256218558607,-1.16812505107469,-0.553224405877467,1.50234395496283,1.14320521055163,-0.214400759423453,0,0,0,1.02740378363524,-0.680794382173545,-1.0471807144292,-1.03086883251608,-1.24370503031354
-1.49362506731629,0.328640358591086,-0.229190177928735,0.192881587148273,2.0668175182942,-0.00663112738572064,2,0,1,1.15293731051497,-0.57567476065712,-0.00885901441081999,-1.1649847087252,1.03524471145882
-1.4704357414368,1.46651062744016,1.71146198892227,0.527154734523825,0.769866343085377,-2.06400792016773,0,0,0,1.98381781636272,-0.0573948302061996,2.2749307098531,-0.00392511399663165,4.89335971928134
0.124702386197007,-0.356009545088913,-1.64980790329702,-1.48320629120238,2.00199794550677,-4.43611107484615,2,0,1,1.1818004300585,-0.416127845594865,-1.88665827563469,-0.231307158891906,-3.42431819279104
-0.996639134884037,0.261467641877431,0.744220785437818,-1.53920072330941,1.27162090872777,-0.846530210396175,2,0,1,1.50759354443289,-0.211146087132932,1.85506229591979,-0.735171493006606,2.48508070575967
-0.00182261430470819,0.333328855175731,-0.314021323980916,-0.896432886914323,0.333520245850298,-0.59691363306457,1,1,0,0.992424455354922,0.348744518005458,-0.852694697494378,0.331506240871023,-0.626220033657123
-0.428258881425815,1.42219324030954,-0.115310841404454,0.721069979748221,0.254072676090529,0.16454991868402,2,0,1,1.38511077151634,0.685629959908181,-0.303131177063266,0.993934358883727,0.197637198616908
-0.613671606449495,0.663876600666173,-0.61097434277214,-0.884501944686544,1.93091427212792,-1.14777728499489,2,0,1,1.40209228137974,0.234416618621499,-0.787984452896606,0.0502049942166776,-0.608277079094784
-2.02467784541911,-1.07365515569531,1.09669537901904,0.558598525708553,-1.012929867412,-6.17950418013657,1,1,0,1.92809616355225,-0.430586760513394,2.54490559397893,-3.09833300111442,4.21806860345719
-1.22474795035999,-0.69690177466674,-1.12716761108376,-0.218737504846289,0.0644444403932076,-1.30230245387838,0,0,0,0.703454282134771,-1.23569139532882,-0.915530907771716,-1.92164972502673,-1.02958727180753
0.179516441117938,-0.746130456934561,0.962609492438297,0.383623482386597,0.192373891357855,-2.23651380100863,0,0,0,0.840806667227298,-0.0895038480552971,1.84166672837371,-0.566614015816623,1.74570254375866
0.567620594423535,0.141572872132219,1.40646401623189,-1.03912011024684,-2.34002446260473,2.08633393946201,1,1,0,0.636020836303942,0.804600579031322,1.73011375987985,0.709193466555754,2.24530743804024
-0.492877353553475,-0.00394722073065307,-1.6416495088997,-0.948992248570827,-0.351765901032242,-4.15304887109364,2,0,1,0.967095962376334,-0.340223996696283,-1.66754728815107,-0.496824574284128,-2.79042166424593
6.28840653511241e-05,0.367937501091766,-1.12690419254923,-0.104160953983452,0.346590938682391,-2.37888582694199,2,0,1,1.37176148639992,0.16667906405362,-1.86285084159456,0.368000385157117,-2.25387126916381
1.12288964337997,-0.657342914697247,0.591545480502423,-0.208711102723908,-2.82894105870644,1.53404126216451,0,0,0,1.99383828835562,1.1353306862462,0.412996923974087,0.465546728682719,0.0602013176248799
1.43985574297619,-0.376346670161052,-0.956309119505936,-1.78873019525217,0.367872703584524,-2.76305354405864,2,0,1,1.27111203875393,0.985934567408644,-1.9139222472619,1.06350907281514,-3.35247398198806
-1.09711376840582,0.741360060425085,-0.691529886346393,0.537084421086505,-0.285484066118437,0.0834912985156164,2,0,1,1.63417609303724,-0.0168441692626727,-0.499054629557515,-0.355753707980737,-0.285946004286965
-0.117319560250177,-0.0996067564484702,-0.445352767351361,-1.94969607009284,0.442733260452948,-0.58382699149301,2,0,1,0.995543692260981,-0.271490764210764,-0.749239611138073,-0.216926316698647,-0.773385974452545
1.2014984009197,-0.654289878607095,-0.344484228326568,-0.415234461553216,0.71767113004586,1.63117923371975,0,0,0,1.37611527252011,1.05503066461397,-1.31083999905615,0.547208522312606,-1.89046685757284
-0.469729580566301,0.971164374061271,0.703698185246122,0.0551296705930179,1.42389508632609,2.21777343524023,2,0,1,1.48335679259617,0.436809409193448,1.43850869561338,0.50143479349497,1.87712595105854
-0.0524694849389963,0.0134963115683865,-0.60300576479426,-0.701999719088772,-1.68539115613733,-0.28483861846432,2,0,1,1.35659467359073,-0.0314454397696656,-1.04722216559819,-0.0389731733706098,-1.15354204464952
-0.0861072982370895,-0.916534667021545,0.0893504124146815,-1.40383903257398,0.0417293162320748,0.723508708024054,2,0,1,1.5811755968025,-0.571599596766063,0.590206743137294,-1.00264196525863,0.264808123066452
-0.887679017906431,1.70968856126164,0.737494637219904,-0.398823930892521,-0.632943830350313,2.3039255490018,1,1,0,1.87580955645535,0.0382840868148233,1.71400769777585,0.822009543355205,2.36266829234624
-0.444684004884738,-1.16810098994666,-1.54037944457177,-0.110421799564805,0.0300992464318592,-3.68385315050245,2,0,1,1.52771403058432,-0.827275561538833,-1.62899809501875,-1.61278499483139,-2.6360748842588
-0.0294448790882381,-1.78103626015252,-0.689632292648809,-0.924078451273399,-0.129143576065387,1.53139474766176,0,0,0,0.598367692437023,-0.829648917855232,-1.19505657525899,-1.81048113924076,-1.34981970620938
-0.413868849057924,-2.25313244856822,0.859793460209431,-1.35724300041576,-1.17589928573267,0.365750772436287,2,0,1,0.815686670597643,-0.431013743041543,1.99227679203579,-2.66700129762614,2.13345576947679
1.1133860233682,0.651125969546699,-0.376519740675772,-1.19460448275129,-1.80681938019899,0.605381422291861,0,0,0,1.37618621834554,1.68268717412612,-1.39643316069573,1.7645119929149,-1.86642550471975
-0.480992841653982,-0.532832625602767,-2.53508347030523,-0.528487779287787,2.12031372450078,-5.54847807302944,2,0,1,1.42862671613693,-0.901296855098368,-1.59250528496019,-1.01382546725675,-4.58917409895648
-0.433169032600729,-0.275559356972283,-0.857809228617209,-0.45262688672095,-1.32440568336117,-2.04006770440531,1,1,0,1.15152021986432,-0.638651474191022,-1.473718241712,-0.708728389573012,-1.28244942463369
0.696862576552103,0.289626972629046,0.816026406926163,1.41948519316134,0.275021593266166,0.805137100297967,0,0,0,0.806528307381086,1.2211205452018,1.08515310809109,0.986489549181148,0.935190237300223
-1.05636841317091,-0.466484061790764,-0.426588909225775,-1.28568114451572,-1.1088631832662,-0.203298255842213,2,0,1,1.93445028492715,-1.20078751754093,-0.187560715423926,-1.52285247496167,0.203190594719357
-0.0406984751512149,-1.60806017494469,-0.40463684004168,0.381148939361978,1.50774050493814,-0.861171867893221,0,0,0,1.33435167302378,-0.798878238661858,-0.828838187976565,-1.6487586500959,-0.768575204932144
-1.55154482234759,-1.94978379604199,-0.145769224262472,-0.417468601097774,-1.76729877966445,-4.69311191217959,1,1,0,0.872521529207006,-1.46536837460494,0.123685432080298,-3.50132861838958,1.26000637382265
1.16716954923568,-0.340699918230981,0.71946636806737,0.092861420787736,-0.888592273848649,2.07225766457272,2,0,1,1.65568753366824,1.111962897154,0.615307913520508,0.826469631004701,0.271763186899058
-0.273645701374081,0.17472552733132,-0.491090752219327,-0.663584535776221,-1.21905138661598,-0.884365585573118,2,0,1,1.77564734150656,-0.0418871401050344,-0.673684683440925,-0.0989201740427608,-0.708535803064573
-0.467845324672254,-2.27777756077723,0.475958438418499,0.802827389507556,0.0502813662769896,-1.26902908062225,0,0,0,1.87547132535838,-0.719457853839624,1.32941122328734,-2.74562288544948,1.41976220150925
-1.23825232798621,0.290524480947084,0.573153668052675,-1.70308264539455,-0.490812951536646,-3.28827332839268,1,1,0,1.66641876136418,-0.203078198532793,1.68635480334428,-0.947727847039131,2.38455966409156
-0.00776203377732663,0.422306357473614,-1.01885957771565,0.153907072564843,2.3850599584663,-2.88937616800364,2,0,1,0.894767454708926,0.190472979937107,-1.69794536115835,0.414544323696288,-2.02995712165397
-0.80028217795166,1.29473736320671,-0.0618722344363663,0.0260754999213632,-0.00438812697078212,-0.280864004903658,0,0,0,1.29987450735644,0.431308163415591,0.260080556679327,0.494455185255055,0.676537709078927
-0.533492329950436,0.164714018573954,-0.538305101604451,1.05586337908511,1.33169035546128,1.24882328334529,0,0,0,1.3914315639995,-0.237883742965016,-0.632211937607896,-0.368778311376482,-0.543117873258466
1.28767524558459,0.204953840800235,0.416954726110764,-0.224467114350504,0.820808669126654,0.687648235368408,0,0,0,1.1855428450508,1.42000746680662,0.370090433041982,1.49262908638482,-0.453765793363061
-0.175525870242127,0.604603626725806,-1.50827665613024,0.496596389373037,0.685679030525222,-1.54452449353841,2,0,1,1.27190393058117,0.386973064863315,-1.84355524602371,0.429077756483679,-2.84102744201836
-1.07178238415068,-0.0191407691689314,1.53916992776747,0.399633954636834,0.515880947876038,-3.20025264955464,1,1,0,1.65852946508676,-0.222686112378516,2.55117831007385,-1.09092315331961,4.15012223968562
0.163206882467382,-0.0797143473788086,1.346018088596,-0.646912750685488,0.273801847190434,-0.324749926232742,1,1,0,1.42029193253256,0.199758070472236,2.30693879190121,0.0834925350885737,2.52882929472461
-0.36273841562795,0.115984464402805,-0.842855777501525,-0.0837627647875345,-0.713335909234142,-1.76250066543795,2,0,1,1.32290352089331,-0.206647135956184,-1.40563979443169,-0.246753951225145,-1.3229731393751
0.590013547987339,0.744173364048388,-0.669874227807658,-0.133621200009519,-0.343044145090591,0.160041167513116,0,0,0,0.701554190251045,1.26010531512927,-1.43621412391944,1.33418691203573,-1.92976200360266
1.43242192773099,-0.431290603527693,-0.908487448146122,1.11960385547419,0.468979532578923,-1.6386297447027,2,0,1,1.88635112752672,0.97574762306217,-1.88463685466075,1.0011313242033,-3.24939682402323
-0.992692511109493,-0.499528951911234,-0.136540641797694,0.239220972582604,-2.47583251603368,-1.64999263296316,1,1,0,1.7208011536859,-1.11877635978162,0.0700283217469776,-1.49222146302073,0.719611227514105
0.454650297580283,-0.865162076755711,-0.501037963291251,0.290602215857855,-1.85544128847299,1.09078927524005,1,1,0,1.73760799691081,-0.154475796475877,-0.93169332714218,-0.410511779175429,-1.45672622416278
0.0848980586784873,-0.957757283271873,0.1126384468164,2.34360141841864,-0.420507917893379,-0.0254651281577806,1,1,0,1.82193769991864,-0.327916412964568,0.820369328200183,-0.872859224593386,0.140378834954312
0.895565582264545,0.326799971338638,-1.87521756309427,0.4162981123864,-1.86603756721418,-5.25595380148827,2,0,1,0.571386020979844,1.39735738406118,-1.89461197058795,1.22236555360318,-4.64600070845309
-0.229778138946267,1.54737222568517,0.158546714458315,0.362481077869282,0.113504700739202,-0.820487550508214,0,0,0,1.45590322068892,0.673972502872282,0.929844222006707,1.31759408673891,0.546871567862896
0.836619068460613,-0.968859568864431,0.0155626712640042,0.531682625476121,0.470018677123532,-0.322259075559915,2,0,1,1.35166918719187,1.01055631098756,-0.110888828706158,-0.132240500403817,-0.805493725932605
-1.74505586133669,-0.188440426259463,-1.60060346126013,1.54804223833981,0.884594160133231,-1.05177794972055,0,0,0,1.28767914068885,-0.861940402167879,-1.00716104142183,-1.93349628759616,-1.45615106118357
1.68945892131337,-1.03000116145592,0.275973089169957,0.961488300605771,1.11360999293018,-1.01392660663261,2,0,1,0.501853336580098,0.950711208389116,0.350959343191331,0.659457759857455,-1.13751274297346
0.864777978518578,0.908086441860496,0.0549526398709077,0.338436178606463,0.566850429321619,1.95974507204661,1,1,0,1.87757106160279,1.66697405606708,-0.0223092137252658,1.77286442037907,-0.754872698776763
-0.150775988885748,-0.317381864708129,-0.230573354697258,-0.610953004269112,0.546022842611285,0.0462821559314069,1,1,0,0.503932691528462,-0.750070347723845,-0.552874115307945,-0.468157853593876,-0.310370720508768
-1.44900713013917,0.179003966540422,-0.0132162906038914,0.357052050410198,0.23984260522916,-0.493762088332178,0,0,0,1.24251529434696,-0.60543977743082,0.711151552541811,-1.27000316359875,1.42257454893138
0.643008700041982,0.348028187729177,0.384949196022327,0.141508679877188,0.0341353438230838,1.06090286271834,2,0,1,0.867077146423981,1.36464085025323,0.522075118442604,0.991036887771159,0.126889692002672
0.483193863814768,-1.05427902127444,0.346723717001246,-1.83629134377865,-0.808091219300186,1.59663269093687,1,1,0,1.62670757737942,0.522874444931435,0.749880743947382,-0.571085157459673,0.210253570187724
-0.00635562642138871,-0.104744288110701,-0.431612760578627,-1.54103104639384,2.22763232322792,-2.53162040303242,1,1,0,0.708328432170674,-0.198064508046621,-0.877745860560087,-0.11109991453209,-0.856869894735865
0.151455892862424,-0.228342617094529,1.1501780393287,-1.79438286441787,-0.792524128713455,0.304466802250861,1,1,0,1.21641878015362,0.108578836462644,2.1302917894332,-0.076886724232105,2.14890018579498
-0.584108970349804,0.675355562427539,-0.0365321928878792,1.41451490845874,1.69728053235192,-0.14110896491035,2,0,1,0.903237157617696,0.337662820474334,0.0890890569393196,0.0912465920777346,0.511044584574046
0.368806732630242,-1.23324469350631,-0.135801421736564,0.618337891760976,0.938924807290475,-1.4973662822182,1,1,0,1.33113038016018,-0.387228940563208,-0.627854290006111,-0.864437960876067,-0.640409576103371
0.294654339719516,-1.19996154442278,0.944618045644523,-2.35045538719928,2.03529495828804,-1.17066832807511,1,1,0,1.27916808775626,0.136467955478774,1.90992253761031,-0.905307204703264,1.59458175156953
-0.279259373342575,0.765866576616108,0.992041361670064,0.467031586094115,0.731626386528303,2.22465075052373,2,0,1,1.95331935223658,0.312486837708399,1.87319478822013,0.486607203273533,2.2633420966827
-1.33623665489315,-0.588097861282977,-0.700669754968901,0.0638319381435125,-0.419847340595375,-0.187397995418934,2,0,1,1.66650200029835,-1.25223064992712,-0.512606066387111,-1.92433451617613,-0.0651028550446473
0.700748818440034,-0.660295829975576,-0.991058671834594,-0.256260441820274,-0.309743506851099,-1.72975885850516,2,0,1,1.81199280440342,0.682824191867136,-1.91691901040952,0.0404529884644583,-2.68286616210922
0.554196622274034,0.113013522197344,-0.705618052658819,-0.74452203825337,-1.36067647446631,1.8738208714378,1,1,0,1.69357962324284,0.721854461584744,-1.51443549741563,0.667210144471377,-1.96543272759167
-0.836306592801415,-0.320398799686039,-1.17577589332822,-1.26902527654423,1.03771431038458,-3.28044443161646,2,0,1,0.760418525896966,-0.911309147318441,-1.19108158178531,-1.15670539248745,-1.51524519385502
-1.59458816200624,1.86638149693879,-1.78119695174032,0.862628007930791,0.0462178272837365,-4.00708785438727,2,0,1,1.66976309742313,0.159928476611386,-0.859751399114076,0.271793334932545,-1.9678057414744
0.204958580587634,0.259531455767799,0.310607521838391,-0.576934671897016,-0.0577733552767567,0.581872858253015,2,0,1,1.21299004671164,0.549314355018695,0.805447038547013,0.464490036355433,0.416256463089148
-0.34508797797289,0.16156007091807,-0.145110360949431,-0.13226734829003,0.0767390706997009,-0.202007920812681,0,0,0,1.51191967690829,-0.224946209360862,-0.430006453962803,-0.18352790705482,0.0548672560740279
0.252611703364455,0.931074909335354,0.642549753692457,0.586828100587993,-0.633641164106258,1.81429948626175,2,0,1,1.03013721446041,0.962034192166962,1.08008522154873,1.18368661269981,1.03248780402046
-1.29400246548455,-0.0599467492596211,-0.00165936230130426,0.535000276997602,-0.423413462128983,-2.83351016854673,1,1,0,1.40932572027668,-0.785187204974159,0.877570334182158,-1.35394921474417,1.29068374088194
-0.959170444380363,0.0487397000774502,0.409162962077351,-0.393409936967253,0.776691007043517,1.58500098277595,2,0,1,1.37456710252445,-0.392704428335986,1.37738338251185,-0.910430744302913,1.77749636853507
1.0857748536799,-1.07287540073396,-0.496058147310148,-0.540609417209361,1.31090723646561,1.350097869662,0,0,0,1.61134660092648,0.878400302496233,-1.27769885261212,0.0128994529459376,-2.0778911483002
0.403774904715714,-2.29297143048067,-0.960107958901165,0.259450915234582,0.0583013062676336,-2.84124389737805,1,1,0,1.63960632646922,-0.219641469294087,-1.6914432830282,-1.88919652576496,-2.32399082251804
0.586487536719298,-1.20720685006434,0.778132224570433,-1.17827876100886,0.245398357259442,0.94555908504099,0,0,0,1.89208093646448,0.35140821856965,1.3383304960674,-0.620719313345044,0.969776912421567
1.81522844615395,0.114109429797191,0.761120616327841,0.306138478548671,0.232324718377114,2.03631348265877,1,1,0,1.61424191843253,1.30887596679106,0.679831624391218,1.92933787595114,-0.29298721349827
0.128821428602383,-1.03329707910538,-1.73371218388323,0.173481229120353,0.188775899725465,-0.507106848752841,0,0,0,1.68284848041367,-0.527154571116518,-1.90804530976071,-0.904475650502994,-3.59624579636885
-2.00092923773151,0.688807752342063,0.877294651826758,0.25057806717021,-0.241815887985519,-1.71049588957244,0,0,0,0.59543134237174,-0.0960525362501932,2.07489578457034,-1.31212148538945,3.75551854138503
0.33377719743357,0.725083017674864,-1.7733714389337,-0.277924049161014,0.572136317124428,-4.85053711057718,2,0,1,1.3469295859104,0.680945565669016,-1.70379836260635,1.05886021510843,-3.88052007530096
1.17132512735879,0.217380210939088,-0.0456873243111543,-1.72473573426284,0.705791797687352,2.445929866329,1,1,0,0.962282720138319,1.56258463757198,-0.883305147364126,1.38870533829788,-1.2626997759811
2.0595392422993,-0.201656731618378,-0.394872253984139,-2.00670494385569,0.204899603994032,1.96657715727556,0,0,0,1.27165422146209,1.32405959545078,-1.27106210402694,1.85788251068093,-2.84928375026758
-1.37686159824052,-1.36568986058868,-0.128056266421018,-1.29180833046846,0.552103380111652,-1.4994222246879,0,0,0,0.668795394711196,-1.45947421158546,0.119590846929934,-2.7425514588292,1.12074906539849
-1.15085556562711,-0.30893760867716,1.09623773188662,0.365838228483296,-0.568871310357778,-2.03416633694557,0,0,0,1.51276231941301,-0.618091274166236,2.41469388447519,-1.45979317430427,3.34333102940034
-0.705821394760121,-0.452902886537227,-1.2552178606199,-0.152203253908431,0.192717755598882,-0.105651925358816,0,0,0,0.896385143510997,-0.878766798522065,-1.30916668798984,-1.15872428129735,-1.80461432647969
-1.05405578207719,0.663229144519792,-0.265483694629895,-0.734094090076209,0.621347221610975,0.186166976373165,2,0,1,1.35334036580753,-0.0214304317020403,-0.179090540985762,-0.390826637557399,0.523088392817401
-0.645743723142491,1.3086295367487,2.55330249004026,-0.781972056981591,-0.10721561163254,-1.03661850561682,0,0,0,0.61082074046135,0.185702878437982,2.33537569996288,0.662885813606205,5.752348703223
-0.185377967676503,0.501040309894498,-1.47830630595052,0.551567034812709,-0.124075919558077,-2.52872009481485,2,0,1,0.660117394872941,0.382930605354783,-1.73566156190316,0.315662342217995,-2.77123464422454
-1.20122205073999,-1.12828853519737,-0.626587568230723,-1.61084098443007,-0.465021846854624,-2.09028037075775,2,0,1,1.15058159059845,-1.47391346086446,-0.203229040384114,-2.32951058593735,-0.0519530857214607
2.03697216698315,1.67099730539817,-0.0410520223413907,0.748176433090443,0.573407762486937,5.76750150689796,1,1,0,1.32374889100902,1.76706618536923,-0.690099240465474,3.70796947238132,-2.11907621166593
0.107774744885547,1.01035303245212,0.199953219832439,0.449296011237588,0.254936081717929,0.867835592371253,0,0,0,1.91594226006418,0.821969262882495,1.00245952643886,1.11812777733767,0.29213169477933
-0.0841081005055806,0.223521215874458,-0.533305600527376,-0.870062520443655,2.67214420120392,0.161605231582528,0,0,0,1.54537838057149,0.0650843642045757,-1.01704728698592,0.139413115368878,-0.982503100549172
0.495619641604594,-2.20648459320962,-0.266032317684011,-0.0977479313579405,-0.134495017662124,-0.390673288516342,2,0,1,1.11336058238521,0.0539693781909953,-0.802624034253283,-1.71086495160503,-1.02768427697262
0.0374151861179653,-0.954585618553158,1.08414781411867,0.893100213716266,0.111574061825906,3.50887295391213,2,0,1,0.707461580983363,-0.222087230043974,2.05098782641682,-0.917170432435193,2.13088044211937
-0.13208803695591,-0.0685730672102366,-0.180745479625044,1.35091509526625,-1.01000268728494,-1.0818547785381,1,1,0,0.924794904771261,-0.269180701408954,-0.522019363555224,-0.200661104166147,-0.229402922294178
1.4767874235521,0.76130590156527,0.251555319378233,1.4889703943085,0.887879801316049,2.25337196112158,0,0,0,0.928136031958275,1.67646596996317,0.362515353915269,2.23809332511737,-0.97367678479563
-0.217030210092103,-1.17990419995829,0.369542235154893,0.371067212847268,-0.307217559138982,0.0111513967376071,0,0,0,1.56978722335771,-0.4628381935375,1.1312465351392,-1.39693441005039,0.956114680401889
-1.28360220409223,3.21119895676729,0.407034259389767,-0.214473243512569,0.133164992636376,-2.02000269347177,0,0,0,1.39551477634814,0.164374844510618,1.53826767716718,1.92759675267506,2.09767072287176
0.385667890443402,-2.55382485095083,0.492505019245782,0.455494589939145,0.945326369680402,0.914582557355577,2,0,1,1.10489102476276,0.00956393420816775,1.00900755326071,-2.16815696050742,0.599342148048161
-0.351512873529092,-0.235933949334065,0.0546325790523077,-0.258111110256068,1.52568672984904,-1.31508628613938,1,1,0,1.91335291659925,-0.386687100166256,0.598625636989521,-0.587446822863158,0.460778031633708
-0.521796093356269,-0.259562643261435,-0.708674076161911,-1.00292375210412,-0.247450568194144,-0.75412508374185,2,0,1,1.96884890063666,-0.737323509853167,-1.15434800422709,-0.781358736617704,-0.895552058967552
-1.06813120068717,-0.663366916619193,-0.0582707524435477,0.84414348279794,-0.35660370110431,-2.38893343405347,1,1,0,0.759867342072539,-1.25918942096445,0.359624235858345,-1.73149811730636,0.951589695800075
0.428365903266692,-0.318990710826149,-0.963421822237506,0.694658775896635,0.207968407569953,-1.29410791781047,1,1,0,1.10124354809523,-0.012283558478796,-1.85500410121709,0.109375192440544,-2.3552095477417
-0.174018234426995,0.742395157572315,0.0933932966058741,1.2610037476473,1.20925334744545,1.47440558693571,0,0,0,0.753644431009889,0.504202053161585,0.736839370825409,0.56837692314532,0.360804827638743
0.515667728648029,-0.874292675785773,-0.347901133459108,1.66655928933767,0.116558887074206,-2.82872020136451,2,0,1,0.502033688942902,0.00529970997373912,-0.962400300628756,-0.358624947137744,-1.21146999556624
-0.234365277305921,-2.08281376630328,-0.118334438145549,1.47185793808934,0.192066193440929,0.452640889502443,0,0,0,0.99690133635886,-0.896117482610449,-0.369506676084437,-2.3171790436092,-0.00230359898517576
-0.658503425821771,0.0937679028102176,-1.09909095717492,0.78931570508443,0.786616109492443,-1.40726507248696,0,0,0,0.674143123673275,-0.393253429014309,-1.46765101712256,-0.564735523011553,-1.53967848852807
1.25023660407872,-0.00181981200279561,-0.283076412422231,-0.0364542711833432,0.739840689710885,3.56776615547998,1,1,0,1.41653936775401,1.35092271460374,-1.24730626243127,1.24841679207592,-1.81638942892318
-0.271763715111397,-0.013100652371574,-1.08973467284561,-0.091283276642502,1.08669203144834,-1.7826400158065,2,0,1,1.74962308770046,-0.284283545109868,-1.85531766936716,-0.284864367482971,-1.90770563057982
0.947951995875196,0.667968074558104,-0.405665544099862,-0.412862939041902,-1.95280729969486,3.94922532552147,1,1,0,1.5543969856808,1.64337986379501,-1.25402220613735,1.6159200704333,-1.75928308407492
-1.20158243010894,-0.0131677029521626,0.526907259597763,-0.781061198320081,-1.18242682652454,-2.59441268160693,1,1,0,0.676441100658849,-0.452815939259527,1.71368840579796,-1.2147501330611,2.25539694930446
-0.466116096375502,0.776047030476303,0.240419981775496,-0.390092785411881,-1.18067847791903,-2.58606583478585,1,1,0,1.6423180331476,0.52460635444132,1.10198347983893,0.309930934100801,0.946956059926494
-0.26935139515318,-2.01073533263526,0.898362457249367,0.613837622009258,0.376981101876066,1.56471295743963,2,0,1,0.79664229019545,-0.485959378624921,1.91384424321,-2.28008672778844,2.06607630965191
-0.390965408130861,-1.1281804949718,0.487968126935476,0.384677020333242,-1.35679104068327,-0.285028246205587,0,0,0,0.938185764825903,-0.555059645511566,1.41561231214574,-1.51914590310266,1.36690166200181
1.34870701199171,0.34879957158572,0.111991365197539,-1.20565664981837,-0.22860827167565,1.44155251437884,2,0,1,1.01191056799144,1.68688380369515,-0.186144324463773,1.69750658357743,-1.12472428159664
-0.0227647012984126,-0.352898482096924,0.998313347136219,1.19785122001404,0.423256564904682,0.824863094834731,2,0,1,1.14103149459697,-0.106090189224467,2.10917664668528,-0.375663183395337,2.01939139557085
0.24422585110345,0.944774597917623,1.19171680875342,1.29114126665685,1.94090825966462,-0.022249972791611,0,0,0,0.55069155851379,0.619332368117818,1.93235896780396,1.18900044902107,2.13920776640339
-0.942371707863923,-1.00471985252646,-1.39938756712371,1.48307160252052,-0.241019348067338,-1.39705726344129,0,0,0,1.66398086980917,-0.991540623574988,-1.2268202877189,-1.94709156039039,-1.8564034263835
-0.729217276509575,0.723902732496846,0.892147736646772,-1.22359523581159,-0.0209705719304921,0.770400347625077,1,1,0,1.58577663195319,0.0978672078100706,2.06304898259914,-0.00531454401272879,2.51351274980312
0.998068908554848,-0.668832740990364,0.777958970340806,-0.41317463437103,0.235647056296984,-0.62446943157317,0,0,0,1.4084525341168,0.871574181438009,0.835214268043616,0.329236167564484,0.557849032126764
1.25848166459556,-1.1130401937158,0.94191451634695,-0.409580866212294,-0.595344815613527,2.46297811355137,1,1,0,1.47167974361219,0.709279862051468,1.29652149382859,0.14544147087976,0.625347368098341
1.2488636888101,-0.342805189366945,-0.908802712301102,-0.451164718262206,-3.19955843375579,3.31190222368249,1,1,0,1.22494998562615,0.837710803094432,-1.95287382112759,0.906058499443151,-3.0664691134123
-1.38063704952533,0.0497793231687396,2.40893084447621,-0.564698951728143,1.5112784716271,-2.82545363488122,1,1,0,0.758896003128029,-0.303930482092737,2.62775133997974,-1.33085772635659,6.19849873847776
2.04996069363639,-1.22768196152554,-2.59425017430808,-0.560010334496702,-0.343587003482767,-4.33330937850925,2,0,1,1.66228729858994,0.920238162075581,-1.87327784530798,0.822278732110859,-7.23846104225256
1.01687282979954,-0.764005910827448,0.00686303751409395,-0.970558066992204,-0.716929115298069,1.78087884096136,1,1,0,0.572229297365993,1.0895320149976,-0.451190610150837,0.252866918972094,-1.00314675477135
-0.0267174641382579,-1.24618206161788,0.118106668928336,-0.56282354617343,0.287909147297481,-2.01403597506723,1,1,0,1.58524401928298,-0.47214557631318,0.711089927216018,-1.27289952575614,0.26293080199493
0.70360777879826,1.01677397775977,-0.14969732641009,-0.332036443298219,-0.617472756244325,0.00863618396354726,0,0,0,1.26733786752447,1.61980758787476,-0.779292517553297,1.72038175655803,-1.00300243161844
-0.971385229151864,0.723612624058863,0.747873287863168,0.193650109749296,0.920167406912455,-0.52677319647113,2,0,1,1.70569537894335,0.105005865750111,1.84894745795762,-0.247772605093,2.4671318048782
-1.09615624155886,-1.03252713710511,0.12403480689883,0.605642856272221,-0.454100665235518,-1.64337929852886,1,1,0,1.6795926237246,-0.978625873809158,1.23579521500454,-2.12868337866397,1.34422585535652
0.0490504509375971,0.557346004122758,-0.778054747212651,0.957873599425007,0.855761324504685,1.34588364672262,0,0,0,0.58271906862501,0.572822057497494,-1.26927810570635,0.606396455060355,-1.6051599453629
-1.19849585655778,-0.255581423099522,1.41003330549222,-0.800818438984397,-0.233542837588828,-1.38221859884224,1,1,0,1.2873822459951,-0.445014637439337,2.59153018033286,-1.4540772796573,4.01856246754222
0.190018998559748,-1.11339175714667,-0.293911808229858,0.0425486556052422,-0.978371478897954,-0.603901484313534,2,0,1,1.49697793356609,-0.605974354645701,-0.787020395669336,-0.923372758586922,-0.777842615019464
1.29770589960467,0.421197439614804,0.610678645005375,2.33570086201341,0.737215963533883,0.639594336612548,2,0,1,1.8813194623217,1.43711985885142,0.704706937701773,1.71890333921947,-0.0763486095939165
-1.03387372296475,-0.322950311846374,-0.666510079863262,-0.461867455821985,2.44160362468046,-2.98659562587301,2,0,1,0.730296226218343,-1.31384242440526,-0.512797542723604,-1.35682403481113,-0.299146436761774
-0.738440754213064,0.880179901191523,-1.0598828782705,0.740429906040657,-0.992492651489919,-1.17111037945793,1,1,0,1.90006479946896,0.305771464052785,-1.23349491035847,0.141739146978459,-1.38132500232793
0.0465639394508634,-0.194863606775901,-0.605838699162315,-0.698344660682268,-0.440736144505333,-0.861058148461234,0,0,0,1.92582021385897,-0.500310603708701,-1.33306136665555,-0.148299667325038,-1.25824133777549
-1.01759611982611,1.18805498210378,-1.05684142085412,1.06536890145562,-1.16938753229774,-3.47922240811349,2,0,1,0.659989403560758,0.174060460799971,-0.854989872328751,0.170458862277672,-1.09608672188214
-0.383283959886278,-0.509764511767954,0.533106472674961,0.545516821338762,1.59198798945038,-0.968032504710913,1,1,0,1.21171736926772,-0.453073993189956,1.36236664228542,-0.893048471654232,1.4494969052362
0.872755411671398,0.219548010873294,-1.55209261464742,-0.918209320243205,0.127274716720975,1.49243133179363,1,1,0,1.48795199359301,1.26546479732202,-2.03728794466406,1.09230342254469,-3.97694064096625
0.969545013970117,0.370294421364558,-0.978489465308578,1.02519134367607,-2.32709865557149,-1.51075669494946,2,0,1,1.94862201809883,1.44831424768805,-1.91529671433974,1.33983943533468,-2.92652394458727
0.383846665027094,0.279108393730607,0.0272183551599775,1.12573840290613,-2.19677491732732,0.271643952933287,1,1,0,1.12136860692408,0.85223657570887,-0.00091121382019937,0.662955058757701,-0.32940995470714
-1.85155566306746,0.201942437313324,-1.71557231699709,0.882800384998406,0.939165264428458,-1.44048127130347,1,1,0,0.770585614489391,-0.516229015516048,-1.04846077798949,-1.64961322575414,-1.57958897092672
-0.0539967368261657,-0.0129965424313442,-0.504888026492709,-2.76807861085069,0.299162155572667,2.46440635743851,1,1,0,1.69317216111813,-0.397987781239002,-0.932474122692255,-0.0669932792575099,-0.955779316159252
1.06477321433828,-0.0908650060774901,-0.304922680917571,0.143826578856264,-1.98992669349438,3.53848782568937,1,1,0,0.789296875707805,1.2208083316596,-1.23939059528472,0.973908208260794,-1.67461857617343
0.813195037411605,1.36503136531884,1.34607823542665,1.5198831251518,-1.20413480040692,2.89122883235342,1,1,0,1.73295379430056,1.14166096123916,1.54749877485448,2.17822640273045,1.8789614334417
-0.190816474104282,0.908130568883166,-0.257536690796696,-0.171316078021067,0.398345738001552,1.17368343533814,1,1,0,1.76540654525161,0.601693573398134,-0.61847313215729,0.717314094778885,-0.324256907489111
-2.6999298085637,-0.609888171401906,-0.523287300658334,-0.65814499931795,0.0447565860236231,-2.45116436613285,2,0,1,0.998361493577249,-1.39470388130195,-0.164305122171665,-3.30981797996561,1.65335520724703
0.0609666388011166,1.39643722121945,-0.663217798972631,-0.154294602086388,-1.8661608131691,-1.2731510089675,0,0,0,0.700393784907646,0.738865793564454,-1.12382012971268,1.45740386002057,-1.38740223674638
0.573751697483578,0.144798373308446,0.447221039692659,-2.3830393163367,0.752522837991073,0.84557242322292,1,1,0,1.29200837516692,1.13517901264855,0.799801893431718,0.718550070792024,0.32069038190174
0.0458035797250989,-0.640606771595302,-0.319450981926009,-1.1382970912816,-0.425684374542395,1.1416202484726,1,1,0,1.91779665660579,-0.835397019693337,-0.691862525437641,-0.594803191870203,-0.684705543577117
0.157412540175875,0.169802259558534,-0.543778849936917,-0.0872555328125386,1.24417031633511,0.261262194213987,1,1,0,1.74194775591604,0.176851329815173,-1.02629940615717,0.327214799734409,-1.24497024004971
0.431565372868771,-0.157187487420844,-0.279673442488512,0.835326720644203,0.450349279282091,1.35500388367268,0,0,0,1.50978176912758,0.246235636086111,-0.70753460312548,0.274377885447927,-0.990912257845795
-0.396549736050212,0.100939594546104,1.06523260036693,0.212110868191506,1.18280748259793,-0.446075429893666,0,0,0,1.4898154506227,-0.0469537871295657,2.11592302316419,-0.295610141504108,2.52701493678408
1.30997822575155,-0.97339415414828,1.56782874914562,0.641346301404555,-1.96397811110401,0.963087341467349,0,0,0,1.64411865069997,0.886337491638027,1.39286702049951,0.336584071603269,1.82567927253969
0.470393399873943,-0.819825275253199,-0.643112078958536,-1.0321009677859,0.746612868701424,0.669645319486524,0,0,0,0.548867884790525,-0.077423695236121,-1.28754550166795,-0.349431875379256,-1.75661755779102
-1.2426702705746,1.36291896902543,0.0205217485106878,1.4857706537531,1.05132374710196,-0.0912842880305058,2,0,1,1.35778886149637,0.10369936639211,0.766044102243112,0.120248698450825,1.28371376759598
1.38157545638553,0.961370930531278,-0.324184458375485,1.19047624727791,0.524171085063729,5.17875356600128,1,1,0,1.31621351430658,1.71770465018835,-1.13922328195846,2.34294638691681,-2.0299443731365
1.20445893700982,-0.883724474401114,1.85739602217537,0.617226731476435,-1.11558427972452,2.39415287100047,2,0,1,0.878233094932511,0.730056226674294,1.66496783905646,0.32073446260871,2.51033310734091
0.824073963681881,-0.900092115436322,0.590763995069064,-0.172938324465871,-0.04776622165316,0.933281127159425,0,0,0,1.55554898257833,0.765923930341714,0.772632380683245,-0.0760181517544406,0.357454026456247
-1.66262940218559,1.72333313279683,-1.7806267173964,0.861580440756975,-1.91702894207942,-3.58672565271379,2,0,1,0.618661379790865,-0.0292237272504813,-1.02609115707258,0.0607037306112361,-1.8986240326072
-0.569306343605481,1.90904216212893,-0.434108699575314,-0.620085924544441,-0.571730237839681,-1.00337499008098,2,0,1,1.92132370977197,0.565164380660153,-0.484024526181818,1.33973581852345,-0.298911055545148
0.635513817289526,-0.777141195855263,-2.29274971170602,-0.878213047268405,-0.748196633636421,-0.00501149684170499,0,0,0,1.37332168687135,0.581808210894241,-1.98335817444471,-0.141627378565737,-5.22101324070157
0.0437220075778579,-1.30230526261311,-0.0929652384515409,-2.22859514687621,0.345178956409604,-0.497378691715851,1,1,0,1.42893574747723,-0.713371659546364,-0.374479916389421,-1.25858325503525,-0.22965248448094
0.348012303661307,2.62349516681868,0.70396445332971,0.193263225267502,2.16395110444013,-0.068980906361306,2,0,1,1.63932325737551,1.13180589236785,1.24864325379135,2.97150747047999,1.05991660299811
2.45959354887041,0.229628914346807,-0.894489621256767,-2.31265671694031,0.336646342204412,-1.03487444435034,2,0,1,1.66448315884918,1.49218930056055,-1.79810583292392,2.68922246321722,-4.24857279138395
-0.81838032439967,0.186749892141885,-1.28250679207462,-0.0243337921357311,-0.41786398353582,-3.63981993153149,1,1,0,1.97784184245393,-0.103522352156482,-1.16521601586425,-0.631630432257784,-1.74663325974957
-2.11320011492914,0.0761366349502805,1.25578417415048,0.441340589239052,0.923691020706286,4.06466819601301,2,0,1,0.942182966275141,-0.463771206653517,2.33876184505989,-2.03706347997886,4.62476846323009
0.273695272430415,1.40486018632133,-0.964629979588376,0.789576753769568,0.766766592335207,-1.22719796020165,2,0,1,1.066568161943,0.757746000850877,-1.74529776175853,1.67855545875175,-2.20295523160717
-0.687596841243412,-0.191722235336317,0.907783881064091,1.02181962668272,0.248748147903931,1.86709157466342,2,0,1,0.868614756618626,-0.421963216208873,2.09837269668705,-0.879319076579729,2.50316460337159
0.446041052961866,1.45939216415609,0.214073613669174,0.615261159537096,-0.657218034949707,-1.98193265699696,0,0,0,1.7154975348385,1.17388755912888,0.469964495791699,1.90543321711796,-0.0178938256235179
-0.812384723790597,-0.220655451134541,0.881023122748974,-0.859577856168591,0.583124169133963,1.67597551304443,2,0,1,1.09874929033685,-0.426737351819638,2.11470266922834,-1.03304017492514,2.57443096928855
2.21205548033514,0.50514588627314,1.00254499828277,0.890748976368977,0.690682867666824,1.26673255080662,2,0,1,1.98603319947142,1.11802322431025,1.4018598834517,2.71720136660828,-0.206965483769593
-0.12370597157743,-1.03349700607288,1.13991050456775,0.0632747474874033,0.291864679995948,3.4475450354881,2,0,1,1.42678542959038,-0.328557319617385,2.0858377464082,-1.15720297765031,2.40352698071294
-0.477335506030052,0.17047347145922,1.23603585230776,-1.86466105555997,1.92307416746338,0.839422088362618,2,0,1,1.6502039389452,-0.0651953492860401,2.46332715747315,-0.306862034570833,2.94940721064558
-0.166261491486608,1.20066816089193,0.295401510142675,-0.1131368509232,2.30612974849875,-1.77939064722758,0,0,0,0.890088660293259,0.535614819417414,1.0498811630086,1.03440666940532,0.757064511771958
0.862563383626431,-0.163405914765736,0.171761023605458,-1.78338637587516,-0.98919526784311,0.118862695422771,2,0,1,0.608083216124214,1.1383963454329,0.314743846692851,0.699157468860695,-0.519041336415514
0.0973404852028189,1.28247586312264,-0.955389282695439,-1.05349044072366,0.401427408509758,-1.96594671573682,2,0,1,1.8971915874863,0.557829435115141,-1.61450938489943,1.37981634832546,-2.0081190505937
-1.62561673921129,2.72719638791127,-1.21040912105673,-0.619354677304664,-1.23238817325492,-2.25298269613547,0,0,0,1.57336319785099,-0.0657649187218684,-1.07091724068745,1.10157964869998,-0.79520150290218
-0.0046207678264578,0.941924217330924,-0.601382997836582,-0.586938576519139,-0.544689343472721,-0.18897014823923,0,0,0,0.568699095048942,0.659673268205498,-0.997120131211417,0.937303449504467,-1.19814522784671
0.760242167662055,-0.248614037279559,-0.135816136579885,0.926975731943589,-0.434532959022116,1.00882563712695,1,1,0,1.97329351061489,1.05633964118141,-0.913818725590696,0.511628130382496,-1.03187444082183
0.0389909128725626,0.0964788597064851,-0.98727278492051,-0.0654058453375009,-0.140845191963231,-0.351185555800061,1,1,0,0.933542423066683,-0.0468426044278133,-1.78982547138391,0.135469772579048,-2.01353648271358
0.735072141614441,-0.433930941301739,0.831925014618267,-0.937111758775164,1.75814127006527,0.360985844189022,1,1,0,0.525275810970925,0.961595214739115,1.13544154142578,0.301141200312702,0.928777887622094
-0.14647262699887,2.17866786745157,-0.795059516415481,-0.633859433761415,-0.830141420577255,-0.303261231664585,0,0,0,1.86960533598904,0.655711768473971,-1.09343586975241,2.0321952404527,-1.44364640583209
-0.0578873353812826,-2.95877961913012,0.340464612015827,-0.575224286015068,0.514427756122244,0.911355406308057,0,0,0,1.03415239299648,-0.464093146767166,0.960632526636277,-3.01666695451141,0.738816559412936
0.482369466104533,0.0808882391991137,0.870429820346915,0.188221041759335,0.787131076627757,2.34563559760682,0,0,0,1.83610955253243,0.962952868142441,1.47580011533939,0.563257705303646,1.2584901745893
0.992943636775734,0.110137804617221,-1.18216100524638,0.539655974462932,0.242015513717525,3.11488256700744,1,1,0,0.855783318402246,1.09659142017896,-2.03702820496429,1.10308144139296,-3.35726564726849
-1.24639549803204,0.213448326312653,1.02289397573496,-0.420884069657012,0.559916806561637,2.09147977309642,2,0,1,1.5656931361882,-0.260177868281578,2.22987708831719,-1.03294717171939,3.29218344950196
-0.0334875248456097,-1.55781961263232,-2.10843457624333,-0.339466559977085,-0.650418509012264,-1.23527919732337,0,0,0,0.902426050626673,-0.753770347768183,-1.74235883606992,-1.59130713747793,-4.18338162764106
-0.0709621812499963,0.216211546257758,0.229762637699325,0.518080388363255,-0.458392616404943,0.98364133898871,1,1,0,0.843801375245675,0.242824096439616,0.791635417770014,0.145249365007761,0.530487456648647
-0.75892065373095,0.18766381702644,1.51171079155376,-0.869387621013225,-0.680486321714024,0.70303756676921,0,0,0,0.723917240276933,-0.0484527230886001,2.52893840656083,-0.57125683670451,3.78234223683847
-1.03435936093915,1.2586221252136,0.555437989150677,-0.160670914154826,-2.19243732797149,0.926249224349649,2,0,1,1.29420087463222,0.143230648061171,1.52020636081732,0.224262764274447,2.14523533924051
-0.63073195397082,0.523517780908964,0.914878801249372,-0.142616786605041,0.625987094854832,-0.928114395415161,1,1,0,1.08975982456468,0.221785467013207,1.87771273352933,-0.107214173061855,2.46048955646956
0.586807720012995,1.11545427747996,-0.553396624279516,-0.765210967844204,-0.415461682891878,0.136501554103845,2,0,1,1.54089813143946,1.48831554791526,-1.27860162604777,1.70226199749295,-1.69360096857203
-0.416322656183652,-0.957502242170469,0.298376089510017,-0.659800571317015,-0.17630383376965,0.782339677203185,2,0,1,1.09502432402223,-0.653197970230875,1.09404732438812,-1.37382489835412,1.01307483520369
-0.78488780950532,-0.124405579855432,1.10637953965214,-0.307405440413442,0.665259163558917,1.48613446978194,0,0,0,1.97264437028207,-0.237885575655266,2.63895698740957,-0.909293389360752,2.9976468888096
0.163416319486097,0.191737829049968,-1.32914958483242,-0.881927450206018,0.0498835161725022,0.111861399596907,0,0,0,1.47589021245949,0.164778535096958,-1.85052081630929,0.355154148536065,-2.82171548915093
-1.23671423510935,0.272217250603347,1.00169412888602,-0.0953451587484263,-0.111450292883659,0.387839428576195,2,0,1,1.75381783698685,-0.291539096027349,2.44135662706748,-0.964496984506003,3.24010249288139
1.04587377623667,-0.693814463673254,-1.40930387375741,-1.2759693730741,-0.529151371898205,-1.76065190756759,2,0,1,1.845969995833,0.737621026232962,-2.09117134308083,0.352059312563417,-3.86448152375149
-0.484595416218709,1.47917192085213,-0.498781024681268,0.375584983964806,1.61586225377977,0.871875844596673,1,1,0,1.181859553908,0.407357459593638,-0.630005789114936,0.994576504633424,-0.512966633143827
0.189128811680665,-0.611767021642771,2.62275685248845,-0.469230372596356,0.139510593333388,-0.0767478940698514,0,0,0,1.68480277841445,-0.0115060719173571,2.31185347880904,-0.422638209962106,5.05638489329624
0.0510063315749732,-1.61430997435935,0.510665566028528,0.79893320361921,0.119583697425689,-0.234450269678307,2,0,1,0.819557905313559,-0.337783590910304,1.11812544113245,-1.56330364278438,0.970324800482083
-0.000240668886441977,0.40249011059067,-0.0908431942191987,0.426288199258715,0.979865755338673,1.27849293999007,1,1,0,1.71595433074981,0.446667331017238,-0.474070997662197,0.402249441704229,-0.181445719551955
1.80938204244287,0.664555447289484,0.978765679210879,-0.512132013193506,0.379384347932197,4.8759541990657,1,1,0,1.8416750964243,1.15346655526254,1.17770891778899,2.47393748973235,0.148149315978892
-0.825327957109945,0.944127070994937,-0.243808656888315,-0.347515536975732,-0.880212619427024,-0.553802276234161,0,0,0,0.86119456437882,0.424408088476465,-0.0858521846781329,0.118799113884992,0.337710643333315
1.14547045222799,-0.946260797708289,0.621808959213633,0.609392746386973,-0.406452972046551,2.89795357792415,1,1,0,1.09075749211479,0.909317177225316,0.619311746844204,0.199209654519697,0.0981474661992807
0.0315731875532431,-0.248288449238896,-0.344595219846323,0.735464318036699,-0.777125159688669,-1.24894895047295,1,1,0,0.737981564947404,-0.270583356632705,-0.819122221040368,-0.216715261685653,-0.720763627245888
-0.83520580530672,-1.32843646853908,-2.35522454584149,0.476708560673323,-1.68350202776482,-0.628383307959975,0,0,0,0.57490778376814,-1.05537050299565,-1.22076190195327,-2.1636422738458,-3.87524328637626
-0.0687636490165125,0.844763742098917,0.472387633353643,0.328285766781953,-0.166982560101955,0.69584201105172,2,0,1,0.667566649965011,0.657124305421582,1.24357575117721,0.776000093082405,1.0135389157238
0.746771687012467,0.347696732438648,-0.511480194786914,-1.78126747525362,0.593948229116086,1.26216036093123,0,0,0,0.730372427147813,1.52454206103352,-1.29615753557461,1.09446841945111,-1.76973207658629
-0.425518734394604,0.913762586431107,-0.573602199756116,0.119396421345399,-0.518159140749172,0.505510937702301,1,1,0,1.33439853519667,0.446655156473186,-0.879768760209653,0.488243852036503,-0.721685665117628
-0.772082235193457,0.608274553380681,0.00379720372860315,-1.41829537201652,0.44119836360764,-0.109522211166789,2,0,1,1.5900278983172,0.228207556841298,0.447944465922909,-0.163807681812776,0.779676642650663
0.152764106747895,-0.607547987804487,1.34255092952781,0.076034377653877,0.755600865049457,-1.34507736599407,0,0,0,1.79005111334845,-0.109422614841106,2.2096493549375,-0.454783881056592,2.53233775230773
0.988596845178799,0.179658070871844,0.295461511559413,-0.660833242210851,-0.112960860177346,1.03579745114832,0,0,0,1.50050857104361,1.47929801054911,0.409176821415679,1.16825491605064,-0.397673822059973
-0.073458334672174,-1.90840941941738,0.841786943605435,-0.105506046058469,-0.47462538771123,1.40679953293723,0,0,0,0.786354355863295,-0.242405272099999,1.82139867123563,-1.98186775408955,1.75703222188304
-1.38702655355974,0.502946257689096,0.62906429822047,-1.18008588758692,-0.702121930359935,-0.706426366052215,2,0,1,1.72796771058347,-0.292397205787367,1.86906903123711,-0.884080295870646,2.64515515000068
-1.30667590437536,0.968899153478499,0.101598399463067,-0.164359186462737,-0.279371035837961,-1.84523153109143,0,0,0,0.624014948494732,-0.0192588940275497,1.06520322059797,-0.337776750896864,1.5098727033015
-0.768395325077939,-0.875737125773327,0.671120874661012,1.5194407743176,1.56420974922256,-1.90974118307725,1,1,0,0.68133736634627,-0.696871195372776,1.69003058578937,-1.64413245085127,2.11063707439996
-0.527108125374458,-2.13602453869801,-0.138316374561719,1.82516507817365,0.091093609568575,-4.28355356390086,1,1,0,1.7398463167483,-0.950618902688334,-0.277454841260764,-2.66313266407246,0.250475376251019
-0.0214270650416246,-1.52282758158501,-1.24931225315241,-2.48863985015353,-0.462187981024542,-1.04745317547356,0,0,0,1.86524160788395,-0.745886679677131,-1.78572024044629,-1.54425464662664,-2.47719744126319
0.670498070996282,-1.11311820788607,0.347635244215357,-1.65432225038973,-0.450438751827904,-0.341538072669711,0,0,0,1.82105706050061,0.712934115338311,0.405968004360152,-0.442620136889789,0.0247724174344326
-0.434617038572407,1.2409838955359,-2.27781365917161,-1.42085528137192,0.0730966154107931,-0.41088435856666,1,1,0,0.851533683715388,0.371079774375277,-1.58044080761901,0.80636685696349,-4.12101027977081
-1.11387978331285,0.00348193506299025,-0.986209181193632,-1.27629656625184,0.131353009028611,-1.61285555033002,2,0,1,1.11687177768908,-0.778998730853387,-0.998034071078759,-1.11039784824986,-0.858538579074418
0.6071059948785,-1.23779458599307,-0.0595413435522069,2.07910079937255,1.34563639889239,1.87953753181095,2,0,1,1.58529595599975,0.292434081477792,-0.735807721471292,-0.630688591114566,-0.726188681982914
0.275456968739591,0.555699118898025,-0.160759490474124,1.01553602068229,-0.423361472072342,1.66054785680256,1,1,0,0.940940227592364,0.712412647709143,-0.49015448509331,0.831156087637616,-0.596975949687838
1.15734706941474,-2.1831493493599,-0.420361520340292,-0.109612816175039,0.976942283768021,-0.676758559460938,1,1,0,1.60448714788072,0.979070128434392,-1.27793334325182,-1.02580227994516,-1.99807011009532
-1.68248085947826,-0.247024457097248,0.988591016328615,0.981518881029313,-0.6309804050454,-2.2394993372916,0,0,0,1.32098312943708,-0.708691453359967,2.29959572779756,-1.9295053165755,3.65966289213549
0.0873190888948744,1.11285692758645,-1.06961379110863,2.26134720681062,0.219751181001007,0.201891574588759,1,1,0,0.806703422800638,0.735757326858495,-1.68037706534551,1.20017601648132,-2.22654667111213
1.35336189394267,-0.341673237009086,-2.61364346701511,0.637089923803561,-0.345672485091224,0.633567876285339,0,0,0,1.92854585684836,1.12475308005813,-2.05261562483717,1.01168865693358,-6.58064882797289
0.724173800683369,1.30543834214107,0.780451897662152,1.77553654284699,1.0059050442053,0.0316069574159377,0,0,0,1.64789545559324,1.31922915148805,0.952076543981656,2.02961214282444,0.836729994640936
-0.832552825764212,1.79532387144079,0.0451050735540702,-1.1475015474698,1.39731579966728,1.54372292446147,1,1,0,1.47372438909952,0.134371272212433,0.82724721521158,0.962771045676582,0.922762972872352
0.732528486768414,-1.16783522747345,-0.108489158897566,-1.07932259375455,1.53536108075324,0.938183935186575,1,1,0,0.726394309196621,0.508517623702881,-0.859816367001497,-0.435306740705034,-0.949506804563547
-0.871926869997213,-1.15228762498202,-0.391224310070966,1.06794985879243,0.684528247552368,-4.61366207129295,1,1,0,1.51220830425154,-1.29049145207068,-0.324370434974578,-2.02421449497923,0.0894782498552811
-0.453397511229793,-0.914455469345649,-1.6869995043286,0.89175319136426,-0.505352566351759,-0.995061897002894,1,1,0,1.94709999929182,-0.88385993888101,-1.60525210373923,-1.36785298057544,-2.9206014974274
1.18753427862908,0.52872803253363,-0.95270445515168,0.870096509939708,-0.124233092127789,-0.62463360183757,2,0,1,0.729979611351155,1.61661843800453,-1.8088163662662,1.71626231116271,-3.09294318893244
-0.290145311790079,0.835078927048582,0.507414112103395,0.48576246486856,0.301334745178827,-0.521489516360703,0,0,0,1.60352539294399,0.563652036447651,1.28981075662598,0.544933615258503,1.30497353599687
0.828546144965436,1.20913697409153,0.0188160990067223,-0.471093692846051,-2.08736714684124,2.18737362613231,0,0,0,1.59867562656291,1.83942339859046,-0.205343893155074,2.03768311905697,-0.790913946951992
-0.291227708779169,1.29947254536082,-1.41891037358562,0.949629993820546,1.4203970626931,1.05825618232462,1,1,0,1.60019994096365,0.279711832247146,-1.6801710714583,1.00824483658165,-2.54659303839208
-1.57636240474791,1.07573230420989,0.598171931352236,1.84772759129207,-1.06897934731921,1.83858004394864,2,0,1,1.63553886511363,0.0970142356284856,1.53308968635362,-0.500630100538013,2.77270626745238
-0.848815696948922,0.939801023514297,0.786379621743228,1.24040742887073,-0.459351897002142,-1.079041088246,1,1,0,0.834953202516772,0.262391334872511,1.76849595876377,0.0909853265653754,2.42157494043538
-1.08851986195719,0.163374693406766,-0.134633045902237,-1.38081421835124,1.33166610954918,-0.573469369157284,1,1,0,1.42670660687145,-0.746103142697438,0.111161039233647,-0.925145168550429,0.81925377015272
-0.484290571117173,-0.888138558640392,-0.016386517615323,0.474676877291482,0.409776277697745,-0.430556449914062,0,0,0,0.5393108332064,-0.910937490492068,0.2748742371814,-1.37242912975757,0.451517535886528
-0.336311209009573,-0.72616098275635,1.40914040823509,0.0123463579876949,0.472336504221015,-0.60602477208852,0,0,0,1.0399121082155,-0.332925257182079,2.40336257256358,-1.06247219176592,3.15459202547975
-0.153357890661644,0.407597005613739,0.394838698802266,0.0870999372857267,-0.749698629326992,1.25643366638206,2,0,1,0.994566792272963,0.421241235980055,1.08855089968217,0.254239114952095,0.943035288266175
-0.243247228574846,1.68353633925179,1.21987512807247,-0.182368193763325,-1.60169156402432,-0.353958600704366,0,0,0,1.96168870001566,0.418080718325996,2.1252131434475,1.44028911067695,2.68299748471978
1.89220204160011,1.70597982356461,-0.0450772128729762,-1.26567026582532,-0.791447325580303,5.23431848553576,1,1,0,0.813144885003567,1.7759266016345,-0.787257620286333,3.59818186516472,-1.98235646734606
-1.38599833728542,-1.92616670082608,1.47948784483878,0.331283912940739,0.502010547640313,3.68506788041812,2,0,1,1.15961426787544,-0.706660877682489,2.44801831365685,-3.3121650381115,4.34497402696299
-0.41482430070778,-0.833998015228465,-0.0756837866923921,1.35172863098665,0.717195270520938,-0.352349595652721,2,0,1,0.667869014898315,-0.855557336501817,-0.405038999399525,-1.24882231593625,0.263456727322996
0.349081528106831,1.41913251633319,0.917748457199555,1.63656573626269,0.0433551906169097,-0.0735904331046657,0,0,0,0.806585299083963,0.722309588757944,1.53221356352738,1.76821404444002,1.48641538629228
1.62844226581541,-1.06410971501924,-0.344778713742413,0.479932228852687,-0.394144346444174,-1.23172718316337,2,0,1,0.577697316417471,0.865150229446552,-1.252656574231,0.564332550796168,-2.31799969330023
0.0885218957136163,-1.61357747248045,-1.07700265605392,-0.736315911257857,0.380004825407965,-2.82671158649434,1,1,0,1.7950164162321,-0.393536581738131,-1.9002395388254,-1.52505557676683,-2.24252720782146
1.23915070840056,0.599811088697427,1.00160472735829,-0.583016619413601,-0.622427952571525,4.68524791606412,1,1,0,0.967492804280482,1.28569379175234,1.13879147577298,1.83896179709799,0.764058746316009
-1.64455553575371,1.73296470538705,2.29600404077134,-0.611431981951386,0.511387206007391,3.93916989062023,2,0,1,1.57470751472283,0.147001142878374,2.26780319911899,0.088409169633344,6.23656361729638
1.44635652537848,1.93450456245773,-0.325878115450014,0.603350043610892,-1.10137305663194,4.44684910392036,1,1,0,1.95378072187304,1.84058166710446,-1.27403127762599,3.38086108783621,-2.09811275627851
-0.690560171665183,0.532820575670794,1.46885612852932,-0.235763339357311,1.86141559956748,-0.603817135115551,0,0,0,1.80248844495509,-0.0138670913114333,2.32042500082135,-0.157739595994389,3.62827242872382
-0.276431085453852,0.719665756019784,-0.236908933173859,2.90421609162339,-2.70498912238434,-1.12287583066028,2,0,1,1.11919375834987,0.523857662426599,-0.443923147559453,0.443234670565932,-0.197386780893866
-1.10941875989944,0.560093385755184,0.923493117890428,-0.268291279315417,1.41793781636752,-0.16950447209221,2,0,1,0.667695695650764,-0.134633637039352,2.06372686638977,-0.549325374144253,2.95640499568029
0.133869316429452,-0.018086931659967,-0.989191806701409,0.148092848403041,-0.655309498116006,0.582446705176094,0,0,0,1.78975204529706,0.0305113429810009,-1.71631168931891,0.115782384769485,-2.11225292983227
1.78533905173155,-3.37173908255051,0.275646278286709,-0.206794982835284,1.25228304742217,1.07468071576558,2,0,1,0.804986203787848,0.835573500915006,0.253755994517961,-1.58640003081896,-1.23404649515813
2.42216335525159,0.760703244759755,-0.763661093561037,-0.642560138451547,-1.46028743217333,5.35890771559726,1,1,0,1.55635221581906,1.60771971954341,-1.67367871281188,3.18286660001134,-3.94948554237366
-1.07682890211841,-0.39122685224321,-1.35211198419997,0.847571823884568,-0.330734876793339,-3.08943036366355,1,1,0,0.831925538252108,-1.04152932253973,-0.989116398149193,-1.46805575436162,-1.62739506628153
0.485941110403099,1.00990122381185,0.655024410228004,-0.527572126400654,0.210817790526989,-0.317741904339674,0,0,0,1.81986691476777,1.20132093140793,0.98874477148638,1.49584233421495,0.824107710052909
1.38852173874429,-0.626973147073749,1.60964676035496,0.00237075710813171,-1.00949926422224,5.17376457118373,2,0,1,1.42148501577321,0.843401855246167,1.49112559229875,0.761548591670543,1.83077178196562
-0.195656817284544,-1.63457736950186,-0.788506965877911,-0.281880233551283,-0.534776646171062,-2.3227784469663,1,1,0,0.566406402154826,-0.898899564884624,-1.25196915804496,-1.83023418678641,-1.38135711447128
-0.218174797706211,1.24524265203048,-0.883876112525995,-2.8284746523873,0.49505827488594,0.77348836940804,1,1,0,1.69256906432565,0.486012786320748,-1.32390423660058,1.02706785432427,-1.54957742734578
-0.304777954546445,0.181377446555404,-1.07251461179358,0.650930316327698,0.548494049782142,-0.197588240077891,0,0,0,0.710104589583352,-0.156871027289443,-1.68904202262714,-0.123400507991042,-1.84025126904072
0.597832724111443,3.4953042639856,-0.458140981447841,0.157759171113334,-1.22774261421895,4.46034918066345,1,1,0,1.4110608297633,1.3422772385871,-1.05465518049407,4.09313698809704,-1.51411468700712
1.39742941081576,0.915591913326913,0.665647015578227,-0.853437022665369,-1.00661264436047,3.78749945141142,0,0,0,0.769039060454816,1.61979831635401,0.71270164835469,2.31302132414267,-0.0661353796593058
0.687619761239963,1.04850651742624,0.712228212418725,1.36310008597407,0.207167201609838,0.675987417507264,0,0,0,1.7120692973258,1.43295909167566,0.8356561853685,1.73612627866621,0.736836663597487
0.320188014296969,0.763824936934856,0.442954227499162,-1.26289617117116,1.41740118033914,0.315141558870209,1,1,0,0.708110485924408,0.975824478716899,1.00232603655279,1.08401295123182,0.565720440701355
-0.301869925777261,-0.6033873768594,0.759587312059179,-1.77794654572074,0.747089396555255,-0.893358045242844,1,1,0,1.58448688790668,-0.313683931705161,1.6630127194364,-0.90525730263666,1.82104454989562
0.49834868555795,-0.370429662702776,-0.468877666019124,-0.686919645075559,-1.51943307234853,0.157966071323765,2,0,1,1.59977956477087,0.424995806301749,-1.05082515421117,0.127919022855174,-1.4361040175962
-0.549536917916756,1.05982593833365,-0.172709977883837,-1.18433552229326,-0.720070739324317,-1.05814249915179,1,1,0,1.04967742285226,0.458298876954836,-0.241420477727949,0.51028902041689,0.204116962149083
-0.279256503637243,1.05511052983939,0.682049899385807,0.789677301727648,-1.83821203439613,2.16747266360296,1,1,0,0.530884683015756,0.482024707753813,1.40906937530629,0.775854026202146,1.64335630240886
1.09651344311173,0.582972161120319,-0.281577328241543,0.0859637709502686,0.784395864352993,3.0511825180622,1,1,0,1.49165243201423,1.77720079250293,-1.19194431834677,1.67948560423205,-1.65966809959482
0.442013088178811,-0.986567435539539,-0.961622573931821,-0.370061442579403,-0.871052149527092,-0.284407658909322,1,1,0,1.3673441298306,-0.1369371139247,-1.76321942400317,-0.544554347360728,-2.36525823604245
0.241016294026112,1.68462181174398,-1.37765014473256,0.00933636704307702,-0.0108663130165317,3.03400983051827,1,1,0,1.97492963750847,0.50776087498518,-1.86035268502854,1.92563810577009,-2.99631658349123
-0.255607655355518,-1.36684104568263,2.69758663663836,-0.951059591672824,0.609141558215759,3.99237636704077,2,0,1,0.921798968804069,-0.410276349850255,2.27167906260337,-1.62244870103815,5.65078092863223
0.931032901484882,-0.433214348611114,-1.69971505556293,0.181717711397805,-0.133051648058773,2.91115286666432,1,1,0,1.49652621115092,0.707847360233971,-2.08753752605157,0.497818552873769,-4.33046301261075
1.33491258537547,2.32505849371513,0.0293166527942015,0.190339844032856,-0.849531062880063,4.40308759580371,1,1,0,0.814384001656435,1.77138309351962,-0.4308045799064,3.6599710790906,-1.27627927978707
-0.869271763875442,0.524122181151092,1.93431433615124,-0.0717387693981193,0.115138725174226,-1.75427351734983,0,0,0,1.55087156419177,-0.154010352166784,2.38061592737231,-0.34514958272435,4.73790043617792
0.0554869546651026,0.970733416408591,0.837510875177963,-0.00285171005059469,-1.331337154012,-0.471949603994391,0,0,0,1.12050643423572,0.599992376692311,1.69035251392457,1.02622037107369,1.61953479569082
0.0490669131919192,0.376973397152614,-0.185346331084667,-1.10821896191248,2.37445827173169,0.506144628816628,1,1,0,0.546270099352114,0.392334133818617,-0.538468189020432,0.426040310344533,-0.419759575361253
-0.578355728360897,-0.995933396542156,0.533329177764386,0.935191767373595,-2.49583641731167,-1.52487121170447,0,0,0,0.52586076722946,-0.744067058353872,1.51157947162478,-1.57428912490305,1.64501408388967
-0.998738655996004,-0.597482913048045,1.78495624201476,-1.48583945173733,2.20367615406188,-3.49770895124284,0,0,0,0.88435420813039,-0.661171263396355,2.43993995407562,-1.59622156904405,4.56865114002553
-0.00243278000660164,0.165251423080152,0.189627819830131,2.22854189842651,0.571396927069173,0.524967170664265,2,0,1,1.49874287599232,0.132284064542867,0.718199916015671,0.162818643073551,0.381688419666863
0.655511882812969,-2.92847717857757,-0.5690875121866,1.6241352225378,-0.583745237218935,1.51421527625038,0,0,0,1.08188934600912,0.632766899381215,-1.21019506795923,-2.2729652957646,-1.79368690718617
1.47684227897655,-0.847914226578549,1.45189294457212,0.519764625253335,0.274860357622418,1.89583204849162,1,1,0,0.690171657246538,0.755532775278095,1.43098843630007,0.628928052398004,1.42694361016769
-1.90915278827921,0.798584512223446,1.86899345256532,-1.352028636762,-0.0482891959610158,4.13681092605629,2,0,1,0.788323621847667,-0.0982986223959333,2.31352880508142,-1.11056827605577,5.64713969340986
-0.702439473312409,-0.298455987965219,-0.984554893737541,0.426123827628841,2.25246864177724,0.0586882628851757,0,0,0,0.802003877935931,-0.857035614300423,-1.22956170522285,-1.00089546127763,-1.26667031416267
-0.311430218011919,-0.283611376945371,0.718756763904366,-1.66318758520667,2.20798222218406,0.472106895987048,2,0,1,0.614492033957504,-0.353806299548947,1.53331297592952,-0.59504159495729,1.74894374582065
-1.66315703066738,0.869519306648764,0.129347296958262,-0.269943621830999,0.766845014645972,1.9629481136302,2,0,1,1.10555447649676,-0.0117358053186659,1.07230541597064,-0.793637724018612,1.9218516245839
-0.75053344179229,-0.544355284698977,0.701641308893363,0.790790959773877,-0.284191743792878,-2.86123400993834,1,1,0,1.70160628319718,-0.50085096434123,1.71768875840156,-1.29488872649127,2.15381605957902
-0.777351759181508,0.628803235377603,0.526697831887448,0.840608638772999,0.151645292541353,-0.726848574453224,0,0,0,0.631949853501283,0.0787437423975218,1.45425138790637,-0.148548523803905,1.8307474229564
-0.722569699859602,-1.42233445794539,-0.0205130989546023,0.0329694848504644,-0.781106086643039,1.09576501186926,0,0,0,0.773822030401789,-0.975647109831312,0.489354584681413,-2.14490415780499,0.681543501950398
-2.18883459914707,-1.22751263333428,0.438251047306971,-0.238163753848546,-0.957398363247324,-1.95509649240378,0,0,0,0.951363725936972,-0.88116247572423,1.57639947404825,-3.41634723248135,3.06533669376101
0.213418550286554,-1.67410551574443,-1.21052856570154,0.263552286150818,-0.30434111795109,-2.44984690057722,2,0,1,0.621795785846189,-0.453802916766041,-1.78431903634487,-1.46068696545788,-2.63447568168963
-0.631922936254832,0.0843984822448786,-1.4044199438289,-1.59178517406521,1.5308786534036,-1.76728093069552,0,0,0,0.744694201624952,-0.556785425253613,-1.60628666579875,-0.547524454009953,-2.17691695140298
1.52049119383216,-0.2061256639704,0.720749157209312,-0.376235068846935,-0.478305936644692,1.6774789127656,1,1,0,0.694866240723059,1.23257290946426,0.613823493800218,1.31436552986176,-0.078992879413539
0.795955949415082,1.44187164028206,0.0860355032767252,1.81252714991038,0.275964288525917,2.486442632974,1,1,0,1.02706785791088,1.56039736606925,0.072134202392848,2.23782758969714,-0.623884942861632
-1.4535295651328,-0.0417821033853644,-0.13161704140846,-1.73809968261789,1.29277985593516,-0.696806798739692,2,0,1,1.73594432324171,-0.896702961816179,0.163422821208886,-1.49531166851816,1.19029548231588
0.0983954210058388,1.35375447776378,-1.67605197893984,1.62911115074531,0.424010706580774,1.76088135483966,0,0,0,0.809805131051689,0.808641445628956,-1.71824680478866,1.45214989876962,-3.45049937888552
-0.593770984233153,1.94522527592283,-0.569497990768114,0.528105441488507,0.527765253770584,-1.70212683297572,2,0,1,1.07302848517429,0.581235247222894,-0.649405923655636,1.35145429168968,-0.545224997303074
0.888281168634515,-0.490938233708141,0.192205150896545,-0.360444186597554,-0.653829982143573,-0.257271076411848,0,0,0,1.7748630765127,1.04808433175273,0.111474010382128,0.397342934926374,-0.503870866841425
0.0530704154986666,0.388439074944612,-0.486322920752822,2.23761689061182,0.121675552673985,1.20387123083118,1,1,0,0.573533845599741,0.536942540791351,-0.96510895134288,0.441509490443278,-1.02571625700431
-0.557023625844656,-0.84489325918598,0.0812840129938752,-0.0401996174749625,-0.986863054729454,-0.396788932960563,0,0,0,1.61845997779164,-0.798325217328092,0.790796115167488,-1.40191688503064,0.719591651832406
0.43839703617272,0.737990367871089,0.384897246784297,1.894125331564,-0.755594462248608,0.551749629984207,0,0,0,1.09323868423235,1.22678373998306,0.769329011392138,1.17638740404381,0.331397457395873
0.152608158642419,-1.07976033128386,-0.137501971038181,0.024804649937664,-1.16098995844004,1.6478216647259,0,0,0,0.745874385116622,-0.536116555072806,-0.525369379484484,-0.927152172641443,-0.427612100718781
-0.164617581749564,-1.02647387624363,0.427593109239094,0.553425403100445,-0.442801523619572,0.858619044311575,0,0,0,1.5783408661373,-0.364679686674005,1.24582851704757,-1.19109145799319,1.01980380022775
2.01989062147597,0.288793361578875,-0.243064448539363,-0.574350945442218,0.334947784039575,3.19435224199612,0,0,0,0.645668499404564,1.71197603000106,-0.963375903758873,2.30868398305485,-2.5060195185547
-0.529385886317261,0.0908113192871749,-0.318352827853891,-0.928337006439503,-0.10065856814523,-0.881209412638568,2,0,1,1.67708239494823,-0.39036112253555,-0.570689259630826,-0.438574567030086,-0.107319769390522
-0.470786972984042,0.262623176711222,-0.254106393508011,-2.00042544129482,-0.975536842960497,-0.637719103989842,0,0,0,0.902809544350021,-0.0213886943010055,-0.453017751377213,-0.20816379627282,-0.0374258140319788
-1.54593692401752,0.0693349127912537,0.638887430163065,-0.622068696299165,-0.973216625621073,1.19365935617994,2,0,1,1.11007146700285,-0.678453802600924,1.63706021909743,-1.47660201122627,2.82371178434365
-0.0405267232951771,-0.528643818856825,0.821065383166085,0.727145566485242,-1.34078652646553,-0.867025001615906,0,0,0,1.91403108800296,-0.198404262369117,1.74979560769358,-0.569170542152002,1.68265748962735
0.890356305470676,-0.130202164518766,2.33547908658196,-1.10218330324535,0.414102402054408,0.461013601561903,1,1,0,1.10698063008022,0.922117426615508,1.5839811625614,0.76015414095191,3.78060186769324
-2.07138785092921,1.62015874435582,-0.983307557611062,-1.15946277085336,0.274162429825081,-2.12926509652164,1,1,0,0.550652379402891,0.132297244318364,-0.827292898946337,-0.451229106573398,0.10477273570709
-0.250065120073019,-0.0178951233234706,-0.707457440006258,-0.43890563975272,-1.41396295051925,-0.698809006622315,1,1,0,1.77841101912782,-0.266476657005631,-1.15866742810461,-0.267960243396489,-1.1648497599395
-1.18165042665332,-1.31848939894929,0.644149101349918,0.159134206763553,-1.68193057318907,-1.17946202535994,0,0,0,0.926125795929693,-0.884948700696169,1.68631711476282,-2.50013982560261,2.46994862935315
1.44193726501691,-0.844560160581277,1.63766532994621,-0.49460068553302,-0.0700861139491127,2.62470455274077,0,0,0,0.913949506124482,0.75998839636725,1.73747395031051,0.59737710443563,1.83339339487551
1.35789553887886,-1.10181487249111,1.22664817466431,1.21236784558103,-0.460309029288299,0.669070500153828,0,0,0,0.859004772268236,0.717393702756714,1.50338003966789,0.256080666387756,1.09540081044975
0.33450284734065,-0.900090143007498,-0.467705618330812,0.292632425911828,-1.20714570347743,1.02819744102528,2,0,1,1.75978077109903,-0.353732191626437,-1.04656462613326,-0.565587295666849,-1.26991408400227
1.42933808040023,-1.26108391982248,-0.678231063737989,-0.0360424610323628,1.0404412181286,1.15568181805239,1,1,0,1.96815753995907,0.78077242631989,-1.60664078020099,0.168254160577748,-2.78580020787621
-0.867317850878684,-2.6258489024829,1.69640227133044,-1.10261610256618,-0.0662050121858745,4.17381249272467,2,0,1,1.82618043455295,-0.579960785022806,2.39448048931683,-3.49316675336159,4.26012239353956
0.950651724971886,0.669065749190573,1.54284685008907,-0.935640286949069,-0.0198577785368134,-0.18371575712664,0,0,0,0.972492118133232,1.06943850354678,1.44929309968538,1.61971747416246,2.13504197520624
-0.585011508633235,0.660041509230777,0.214527592060943,0.460837326820304,0.615556223378135,-0.236940118566758,1,1,0,0.982908765668981,0.235081827578617,1.05181132387535,0.0750300005975417,1.01406669275512
0.320957522525629,-0.25060043539111,1.70068829575232,-0.332363462610624,0.420382969919601,-0.372391948729794,1,1,0,1.86464176012669,0.331655203160803,2.25461351596955,0.0703570871345192,3.08041906897901
-0.299396016664908,-0.723797316953819,-0.00798682964789259,1.10616326882244,-0.327954877427185,-1.03700400065417,0,0,0,1.06083624705207,-0.677191081033106,0.150160893828748,-1.02319333361873,0.283422357369123
-0.278543083293069,-0.812181632329413,-0.817900364802769,-1.63369360485113,-1.1344563021002,-2.62584393984194,1,1,0,1.97744628228247,-0.731243556788527,-1.30390004060568,-1.09072471562248,-1.35725764631247
0.546115158329532,0.398734336018413,-0.0506101702835437,0.335192800595372,1.18226830511672,-0.118290236168034,2,0,1,1.0629154399503,1.2265370167092,-0.481250573357568,0.944849494347945,-0.647335498896619
-1.30382115364487,0.226563573879377,0.0799210865490335,-0.524657444990142,-1.7107858033122,0.920402723969752,2,0,1,1.4883132330142,-0.455545168951933,0.895953921280123,-1.0772575797655,1.46366332674294
-0.25091446504246,0.42164357975321,-1.55957109789405,1.4633710753022,1.3794490444046,-3.2909681110322,2,0,1,1.62080205720849,0.107007019807637,-1.75829520077689,0.170729114710751,-2.86822773074564
0.17100737371791,0.00483794372409907,-0.171497956746292,0.427178041986582,-0.541005329157528,0.08158929689867,1,1,0,1.2737457085168,0.234177497473416,-0.589319232807373,0.175845317442009,-0.514003287210494
-0.403467478747509,0.618983915096519,-0.418607092832335,-1.02512982017635,2.07546679173333,-0.611947039271708,1,1,0,0.609317864174955,0.423872668254499,-0.789034205898462,0.21551643634901,-0.433746706917161
0.104659440835727,0.431133944485928,0.491286818033161,-1.30805832132281,-0.20476050301274,1.32972494443767,1,1,0,1.04823998338543,0.585341964300468,1.1197707245702,0.535793385321655,0.877914195230595
-0.318880786734009,0.558312370187223,-0.53122843123103,0.229601886628634,-0.551416985520336,0.971001225779359,1,1,0,0.923041489557363,0.533792752438173,-0.796018472367379,0.239431583453214,-0.743576075728051
1.61834393588343,0.495961280672009,0.482220117734896,-0.307021277811913,0.0411968667731968,-0.575681060650156,0,0,0,1.60361473704688,1.47803172793709,0.35430576894822,2.11430521655544,-0.653903700413635
0.714188601488617,1.66188574094578,0.536291040049325,-0.0838330995421848,1.3170476310258,2.58729738062543,1,1,0,1.18873626040295,1.49492808594716,0.658752735037445,2.3760743424344,0.358393478610033
2.96586536983324,-1.0550346122045,-0.279324207858902,-0.165731840611065,-1.80965020341038,0.321670701820478,2,0,1,1.04818420461379,0.804928061344333,-1.16266877784082,1.91083075762874,-3.52451378555105
-0.795077604559211,1.50832468678,-0.0435072647005839,0.655012558663501,-0.307988794620669,1.46133830003992,2,0,1,0.799465899472125,0.512656974676801,0.182961780309469,0.713247082220793,0.708063075158044
0.814365914679913,-0.334208656655074,2.38151529195951,-1.07483472817753,0.294561194585387,1.39237209860813,0,0,0,0.812933880020864,0.710587980300102,1.77807616377392,0.480157258024839,3.94866466923911
2.09803081013037,-0.0649807438184409,1.54803111335561,3.4709096034659,0.147770817116647,4.00024704115884,1,1,0,1.34432389563881,0.867271434073653,1.57792845115774,2.03305006631193,0.998031416580853
0.30098005515257,0.0810815387134028,1.55476199852898,0.294080892384018,0.115951531975112,3.71738102396375,2,0,1,1.21594296221156,0.397918597305266,1.9899675945934,0.382061593865973,2.80854394190539
-1.08307514183923,-0.448214795538841,0.058111230113913,-0.536373846346391,-0.32333184856328,0.333742847620378,2,0,1,1.77110108139459,-0.92398595884904,1.01662281066774,-1.53128993737807,1.19929760206706
-1.00632250180328,-2.55380695026597,-0.839778915527164,-0.144773495445704,-1.14036672389761,-4.04026073070617,1,1,0,1.82925399811938,-1.31317101391995,-0.557297192887563,-3.56012945206925,-0.673235329251044
-0.035414564917612,-0.312932535119014,0.571123448655482,0.542130527840553,2.86131949086317,1.60422643526224,2,0,1,1.50422764732502,-0.134700496651758,1.11084990815819,-0.348347100036626,1.17766146222858
1.30912436085341,0.0413831520402976,0.0660477825630555,0.634175193192408,-1.45138694483397,4.16362308024802,1,1,0,1.77538032794837,1.41217887807244,-0.175642200356032,1.35050751289371,-1.1770287957273
0.750400486646719,-1.73772806133762,3.58465949292999,-1.77485606890494,0.983744020219985,1.10341008921694,0,0,0,0.944632410188206,0.569121777811335,1.8062723997528,-0.987327574690901,6.41891849921326
-2.13836832761242,0.54993965969838,-1.93189555365127,-2.06613588468656,-1.10784132708532,-4.26269351203727,2,0,1,0.720204952987842,-0.245736766609267,-0.996966267904553,-1.58842866791404,-1.72542277969012
-0.700354108866634,-0.597273692593322,-0.202832504245977,-0.0899069094632118,-1.99889265684803,0.617894591048292,2,0,1,1.60996725119185,-1.12198201900898,-0.318459455865809,-1.29762780145996,0.29468910037468
-0.00905647529298544,1.44774180603655,1.48371520427311,0.836802178058687,0.15072249695782,2.16655949796968,2,0,1,0.554192746873014,0.48438709887845,2.02744599715627,1.43868533074356,2.9764868838392
-1.45813348724477,0.264868114264259,-2.09851640016451,0.166240833093532,2.10896809219341,-1.75591364114707,0,0,0,1.65230312058702,-0.530892891341992,-1.0399205816733,-1.19326537298051,-2.73889931308424
0.694529646494869,-0.788782807782472,-0.25964866605676,1.02552557344612,0.629190672836399,-1.70656503594342,0,0,0,1.06112403725274,0.402453506964848,-1.15883567045779,-0.0942531612876022,-1.21382697860839
-2.46133547518649,0.167732220671529,0.334067935887184,0.403188458132936,-1.63764554215991,-4.56094050080073,1,1,0,1.51938980992418,-0.4239926766798,1.53026807987302,-2.29360325451496,3.12947134696086
0.143289764040456,0.25758310820126,-0.21963759163322,0.4115921198628,-0.658475714017313,0.191273562719401,2,0,1,1.6408899059752,0.467377116293298,-0.649387870040155,0.400872872241716,-0.582564947306895
-0.391222119127056,0.912047367450309,-0.931771803289107,1.68018682802245,-0.750308265911284,-3.5858913489227,2,0,1,1.34019150701351,0.491785380136439,-1.32052060549255,0.520825248323252,-1.47232148745116
-0.491164085614076,-0.156872382554867,-0.122240218296576,-1.06210757323509,-1.1451318955246,1.39984585835163,1,1,0,0.965309839928523,-0.651373013476347,-0.138356059982,-0.648036468168943,0.246683649020923
-0.283647452452051,-2.03337570844709,1.33852842346176,-0.791235649678155,1.0276132769215,-1.21567510518866,0,0,0,1.51879360724706,-0.361797550072005,2.42927308433671,-2.31702316089914,2.96070429937557
0.314794804707843,-1.29966582307858,-1.34833119004437,0.388512274160985,2.47804042183143,-1.96210402180209,1,1,0,1.92047405650374,-0.113752610020827,-1.95120147150793,-0.984871018370733,-3.01145718479657
0.396326577938989,-0.857250659929035,1.41483572450998,0.253998499450374,-1.4533163643196,0.0672011087400525,0,0,0,0.560796275967732,0.20668132743237,2.02524933209165,-0.460924081990046,2.43334487108097
-0.22560371103596,0.426265294536191,0.914048945514682,-2.18716829258598,0.822264445361829,0.0736984833087741,0,0,0,1.99217729165684,0.384532980652979,1.87485418185372,0.20066158350023,2.05370160206532
-1.92495043034056,-0.284836263084754,-1.23668791849331,0.537800433283471,-1.06644799364953,-2.91356342379891,2,0,1,0.811136247823015,-1.03860829302281,-1.01189234209753,-2.20978669342531,-0.548425406646067
-1.43922929832198,-0.614368541969862,-1.50076035467463,-1.28988641170683,1.09430673251488,-2.99589297615861,1,1,0,0.746271544485353,-1.09106505493283,-0.933241220750183,-2.05359784029184,-1.56229141102728
-1.4696577739724,-0.844890832157483,0.0345386838965327,-1.22554397015877,0.220596182329357,-4.67477723470388,1,1,0,1.34191861876752,-1.0139034715225,0.959464306756002,-2.31454860612988,1.53873514176547
0.761863446891932,0.153694957218872,0.286299645402692,1.72711355277575,-0.283239590537479,2.40906168363387,1,1,0,1.32805720739998,1.28426017596608,0.316556611669824,0.915558404110803,-0.189264156086548
-0.24361498187128,-0.851432275778188,1.18620809384561,1.1603578032903,0.710050753433561,2.49941264969602,2,0,1,1.65044536150526,-0.244370336127961,2.19818498397354,-1.09504725764947,2.6160311695625
0.269676607418008,-0.397921072942885,-0.037549371842548,-0.74816158375162,2.21047686646211,2.15871894348545,0,0,0,1.24292966735084,-0.0010543728521683,-0.113654136611869,-0.128244465524877,-0.344775351103104
-1.55892752095582,-0.939977226280953,0.420371593973559,1.66667232493041,1.41206657562142,-3.67806457438803,1,1,0,1.08137989323586,-0.837592794333282,1.4806768049518,-2.49890474723677,2.39967070890293
-0.535588006696314,-1.38825374141942,1.28924648234277,-0.529697424571316,-0.196598080152223,2.53367685069835,2,0,1,0.623180418973789,-0.359749012101488,2.5074583311803,-1.92384174811573,3.11408097138185
0.562451973173495,0.955184588863398,1.17068918509962,1.02864835063927,0.75538456981956,2.21613251205284,1,1,0,0.950563000980765,0.934108461644674,1.63240202616421,1.51763656203689,1.77892639702574
