"x1","x2","x3","x4","x5","y","w","tau_r","tau_true","wts"
1.37095844714667,1.02914071931376,2.32505849371513,-0.601382997836582,0.25057806717021,4.7769626578124,1,1.60839718388213,2.40009916646043,1.87220906524453
-0.564698171396089,0.914774867719613,0.524122181151092,-0.135816136579885,-0.277924049161014,1.18269432459471,1,0.054917718002008,0.350076696323525,1.90561311994679
0.363128411337339,-0.00245626667956324,0.970733416408591,-0.98727278492051,-1.72473573426284,1.89848949209058,0,-0.00717809329613935,0.360672144657776,0.929209302179515
0.63286260496104,0.136009552413727,0.376973397152614,0.831925014618267,-2.00670494385569,2.08626300988818,1,0.631055728564316,0.768872157374768,1.74567143910099
0.404268323140999,-0.720153544943125,-0.995933396542156,-0.795059516415481,-1.29180833046846,-0.10108424321076,0,-0.41609337294321,-0.315885221802126,1.46261827833951
-0.106124516091484,-0.198124330051216,-0.597482913048045,0.340464612015827,0.365838228483296,-0.230357608219273,0,-0.724773461674174,-0.3042488461427,1.2786439236952
1.51152199743894,-1.02920880604827,0.165251423080152,0.870429820346915,-0.152203253908431,2.29516993400843,1,0.017446110654004,0.482313191390666,1.6048824719619
-0.0946590384130976,-0.966955895852616,-2.92847717857757,-1.18216100524638,-0.734094090076209,-3.24364111952005,1,-0.948452883874483,-1.06161493426571,0.701999895856716
2.01842371387704,-1.22081308891909,-0.847914226578549,1.02289397573496,-0.781972056981591,4.23643140152809,1,-0.0429210347887409,0.797610624957946,1.48548843560275
-0.062714099052421,0.836207703944837,0.798584512223446,-2.10843457624333,0.551567034812709,-1.13169344637163,0,0.125954197755171,0.773493604892416,1.55759717605542
1.30486965422349,1.1149717984954,-0.298455987965219,0.229762637699325,-1.61084098443007,0.845517757221343,0,1.63836042137241,2.41984145271889,1.18661266437266
2.28664539270111,-0.412944852927091,-0.283611376945371,1.51171079155376,0.748176433090443,3.61831150225029,0,0.37896467501922,1.87370053977402,1.57866837747861
-1.38886070111234,-1.12897739800683,0.869519306648764,0.555437989150677,0.449296011237588,-3.49692252253376,1,-1.43441903817381,-2.51783809911917,1.90200837072916
-0.278788766817371,-0.0879313317770513,-0.544355284698977,0.914878801249372,-0.870062520443655,0.193547737403644,0,-0.658759474271961,-0.366720098594423,0.883143236511387
-0.133321336393658,2.24190369331262,0.628803235377603,-0.553396624279516,-0.0977479313579405,1.22556239119832,1,0.549012171673283,2.10858235691897,1.1934392338153
0.635950398070074,2.04131317075049,-1.42233445794539,0.298376089510017,0.893100213716266,-0.965741165954249,0,1.51161218723962,2.67726356882056,1.91002178413328
-0.284252921416072,-1.71980033672145,-1.22751263333428,1.10637953965214,1.35091509526625,-3.0797535051339,1,-1.26137295519185,-2.00405325813752,1.96733964257874
-2.65645542090478,-0.356906656122387,-1.67410551574443,-1.32914958483242,1.4889703943085,-2.15444487326446,0,-0.989764857015377,-3.01336207702716,0.676231042481959
-2.44046692857552,1.53328049216229,0.0843984822448786,1.00169412888602,0.371067212847268,-2.63045809446781,1,0.131226230123559,-0.907186436413225,1.21249562234152
1.32011334573019,-0.0382440966102368,-0.2061256639704,-1.40930387375741,-0.214473243512569,1.3634685363471,0,0.557803918695317,1.28186924911996,1.34049911936745
-0.306638594078475,1.59741324232642,1.44187164028206,-0.498781024681268,0.455494589939145,-0.700782940522649,0,0.391251053361257,1.29077464824795,1.85604708094615
-1.78130843398,-0.333585393309883,-0.0417821033853644,2.62275685248845,-0.258111110256068,-1.40130360857204,0,-1.03631144996409,-2.11489382728988,0.708065251586959
-0.171917355759621,0.604985923915378,1.35375447776378,0.510665566028528,-1.00292375210412,-0.36127674017539,1,-0.0438486646577582,0.433068568155756,1.98333759338129
1.2146746991726,0.224241239250251,1.94522527592283,-0.0908431942191987,0.84414348279794,3.16497784360284,1,0.98105478986527,1.43891593842285,1.92000234883744
1.89519346126497,3.22906949548006,-0.490938233708141,0.978765679210879,0.694658775896635,5.91808336137805,1,1.73850311783475,5.12426295674502,0.623656337149441
-0.4304691316062,0.92045256677252,0.388439074944612,-0.243808656888315,1.2610037476473,1.43094646796128,0,0.343413374206012,0.489983435166321,1.27131767652463
-0.25726938276893,-1.20653906921592,-0.84489325918598,0.621808959213633,1.66655928933767,-2.96225850515327,0,-1.32412377983619,-1.46380845198485,1.08530520065688
-1.76316308519478,-0.603881169163268,0.737990367871089,-0.344595219846323,1.47185793808934,-2.71226952318531,1,-1.20335928810458,-2.36704425435805,1.85860719636548
0.460097354831271,0.370235284622063,-1.07976033128386,-2.35522454584149,0.78931570508443,-0.195212143284734,0,0.686145048148137,0.830332639453334,1.17045444215182
-0.639994875960119,-1.90100064667961,-1.02647387624363,0.472387633353643,-0.0364542711833432,0.612288171462055,0,-1.47912578620816,-2.54099552263973,1.75400638999417
0.455450123241219,-1.80440994496324,0.288793361578875,-0.511480194786914,-0.091283276642502,-2.35379713065413,1,-0.495071211726025,-1.34895982172202,1.60639342665672
0.704837337228819,-1.12182260635522,0.0908113192871749,-0.573602199756116,-0.412862939041902,0.37410246043548,0,-0.208105224008426,-0.4169852691264,1.71658271190245
1.03510352196992,-0.34792960655914,0.262623176711222,0.00379720372860315,-0.781061198320081,1.24592131249691,0,0.104481570002826,0.687173915410783,1.0821624242235
-0.608926375407211,1.23890214863198,0.0693349127912537,1.34255092952781,-0.390092785411881,-1.61842563962945,0,0.112191077180153,0.629975773224769,1.52775459410623
0.50495512329797,-0.274197564852279,-0.528643818856825,0.295461511559413,0.613837622009258,-0.0298215228730914,0,-0.0279670498801821,0.230757558445691,0.50592250819318
-1.71700867907334,0.162380715558193,-0.130202164518766,0.841786943605435,0.384677020333242,-2.77657836770255,1,-0.79177849870098,-1.55462796351515,1.7493741203798
-0.784459008379496,-0.0646069097530627,1.62015874435582,0.62906429822047,-1.20565664981837,-1.08503087672991,1,-0.834267261793401,-0.849065918132559,0.511001220322214
-0.850907594176518,-0.705237097025143,-0.0178951233234706,0.101598399463067,1.19785122001404,-2.07865020839547,0,-1.27386243702133,-1.55614469120166,0.811488459235989
-2.41420764994663,1.36219726875099,-1.31848939894929,0.671120874661012,1.29114126665685,-4.47283067550274,1,0.144672406276733,-1.05201038119564,1.85990211169701
0.0361226068922556,-1.09651318808332,-0.844560160581277,-0.138316374561719,1.48307160252052,-0.817100772688968,1,-1.02997276943055,-1.06039058119106,1.41766796517186
0.205998600200254,-0.228433518546891,-1.10181487249111,-1.24931225315241,-1.22359523581159,1.60096486219276,1,-0.465098650838332,-0.0224349183466376,1.06933886080515
-0.361057298548666,-0.347828080610269,-0.900090143007498,0.347635244215357,-0.41317463437103,-0.322853281152346,1,-0.927782096429385,-0.708885379158935,1.1536573774647
0.758163235699517,0.532128619506733,-1.26108391982248,-2.27781365917161,-0.409580866212294,0.529022018557242,1,1.32519383721072,1.29029185520625,0.556146549293771
-0.726704827076575,1.60723456226119,-2.6258489024829,-0.986209181193632,-0.451164718262206,-0.56624583121628,1,0.252591410917816,0.880529735184612,1.96030987065751
-1.36828104441929,0.513814526116594,0.669065749190573,-0.0595413435522069,-0.564698951728143,-4.06095959711813,1,-0.50064313413481,-0.854466518302701,1.1476268733386
0.432818025888717,1.38237316057303,0.660041509230777,-0.160759490474124,-0.560010334496702,1.21721389024171,0,1.23613800110253,1.81519118646175,1.93636489496566
-0.811393176186672,0.763097048549903,-0.25060043539111,-0.420361520340292,-0.970558066992204,-1.73074145335053,1,-0.179232503408056,-0.0482961276367685,1.83163235825486
1.44410126172125,-0.624584544634111,-0.723797316953819,0.988591016328615,-0.56282354617343,2.25275166579186,1,0.287400649200116,0.819516717087141,1.45996815420222
-0.431446202613345,0.0815438004289869,-0.812181632329413,-1.06961379110863,-0.332036443298219,-0.172207046581945,1,-0.685541469875536,-0.349902402184359,1.95644991553854
0.655647883402207,1.37607911136477,0.398734336018413,-2.61364346701511,0.193650109749296,2.55432323011041,1,1.72743386675231,2.03172699476698,1.42825731099583
0.321925265203947,-1.56126578615704,0.226563573879377,0.780451897662152,0.605642856272221,-1.76694631862921,1,-0.747725851813378,-1.23934052095309,1.0001408169046
-0.783838940880375,0.324770660594699,0.42164357975321,0.0451050735540702,0.957873599425007,-0.66870021570615,0,-0.571111817917693,-0.459068280285676,1.02012237231247
1.57572751979198,-0.156790316952238,0.00483794372409907,-0.108489158897566,-0.800818438984397,1.66332756861971,1,0.394720613647489,1.41893720283974,1.09772811713628
0.642899305717316,0.877783860734352,0.618983915096519,-0.391224310070966,0.0425486556052422,4.53804074390068,1,1.52810919860716,1.52068316645167,1.67703916353639
0.0897606465996056,0.750166575180638,0.431133944485928,-1.6869995043286,2.33570086201341,-2.40607577071206,0,0.293822410336415,0.839927221780244,0.558404736686498
0.276550747291463,0.30105340384283,0.558312370187223,-0.95270445515168,-0.461867455821985,2.48022690135335,0,0.52552920149882,0.577604151134293,1.62319307925645
0.679288816055271,1.49281111722931,0.495961280672009,0.507414112103395,0.740429906040657,3.42278567640902,1,1.78314694502773,2.17209993328458,1.5159152452834
0.0898328865790817,-1.5254938001697,1.66188574094578,0.0188160990067223,-0.698344660682268,-1.92957326423047,1,-1.14826791309065,-1.43566091359062,0.756896495586261
-2.99309008315293,0.910717558486022,-1.0550346122045,-1.41891037358562,1.06536890145562,-4.80060225019743,1,-0.0428349803993155,-2.08237252466691,0.891631945734844
0.284882953530659,-1.57953202785754,1.50832468678,0.598171931352236,0.545516821338762,0.236593757569644,0,-0.925859036220036,-1.29464907432688,1.27161940198857
-0.367234642740975,0.587716257118582,-0.334208656655074,0.786379621743228,-0.918209320243205,1.88523399903627,0,-0.126117459374847,0.220481614377606,1.51341091177892
0.185230564865609,0.0896422960007244,-0.0649807438184409,-0.134633045902237,1.02519134367607,2.39321278704967,0,-0.0636056375929197,0.274872860866334,1.97422579687554
0.581823727365507,0.96726165694984,0.0810815387134028,-0.016386517615323,1.12573840290613,1.34866874201148,0,1.65322439228932,1.54908538431535,1.63931640132796
1.39973682729268,0.0788123529148234,-0.448214795538841,1.40914040823509,0.882800384998406,2.5940942637073,1,0.780352965058276,1.4785491802075,1.34973263612483
-0.727292059474465,-1.56869983648609,-2.55380695026597,0.394838698802266,-2.76807861085069,-2.87163866289367,1,-1.50599546245164,-2.29599189596055,1.77453457785305
1.30254263204414,-2.00782318401609,-0.312932535119014,1.21987512807247,0.143826578856264,0.521436545401104,0,-0.158779799038891,-0.705280551971947,0.784210903104395
0.335848119752074,0.540973524238763,0.0413831520402976,-0.0450772128729762,1.5198831251518,-0.62155024349525,0,0.58130217723176,0.876821643990837,0.906929922057316
1.03850609869762,-0.0733765981084255,-1.73772806133762,1.47948784483878,-0.171316078021067,1.69929448133573,1,0.48070662390107,0.965129500589196,1.74223772785626
0.920728568290646,-0.571018393558081,0.54993965969838,-0.0756837866923921,-0.65814499931795,2.80131739642681,1,-0.00870197202485337,0.349710174732566,1.53980723058339
0.720878162866863,-0.311068459853641,-0.597273692593322,0.917748457199555,-0.154294602086388,0.242572226222171,0,0.240681118601554,0.409809703013222,0.860817109467462
-1.04311893856785,-0.671415067101365,1.44774180603655,-0.344778713742413,-2.3830393163367,-0.767154650041938,0,-1.23000708899812,-1.71453400566922,0.56448319402989
-0.0901863866107067,-0.157340452080979,0.264868114264259,-1.07700265605392,-1.1382970912816,1.20259346932445,0,-0.729008706748895,-0.247526838691686,0.710718641174026
0.623518161999544,-0.93130507099987,-0.788782807782472,1.00160472735829,-0.0872555328125386,0.739741959579992,1,0.0545810834928784,-0.307786909000326,0.824578122585081
-0.953523357772344,-1.98300947947013,0.167732220671529,2.29600404077134,0.835326720644203,-0.42575810400176,0,-1.51601440626205,-2.93653283724248,1.21909784630407
-0.542828814573857,-0.219599804249378,0.25758310820126,-0.325878115450014,0.212110868191506,-1.95908741554066,1,-0.891644061218314,-0.762428618823235,0.79611551342532
0.580996497681682,1.04527586946239,0.912047367450309,1.46885612852932,0.641346301404555,2.32894441749974,1,1.50375691266635,1.62627236714408,1.57903375651222
0.768178737834591,1.87732956629967,-0.156872382554867,-0.236908933173859,-1.0321009677859,2.4268239872394,1,1.78610087027907,2.64550830413426,0.511827108100988
0.463767588540167,0.00260619595716637,-2.03337570844709,0.923493117890428,1.4857706537531,-0.29182687370844,0,0.278386190022203,0.466373784497334,1.06323494692333
-0.88577629740968,-0.0806699347091655,-1.29966582307858,-0.989191806701409,1.19047624727791,-2.04676625584972,0,-0.916366671314393,-0.966446232118845,1.27161156246439
-1.09978089864786,0.96298228123987,-0.857250659929035,0.275646278286709,0.617226731476435,-1.67938103967541,1,-0.0804119014309867,-0.136798617407985,0.502355831325985
1.51270700980493,0.0535710165465174,0.426265294536191,-0.763661093561037,-0.172938324465871,3.41393282019595,1,0.694925833434559,1.56627802635145,1.3724060037639
0.257921437532031,-0.434898408910037,-0.284836263084754,-1.35211198419997,0.861580440756975,0.157262869386801,0,-0.509401818701514,-0.176976971378006,0.736857812269591
0.0884402291595863,-1.73729725534231,-0.614368541969862,0.655024410228004,-0.620085924544441,-0.887096613800911,0,-1.1815198353778,-1.64885702618272,1.03854245878756
-0.120896537539089,-1.26369559978243,-0.844890832157483,1.60964676035496,-0.878213047268405,-1.09411316316016,0,-1.25980198260583,-1.38459213732152,1.46844781760592
-1.19432889516053,0.406308512069273,0.153694957218872,-0.788506965877911,-2.22859514687621,-3.32313580471731,1,-0.507658731881062,-0.788020383091255,1.66373504395597
0.611996898040387,-1.45965396777976,-0.851432275778188,-0.883876112525995,0.193263225267502,0.178442230355425,1,-0.283724389086406,-0.847657069739371,1.34547026234213
-0.217139845746521,1.0484573701547,-0.397921072942885,-1.07251461179358,-2.31265671694031,0.0570225840785606,0,0.357903636468593,0.831317524408178,0.850555097917095
-0.182756706331922,-1.3464305394502,-0.939977226280953,-0.458140981447841,-0.0243337921357311,-1.59671965685117,0,-1.32247688639233,-1.52918724578213,0.634970774524845
0.93334632857116,-0.193570558113494,-1.38825374141942,0.665647015578227,0.441340589239052,-0.748584244617907,0,0.301567562500407,0.739775770457666,0.628418097388931
0.821773110508249,-0.00233595711367605,0.955184588863398,0.712228212418725,0.789576753769568,1.57112414995371,1,0.593093551613132,0.819437153394573,0.957827554200776
1.39211637593427,-0.0128297338671881,-1.31749547003238,0.442954227499162,1.02181962668272,0.931807346645972,0,0.615026364413282,1.37928664206708,1.50113977200817
-0.476173923054674,0.151947321984398,0.0730291461596218,0.759587312059179,0.615261159537096,-1.6833196265321,0,-0.471836299687868,-0.324226601070276,0.50035834487062
0.650348560726305,0.598511131401079,-0.56818584856837,-0.468877666019124,-0.859577856168591,2.93964947098229,1,1.25809116720454,1.24885969212738,0.812854935415089
1.39111045639,-0.126212437298279,-1.05845066878383,-0.172709977883837,0.890748976368977,2.58980346329585,1,0.396705137484192,1.26489801909172,1.89955119101796
-1.1107888794479,-0.248535565846776,0.259313538417069,0.682049899385807,0.0632747474874033,-1.13064665798471,0,-1.12642569221199,-1.35932444529467,1.88846712291706
-0.860792586877842,0.160327394904622,0.373134504519161,-0.281577328241543,-1.86466105555997,-0.245236363499708,0,-0.662063509662591,-0.70046519197322,1.60114145150874
-1.13173868085377,-0.433641941597269,1.26466676928415,-0.961622573931821,-0.1131368509232,-2.27673633338521,1,-1.11125002116934,-1.56538062245104,0.999607975129038
-1.4592139995024,1.53741241910027,0.325224996068265,-1.37765014473256,-1.78338637587516,-1.78716887692958,0,0.259121363189965,0.0781984195978738,1.27259499474894
0.0799825532411612,-2.17024657661608,-0.138467319508306,2.69758663663836,-1.05349044072366,-1.05447374885904,0,-1.26640453403925,-2.09026402337492,1.61596196948085
0.65320433964919,1.02700461929143,2.6024688972798,-1.69971505556293,-0.619354677304664,3.51568160370653,1,1.65234289988039,1.68020895894062,1.42873886006419
1.20096537559849,-0.248482933189933,-0.650284428487915,0.0293166527942015,-0.586938576519139,0.442662014694853,1,0.514175106663662,0.952482442408561,1.43936801678501
1.04475108716773,0.422320385832393,-1.00318322831336,1.93431433615124,0.926975731943589,2.42420013157233,0,1.44783779059895,1.46707147300012,0.825736547354609
-1.00320864683985,0.987653293639674,-0.535113912874478,0.837510875177963,-0.0654058453375009,-1.54421397599738,0,-0.0223312715466386,-0.0155553532001744,0.824850966455415
1.84848190167275,0.835568172035023,-0.110414566776788,-0.185346331084667,-0.937111758775164,6.60799876711384,1,1.47865321047743,2.68405007370777,1.08341754297726
-0.666773408757817,-0.660521859045705,0.600430169313573,0.533329177764386,-0.633859433761415,-0.871533911770557,0,-1.20920325847774,-1.32729526780352,1.91368353797588
0.105513812456069,1.56406949329184,0.415845059598682,1.78495624201476,-0.575224286015068,1.22368013268364,1,0.732078988876923,1.6695833057479,1.94391202065162
-0.422255881868856,-1.62297593529155,-0.105750646676992,0.189627819830131,0.188221041759335,-0.381059015095659,0,-1.50355483131473,-2.0452318171604,1.60978291882202
-0.122350171954971,0.863896373478988,-0.856562538246121,-0.5690875121866,0.539655974462932,1.93624366059484,1,0.0607957174396234,0.741546201524017,1.59986885858234
0.188193034501498,-0.5116027734362,1.12732733432216,1.45189294457212,-0.420884069657012,-1.94486690784359,1,-0.565257517286444,-0.323409738934702,1.30364193499554
0.119160957997006,-1.9173650254454,0.916281621448453,1.86899345256532,-0.339466559977085,-0.188827836623663,0,-1.26682036090937,-1.7982040674484,0.503409449127503
-0.0250925508674029,-1.86581384861995,-0.724379592724361,-0.984554893737541,0.518080388363255,0.269468643717984,0,-1.23367515667276,-1.89090639948735,1.41340617882088
0.108072727942033,0.245179063439689,0.686779087574742,0.718756763904366,-0.869387621013225,0.25584354505868,0,0.101586432540135,0.353251791381721,1.75520233914722
-0.485435235846668,2.22353430190807,0.450085791644612,0.129347296958262,-0.160670914154826,1.36861536218984,1,0.324433744317044,1.7380990660614,1.62728384404909
-0.504217130687903,0.273376064144465,1.04522160610504,0.701641308893363,-0.142616786605041,-0.827548979251183,0,-0.362308924242203,-0.230841066543438,1.17909735883586
-1.66109907991481,1.13078479452828,0.149629034437439,0.526697831887448,-0.765210967844204,-2.80146580381242,0,0.115384393207097,-0.53031428538653,1.30368499073666
-0.382333726873818,0.838669374060099,-1.14106715320069,-0.0205130989546023,-0.659800571317015,2.93532141117563,1,-0.0745398671475685,0.456335647186281,1.30606504296884
-0.5126502578778,-0.654615277878205,0.802499402419657,0.438251047306971,-0.307405440413442,-3.13130273846777,1,-1.06191205994089,-1.16726553575601,0.502071265364066
2.7018910003448,0.953960978479396,-0.728716530969446,-1.21052856570154,-0.881927450206018,7.34148699938897,1,1.54234465250331,3.65585197882419,1.03349893074483
-1.36211623118972,0.352951465489323,0.527209285728481,-1.4044199438289,-0.0953451587484263,-3.47912232397543,1,-0.572118587254534,-1.0091647657004,1.41819963522721
0.137256218558607,0.206599292649613,1.67347877221231,0.720749157209312,-1.2759693730741,-1.86163643828942,0,-0.151128320068693,0.34385551120822,1.74341319582891
-1.49362506731629,1.00111323431025,-1.41882802027083,0.0860355032767252,0.375584983964806,-1.83541440336451,1,-0.0763877430388863,-0.492511833006042,1.03508299903478
-1.4704357414368,0.747451991640276,1.56191080116889,-0.13161704140846,-0.469230372596356,-0.0844513990399021,1,-0.297853115227522,-0.72298374979652,1.11595268873498
0.124702386197007,-0.626574836723139,1.35316100891808,-1.67605197893984,0.79893320361921,0.252020608507274,1,-0.716052934320232,-0.501872450526132,1.36021384841297
-0.996639134884037,0.395223685936714,-0.528696776691558,-0.569497990768114,0.426288199258715,-3.23570012599127,1,-0.657715114182661,-0.601415448947323,1.38451745535713
-0.00182261430470819,-0.892167954045578,-0.251272775479278,0.192205150896545,-0.512132013193506,-1.55428889667231,1,-1.04707502813081,-0.893990568350286,1.57948593853507
-0.428258881425815,0.630818410091773,-0.685847686292498,-0.486322920752822,-0.347515536975732,-1.1785671473371,0,-0.24558498287649,0.202559528665957,1.09245956782252
-0.613671606449495,-0.432705183284567,-0.570367652254122,0.0812840129938752,0.609392746386973,-1.75880350197409,0,-1.06246359728157,-1.04637678973406,1.87880589370616
-2.02467784541911,0.452138644218517,0.579631381546157,0.384897246784297,0.735464318036699,-2.5696037696982,1,-0.637204303002271,-1.57253920120059,1.94385544036049
-1.22474795035999,0.367999045196345,-0.898959005252115,-0.137501971038181,0.476708560673323,1.25329247147145,0,-0.574009359664556,-0.85674890516364,0.850285288295709
0.179516441117938,-0.270387489661909,-0.190329887912783,0.427593109239094,0.328285766781953,-1.36467097174564,1,-0.499834392459603,-0.0908710485439712,1.58674639998935
0.567620594423535,0.465512617712979,-0.143903377346461,-0.243064448539363,-1.78126747525362,2.42301825192188,1,0.852708611612066,1.03313321213651,1.85545178770553
-0.492877353553475,0.574356225626969,-0.0965726512875553,-0.318352827853891,0.119396421345399,-1.47784647512951,1,-0.339615105280775,0.0814788720734943,1.40521112713031
6.28840653511241e-05,-0.230699990157411,0.181446715722357,-0.254106393508011,-1.41829537201652,1.09436961658023,0,-0.649270448039574,-0.23063710609206,1.44726094836369
1.12288964337997,1.17224250830245,1.59657420918631,0.638887430163065,0.076034377653877,3.63861797739174,1,1.64375191895865,2.29513215168242,1.90607877448201
1.43985574297619,1.39270270673312,-0.451331739893457,0.821065383166085,-0.660833242210851,1.15661615243871,0,1.58244204983265,2.83255844970931,1.77572412602603
-1.09711376840582,-0.661991255709585,-0.794880224800819,2.33547908658196,-0.105506046058469,-0.387063014972261,0,-1.0868347091066,-1.75910502411541,1.36973134858999
-0.117319560250177,-0.777369206725014,0.792284349652293,-0.983307557611062,-1.18008588758692,2.09315730621193,0,-0.873219148757502,-0.894688766975191,1.73210588586517
1.2014984009197,0.51353857890878,0.380472299761027,-0.707457440006258,-0.164359186462737,4.3286019563696,1,1.28793081792773,1.71503697982848,0.670577913639136
-0.469729580566301,-0.913312238041272,0.235787982992453,0.644149101349918,1.5194407743176,-0.666327660718524,0,-1.15615685712334,-1.38304181860757,1.64676163799595
-0.0524694849389963,-0.449423805250301,0.59098826352041,1.63766532994621,1.82516507817365,0.201021794691267,1,-0.843003621050155,-0.501893290189297,1.43542018579319
-0.0861072982370895,0.802932699103618,-1.41193020207889,1.22664817466431,-2.48863985015353,-0.463382767568016,1,0.202649756076786,0.716825400866529,0.722669910057448
-0.887679017906431,-0.573476850981104,1.06329579229111,-0.467705618330812,-1.65432225038973,-1.91865486264782,1,-1.23599350165593,-1.46115586888754,0.620396699872799
-0.444684004884738,-1.92812516784833,0.453917878897591,-0.678231063737989,-1.42085528137192,-1.85694346603455,1,-1.47703269995896,-2.37280917273306,1.19610432698391
-0.0294448790882381,0.664390833822148,0.951312977019787,1.69640227133044,-1.27629656625184,0.429614643816083,0,0.111284928387205,0.63494595473391,1.66905224218499
-0.413868849057924,-1.60254022379425,-0.598517713401516,1.54284685008907,2.07910079937255,-3.02673331642792,1,-1.37867307181673,-2.01640907285218,1.60029193933588
1.1133860233682,-1.35460025745385,-1.84194005034614,0.214527592060943,1.01553602068229,0.827085582043813,1,-0.0469236374811036,-0.241214234085646,1.72584566660225
-0.480992841653982,-3.0179326794179,-0.484589533147934,1.70068829575232,-0.109612816175039,-4.56143695750344,1,-1.44575870256054,-3.49892552107188,0.755243721883744
-0.433169032600729,0.831237822230063,-0.906846815023397,-0.00798682964789259,0.981518881029313,0.00969420452547282,0,0.0814638390895244,0.398068789629334,1.91708048828878
0.696862576552103,0.251097088847344,2.22276244740438,-0.817900364802769,2.26134720681062,1.33459155240774,1,0.983407434222553,0.947959665399447,0.940435762051493
-1.05636841317091,0.46229346594133,-0.41346657637618,-0.0506101702835437,0.637089923803561,-1.87327312848298,1,-0.637262327526196,-0.594074947229579,0.723608078667894
-0.0406984751512149,0.844792223223237,-0.215673846704644,0.0799210865490335,1.77553654284699,0.130808480228741,1,0.252687596427305,0.804093748072022,1.57906788692344
-1.55154482234759,-0.0419715243215621,1.06297852007115,-1.55957109789405,-1.1475015474698,-0.484354623195622,0,-0.846537595633538,-1.59351634666915,0.986128928721882
1.16716954923568,-1.10557590570003,0.620346526580243,-0.171497956746292,-1.07932259375455,1.56615911423604,1,-0.0193692641937921,0.0615936435356543,1.66821424779482
-0.273645701374081,0.563775652330874,0.673066651879,-0.418607092832335,1.06794985879243,-1.2272913650286,0,-0.225962045904117,0.290129950956793,1.09166150272358
-0.467845324672254,1.30336475581967,2.63370956294833,0.491286818033161,0.89175319136426,0.618847680612074,1,0.232688253715806,0.835519431147417,1.51788930187467
-1.23825232798621,-1.50022093779466,0.16611439867297,-0.53122843123103,0.870096509939708,-1.78640103153405,0,-1.58197426908437,-2.73847326578087,1.66373756411485
-0.00776203377732663,-0.606989235119036,1.90517553753426,0.482220117734896,0.48576246486856,0.095473983825738,0,-0.811744975417828,-0.614751268896363,0.781803566031158
-0.80028217795166,-0.292245065656577,0.253718401313083,0.536291040049325,-0.471093692846051,-0.0267929164202245,1,-1.08540861346759,-1.09252724360824,0.543628728366457
-0.533492329950436,-1.2896833433236,-1.4590219672543,-0.279324207858902,0.949629993820546,-3.3976618085096,1,-1.46402169297476,-1.82317567327404,0.703570695593953
1.28767524558459,0.694105848774699,-2.22724824128035,-0.0435072647005839,1.84772759129207,3.4894401270713,1,1.47013379276192,1.98178109435929,1.52024626720231
-0.175525870242127,-0.599181902897119,0.649683551167725,2.38151529195951,1.24040742887073,-1.59932077671088,0,-0.886717493932655,-0.774707773139246,1.9022344306577
-1.07178238415068,1.25690664397164,-0.999249864768557,1.54803111335561,-1.38081421835124,-0.455764974120324,0,0.120945900300101,0.185124259820961,1.32574112655129
0.163206882467382,0.053508013627363,0.0419723836763139,1.55476199852898,0.474676877291482,-1.06164140135195,1,-0.279712039614072,0.216714896094745,1.4026493531419
-0.36273841562795,0.728092517671852,1.77704370004004,0.058111230113913,0.0123463579876949,-2.06450323848186,0,-0.0957185912291069,0.365354102043903,0.795491732191294
0.590013547987339,1.56109806821061,0.347182677337207,-0.839778915527164,0.0870999372857267,3.29833812198605,1,1.61493139092598,2.15111161619795,1.302854915848
1.43242192773099,0.26562475359719,-0.287097446149789,0.571123448655482,-0.182368193763325,2.37995749193129,1,1.22064880113307,1.69804668132818,0.769333608914167
-0.992692511109493,1.07672625920727,-1.92457665210911,0.0660477825630555,-1.26567026582532,-2.87959170873386,1,0.0798716874336791,0.0840337480977742,1.17782974161673
0.454650297580283,0.210697931679245,-0.800649109339913,3.58465949292999,0.331283912940739,-0.204464924099522,1,0.732892853468777,0.665348229259528,0.975580027676187
0.0848980586784873,-1.51167352582237,-0.575617970726623,-1.93189555365127,1.35172863098665,-0.266344514966002,1,-1.25794371924162,-1.42677546714388,0.674262005602941
0.895565582264545,0.022402259913625,0.684205732670356,-0.202832504245977,1.63656573626269,1.07140067644956,0,0.599590251790027,0.91796784217817,0.779153235140257
-0.229778138946267,0.718136206042103,0.483457347617138,1.48371520427311,0.479932228852687,-0.0218533396605624,0,-0.0204027272831271,0.488358067095837,1.59459514496848
0.836619068460613,0.48945701784227,0.0139634087073798,-2.09851640016451,-0.736315911257857,3.0558979206457,1,1.06801308512923,1.32607608630288,1.11780810682103
-1.74505586133669,-0.17388834587827,0.180243734625121,-0.25964866605676,-0.583016619413601,-1.54644594467843,0,-1.05964683626322,-1.91894420721496,1.12107452261262
1.68945892131337,-1.2176994886684,-0.2881232483085,0.334067935887184,-0.611431981951386,-1.49182364339555,0,-0.182777793107567,0.471759432644973,1.2204651935026
0.864777978518578,0.646398368709462,0.0302272228902285,-0.21963759163322,0.603350043610892,0.884461173222814,0,1.36090314224521,1.51117634722804,1.14124169840943
-0.150775988885748,-0.91645602834789,0.271674108529486,-0.931771803289107,-0.235763339357311,-1.54494739359252,0,-1.15948851029095,-1.06723201723364,0.704735540202819
-1.44900713013917,-1.25182344242557,0.449158427413426,-0.122240218296576,2.90421609162339,-5.08307358787789,1,-1.44685649829779,-2.70083057256473,1.73701910953969
0.643008700041982,0.594927718405501,1.82762765843039,1.33852842346176,-0.268291279315417,-0.986032181426691,0,1.03181811591761,1.23793641844748,1.38845636381302
0.483193863814768,-1.23281066518983,-1.11202371088381,-1.34833119004437,0.148092848403041,0.102674701549163,1,-0.346303543720709,-0.749616801375059,1.69159546645824
-0.00635562642138871,0.244364414906138,1.47480743158371,1.41483572450998,-0.206794982835284,2.51730954709317,1,-0.402512884204125,0.238008788484749,1.65354863856919
0.151455892862424,0.00277218534359506,0.671512460144391,0.914048945514682,-0.642560138451547,0.638000762444202,0,-0.330463907733747,0.154228078206019,1.87708462588489
-0.584108970349804,-1.32820968602556,-1.54532854371443,-1.23668791849331,0.847571823884568,1.34804325035279,0,-1.28082413669743,-1.91231865637537,1.79394466558006
0.368806732630242,1.17969641183278,-0.277047227991105,-1.50076035467463,-0.527572126400654,1.6851808543612,1,1.10164783811636,1.54850314446302,0.975462856702507
0.294654339719516,-0.592804999148929,-0.62934299197198,0.0345386838965327,0.00237075710813171,-0.540941376343782,1,-0.365782667602002,-0.298150659429413,0.888890863978304
-0.279259373342575,1.19997831633667,-0.933000451619752,0.286299645402692,-0.281880233551283,0.506842530032974,0,0.233042497007407,0.920718942994097,1.61339967790991
-1.33623665489315,-0.475033679612135,-1.53788648422826,1.18620809384561,-2.8284746523873,-4.39987989962325,1,-1.10772034911458,-1.81127033450529,1.62104167521466
0.700748818440034,-0.575057096150816,-0.494102049599945,-0.037549371842548,0.650930316327698,-0.623416136394575,0,-0.0151484003687274,0.125691722289218,1.87685605103616
0.554196622274034,-0.031226024608499,-0.435360015270196,0.420371593973559,0.157759171113334,-1.89106595338106,1,0.515393549360414,0.522970597665535,1.68978681380395
-0.836306592801415,-0.358056995978456,-0.323544676280226,1.28924648234277,-0.853437022665369,-4.25638835872199,1,-1.05507037293132,-1.19436358877987,0.699994427384809
-1.59458816200624,-0.356601077647731,-2.06111361891619,1.17068918509962,1.36310008597407,-2.03624233443481,0,-1.00894317813171,-1.95118923965397,0.931624628254212
0.204958580587634,-0.877664383433726,0.441502555095545,0.826093654084712,-1.26289617117116,-0.343103093768962,1,-0.808615005111527,-0.672705802846092,0.792014215723611
-0.34508797797289,-1.21289712517796,0.746351246566367,0.323917065090484,-1.77794654572074,-2.25307031380298,1,-1.33771263636868,-1.55798510315085,1.676164073986
0.252611703364455,0.613286618687034,0.789642873824685,0.380950411454549,-0.686919645075559,-0.784989277104911,1,0.639846415309009,0.865898322051488,0.693308242596686
-1.29400246548455,-0.806203341462477,0.770740507039544,1.20261958279329,-1.18433552229326,-2.44804680744956,0,-1.3500476964858,-2.10020580694703,0.693633925286122
-0.959170444380363,-1.3764569299089,0.200506317830367,1.10220575073214,0.789677301727648,-4.08398129304389,1,-1.45891650859595,-2.33562737428926,0.608379666926339
1.0857748536799,-0.507847899163547,1.46835003167775,-0.0615149399791465,0.0859637709502686,1.98517713187384,0,0.0866634316596554,0.577926954516354,0.57969422522001
0.403774904715714,-0.800935486737338,-0.876455483940753,0.364589913995779,-0.370061442579403,0.322654321770769,1,-0.341512204027543,-0.397160582021624,1.29781165462919
0.586487536719298,-2.19278568567007,-1.22660469372111,1.69255229998577,0.00933636704307702,-0.240499738443681,0,-0.575535157486125,-1.60629814895077,0.668462362489663
1.81522844615395,-0.290937149267675,0.337837919974576,1.47136701247198,-0.951059591672824,1.72494919953311,1,0.287028011394127,1.52429129688628,1.61478157958481
0.128821428602383,0.167174121160518,0.440824087254149,-0.977247661344119,0.181717711397805,-0.0376106914855725,0,-0.127287236205958,0.295995549762901,1.5969732159283
-2.00092923773151,0.294692356485688,-0.746516451736769,1.44820167458194,0.190339844032856,-3.77732115962449,0,-0.848465499900943,-1.70623688124582,1.82767653057817
0.33377719743357,0.392741265420726,0.0366061204319243,-0.0858556605918652,-0.0717387693981193,-0.333106817785892,0,0.462381450956293,0.726518462854296,1.27566658332944
1.17132512735879,-1.00084371300082,0.323309624203048,-1.57376980165346,-0.00285171005059469,1.03384147213077,1,0.0236230976664568,0.170481414357979,1.7778964774916
2.0595392422993,-0.325727119823434,0.379676032401592,1.29247615946669,-1.10821896191248,3.28206465758397,0,0.260924746586946,1.73381212247587,1.16419440240134
-1.37686159824052,-1.00834880542884,0.876556495795362,0.0844677555677161,0.935191767373595,-2.8662097392704,1,-1.41018156751628,-2.38521040366936,0.736820150632411
-1.15085556562711,-0.635431482033766,0.933387987569637,0.967045996480089,-1.48583945173733,-2.73323755025008,1,-1.2061596330126,-1.78628704766087,1.16348695824854
-0.705821394760121,-1.20984068798734,-2.42880752268242,1.93911299421702,2.22854189842651,-2.83748188973719,1,-1.2935688495868,-1.91566208274746,1.95160050084814
-1.05405578207719,-1.11646380065269,1.72799402342117,1.07987263816564,1.6241352225378,-1.54206210401258,0,-1.38019785077408,-2.17051958272988,1.22688189416658
-0.645743723142491,0.629881162575935,0.456002646277211,-0.353593526833153,0.519764625253335,-0.0595539699988453,1,-0.271619622342182,-0.0158625605665562,0.878687659162097
-0.185377967676503,-0.272521570178626,-0.570360345745652,-0.134923124718565,-1.352028636762,-1.5794781812001,0,-0.826803052075716,-0.457899537855129,0.889534970279783
-1.20122205073999,-0.258841168378671,-1.11462440217797,-0.987132433307501,0.426123827628841,-1.55538572185143,0,-0.93983407637254,-1.46006321911866,1.3130239113234
2.03697216698315,1.72955817989149,0.905064265563895,-0.821708146060393,-1.66318758520667,7.03455209180026,1,1.57274343717081,3.76653034687464,1.47481375641655
0.107774744885547,-0.0583921654073716,0.328096015484134,0.489530922514731,-0.269943621830999,-0.656248503651296,1,-0.506595959807691,0.049382579478175,1.00462869845796
-0.0841081005055806,-0.537063784608919,1.07808996004782,-0.299277458909478,0.790790959773877,-1.61078028216058,0,-0.882193667853434,-0.621171885114499,0.591424619429745
0.495619641604594,0.74728669616574,-0.060315553702501,0.658254898574355,0.840608638772999,1.73943913339398,1,1.08750854634802,1.24290633777033,1.17696627532132
0.0374151861179653,-0.487257835389733,-0.243518761963125,0.832409549670791,0.0329694848504644,0.332573090622495,0,-0.801604102082336,-0.449842649271768,1.75813255016692
-0.13208803695591,1.37290778147951,2.24142256068828,0.363463261222694,-0.238163753848546,1.57444952891536,0,0.575935587847582,1.2408197445236,1.36195600149222
1.4767874235521,-0.377672360646221,-2.03599297085583,-0.398645658616952,0.263552286150818,0.569291383367404,0,0.237264055835764,1.09911506290588,1.03002556611318
-0.217030210092103,-0.616152614118394,0.390914465082838,-1.4979299895057,-1.59178517406521,-0.743644020390211,0,-0.897133219077793,-0.833182824210498,1.3211391173536
-1.28360220409223,-1.16812505107469,0.384813342899653,0.114628175272466,-0.376235068846935,-0.043593648589916,0,-1.48837343606578,-2.45172725516691,1.83907789073419
0.385667890443402,0.328640358591086,0.438695599541397,-1.03781661733663,1.81252714991038,0.117766071254691,0,0.521957405516831,0.714308249034488,1.23498585587367
-0.351512873529092,1.46651062744016,0.55814090204657,0.645978871261567,-1.73809968261789,1.06772122976895,1,0.434801852038361,1.11499775391107,0.757448169752024
-0.521796093356269,-0.356009545088913,-0.276406382977446,0.772845400058577,1.62911115074531,-0.92929827612046,1,-1.02208613824846,-0.877805638445182,1.31454649101943
-1.06813120068717,0.261467641877431,1.16628807898223,0.316014158120416,0.528105441488507,0.218060973661325,0,-0.39634844595967,-0.806663558809739,1.9422015438322
0.428365903266692,0.333328855175731,-2.45427723493739,-1.03811282479823,-0.360444186597554,2.10703792173905,1,0.656604998494167,0.761694758442424,0.97052573307883
-0.174018234426995,1.42219324030954,-0.805566259454567,-0.755137290088853,2.23761689061182,-0.214990899056906,0,0.287329905294015,1.24817500588255,1.73077182215638
0.515667728648029,0.663876600666173,-0.119144550620025,-0.491504309692582,-0.0401996174749625,0.406049251247014,1,1.14775219593275,1.1795443293142,0.960581600666046
-0.234365277305921,-1.07365515569531,0.163216234138794,0.147225745107845,1.894125331564,-0.313662647252041,0,-1.25721371332438,-1.30802043300123,0.778180371737108
-0.658503425821771,-0.69690177466674,0.406479507762917,2.35650304328533,0.024804649937664,0.0813913764973752,0,-1.16261443556159,-1.35540520048851,0.572520165122114
1.25023660407872,-0.746130456934561,0.639339995644309,-0.920668767105905,0.553425403100445,3.03110298150655,1,0.0525245702000961,0.504106147144155,0.86851122090593
-0.271763715111397,0.141572872132219,-1.50851763737235,-2.15684778320885,-0.574350945442218,0.263178259015377,1,-0.467326642806457,-0.130190842979177,1.02666038321331
0.947951995875196,-0.00394722073065307,0.00767060439702689,-0.120400049561303,-0.928337006439503,-0.57473835871974,0,0.5248520730548,0.944004775144543,0.738533572643064
-1.20158243010894,0.367937501091766,0.524168022000385,-0.839244329563709,-2.00042544129482,-1.07535931842357,0,-0.644369496119451,-0.833644929017172,0.956146995187737
-0.466116096375502,-0.657342914697247,1.32633587157079,-2.17243990871478,-0.622068696299165,-2.72095722544911,1,-0.989867183011535,-1.12345901107275,0.526322487159632
-0.26935139515318,-0.376346670161052,-0.113567734432564,-0.874307976154287,0.727145566485242,-1.39247469588368,1,-0.871522785369615,-0.645698065314232,1.99482901883312
-0.390965408130861,0.741360060425085,1.59914947839686,-0.373579348902497,-1.10218330324535,-1.48943820260064,0,0.0135890159736118,0.350394652294224,1.70658996899147
1.34870701199171,-0.0996067564484702,-0.281528098928179,-1.10219771209642,-1.15946277085336,3.05614937841334,0,0.481490263294679,1.24910025554324,0.6298709026305
-0.0227647012984126,-0.654289878607095,-0.0498981389105064,0.715659860663444,-0.43890563975272,-0.206867660898316,0,-0.900477822348471,-0.677054579905507,1.8048999045277
0.24422585110345,0.971164374061271,0.160214127321124,0.907640305684175,0.159134206763553,3.32104229696837,1,0.715256660791336,1.21539022516472,1.33187879505567
-0.942371707863923,0.0134963115683865,-0.502380562405328,-0.324805133785133,-0.49460068553302,-3.6132941704239,1,-0.717681655615587,-0.928875396295536,1.13206763274502
-0.729217276509575,-0.916534667021545,0.715938048776189,-1.48158593228175,1.21236784558103,-3.15842664133576,1,-1.26628277831703,-1.64575194353112,0.601455228636041
0.998068908554848,1.70968856126164,-1.34578730316321,0.594171138863542,0.292632425911828,1.79333945086568,0,1.73621898523557,2.70775746981649,1.34215693478473
1.25848166459556,-1.16810098994666,-0.0056435653021491,-0.854874687119544,-0.0360424610323628,0.816592329253449,1,0.0687139052763867,0.0903806746489046,0.606082841404714
1.2488636888101,-1.78103626015252,-0.540542549739533,-0.829917536632547,-1.10261610256618,3.23466803154899,0,0.0263843009831921,-0.532172571342428,0.817087908275425
-1.38063704952533,-2.25313244856822,-0.547073740849682,0.149106814964156,-0.935640286949069,-2.03243746502973,0,-1.66462542600624,-3.63376949809355,1.32443062018137
2.04996069363639,0.651125969546699,1.15144538704443,-0.976146041384047,0.460837326820304,2.59408528834786,1,1.5036101449568,2.70108666318309,1.22297217254527
1.01687282979954,-0.532832625602767,1.05221968194591,-0.294684407656388,-0.332363462610624,0.924845332874805,0,0.163082134056519,0.484040204196774,0.739204781828448
-0.0267174641382579,-0.275559356972283,1.59802652870266,-0.770974915815347,1.10616326882244,-0.424117581136916,0,-0.725666574469041,-0.302276821110541,0.724368492607027
0.70360777879826,0.289626972629046,-0.263796793108458,0.392283707078743,-1.63369360485113,1.5585152276547,1,1.08137493210705,0.993234751427306,1.24890932056587
-0.971385229151864,-0.466484061790764,0.0324007875469165,-0.846305904884495,0.335192800595372,-1.79715022838972,0,-1.20294098560452,-1.43786929094263,1.91084731707815
-1.09615624155886,-1.60806017494469,-1.55158330768591,-0.843759930930453,-0.524657444990142,-4.48603432255924,1,-1.48835276001424,-2.70421641650354,1.00134698988404
0.0490504509375971,-1.94978379604199,-0.388179430024523,-0.961888444288268,1.4633710753022,-2.6443973627497,1,-1.155470833745,-1.90073334510439,0.782651494373567
-1.19849585655778,-0.340699918230981,1.76414812218013,0.0110496533565447,0.427178041986582,-3.14469578360841,1,-0.927327246404262,-1.53919577478876,0.904574267449789
0.190018998559748,0.17472552733132,-0.41652772756372,1.21494896542184,-1.02512982017635,-0.958651612899232,0,-0.021111026998354,0.364744525891068,1.29611611715518
1.29770589960467,-2.27777756077723,-1.16633868878939,-0.888878515738284,-1.30805832132281,1.43339470397882,1,-0.0971878473214031,-0.980071661172563,0.532175342785195
-1.03387372296475,0.290524480947084,0.0418945661851059,0.218101261446603,0.229601886628634,-1.91333050113475,0,-0.781816403793266,-0.743349242017667,1.69814046123065
-0.738440754213064,0.422306357473614,1.24648913025954,-0.656116999607038,-0.307021277811913,0.224747786579101,1,-0.540887163921283,-0.31613439673945,0.665502650314011
0.0465639394508634,1.29473736320671,-1.57797130420835,-1.08851584728066,-0.0838330995421848,-0.0664120127387187,1,0.526788607523134,1.34130130265758,1.30969742871821
-1.01759611982611,0.164714018573954,-0.253820471789102,1.0911308981077,-0.165731840611065,-1.02824945188474,1,-0.752949320271125,-0.852882101252151,1.35685084620491
-0.383283959886278,0.204953840800235,0.467830542050614,-0.569227321657799,0.655012558663501,-1.16482908678505,1,-0.31936146780994,-0.178330119086043,1.42842732043937
0.872755411671398,0.604603626725806,1.97752999445585,1.6208101305906,-1.07483472817753,2.48166947741114,1,1.35224813006536,1.4773590383972,1.57228054024745
0.969545013970117,-0.0191407691689314,-0.615605794843624,-0.686988445583741,3.4709096034659,1.7339895706497,0,0.621985151508897,0.950404244801186,0.68495086801704
0.383846665027094,-0.0797143473788086,1.51942160121109,0.656996703568632,0.294080892384018,-0.53328850156483,0,-0.184687476348127,0.304132317648286,0.966574428137392
-1.85155566306746,0.115984464402805,-0.43289519356181,1.1106922152347,-0.536373846346391,-3.34973234658915,1,-0.787494099823953,-1.73557119866466,1.91860874393024
-0.0539967368261657,0.744173364048388,-1.03101770806171,2.14072073006633,-0.144773495445704,-0.0986858034382249,0,-0.0393571103281707,0.690176627222222,1.25003763858695
1.06477321433828,-0.431290603527693,-1.13433449832271,-0.830971809132396,0.542130527840553,-0.0537770892241989,0,0.219970195349653,0.633482610810591,0.702845748630352
0.813195037411605,-0.499528951911234,-0.221098125377531,0.0764058561981353,0.634175193192408,1.38990006023561,0,0.120701267579815,0.313666085500371,1.80388673080597
-0.190816474104282,-0.865162076755711,-0.0224146989039466,0.935824446199053,-1.77485606890494,-2.49255868414813,0,-1.12329175268298,-1.05597855085999,0.807574418140575
-2.6999298085637,-0.957757283271873,-0.32290182802397,-0.50166670286481,-2.06613588468656,-4.81360551620979,1,-1.31054983649338,-3.65768709183558,1.88756883644965
0.0609666388011166,0.326799971338638,1.05222315972554,0.59485346385118,-0.0899069094632118,1.25728787777057,0,0.106903365807002,0.387766610139754,1.83013039734215
0.573751697483578,1.54737222568517,0.189541165695199,-0.430651169136371,0.836802178058687,0.372074817618989,0,1.56433659640361,2.12112392316875,0.704443737864494
0.0458035797250989,-0.968859568864431,-0.105827608865873,-1.13333905267279,0.166240833093532,-1.30952398926686,1,-1.04125644161142,-0.923055989139332,1.67802416323684
0.157412540175875,-0.188440426259463,-0.602554472532716,-2.23717155976963,1.02552557344612,0.504361184066175,0,-0.453926482469432,-0.0310278860835874,1.17995512124617
0.431565372868771,-1.03000116145592,-1.29601593126204,0.514639572443142,0.403188458132936,-0.652248349497628,1,-0.326318200575843,-0.598435788587148,0.703613629098982
-0.396549736050212,0.908086441860496,-1.95932663870655,-0.341907115162922,0.4115921198628,-0.0803191104746844,1,0.145749666480323,0.511536705810284,1.82783155527432
1.30997822575155,-0.317381864708129,0.21341173052117,1.71787742881929,1.68018682802245,1.53977563746739,0,0.24845431565204,0.992596361043421,1.00507031020243
0.470393399873943,0.179003966540422,0.0253358701112366,-1.11637790865796,-1.06210757323509,1.02513700825146,1,0.48075748856652,0.649397366414365,0.978911172715016
-1.2426702705746,0.348028187729177,1.36502318785994,-0.488479619162847,-0.791235649678155,-0.427112812934861,1,-0.683048558529306,-0.894642082845424,1.1056742221117
1.38157545638553,-1.05427902127444,0.291093808244857,0.807332293407758,0.388512274160985,1.04582645546435,0,-0.0383716642549796,0.327296435111093,1.2186159605626
1.20445893700982,-0.104744288110701,0.79721770112609,-0.261008741670786,0.253998499450374,1.4288487615736,1,0.444480266105598,1.09971464889912,1.05185273033567
0.824073963681881,-0.228342617094529,0.0409863743756614,0.488059917826579,-2.18716829258598,-0.3084805280316,0,0.14289406357621,0.595731346587352,1.19853585143574
-1.66262940218559,0.675355562427539,-0.818324049625889,1.35278382096951,0.537800433283471,-2.22865003491728,0,-0.411016598385198,-0.987273839758055,0.574838229338638
-0.569306343605481,-1.23324469350631,0.289640643164427,2.17681559130925,-1.28988641170683,-3.34624178384599,1,-1.50433822670665,-1.80255103711179,0.78103506739717
0.635513817289526,-1.19996154442278,0.339787111301115,0.051387111206838,-1.22554397015877,1.58059615813579,0,-0.153533621741194,-0.564447727133253,1.97398912056815
0.0437220075778579,0.765866576616108,-0.817392730763433,-0.838095445235414,1.72711355277575,0.291463112877879,0,0.274140119788082,0.809588584193966,0.992411104380153
0.348012303661307,-0.588097861282977,-0.0287493152280801,-1.08461500930842,1.1603578032903,0.24333768322885,0,-0.42403444354388,-0.24008555762167,0.756494585773908
2.45959354887041,-0.660295829975576,2.00078165111199,-0.546532769073342,-0.74816158375162,2.48735522877413,0,0.0863793247422406,1.79929771889484,1.23238234175369
-0.81838032439967,0.113013522197344,-1.12926606328462,-0.426509704704706,1.66667232493041,-1.72565680674021,0,-0.7501030731445,-0.705366802202326,0.528031117515638
-2.11320011492914,-0.320398799686039,1.47217859206972,-1.21099755539979,-0.529697424571316,-2.19586527751852,1,-1.06972447031953,-2.43359891461518,1.00922762556002
0.273695272430415,1.86638149693879,-0.227068916484902,0.597792997779026,1.02864835063927,3.22254176628066,1,0.946243168756385,2.1400767693692,0.544495063368231
-0.687596841243412,0.259531455767799,1.48231059624201,1.42389578908393,1.3767179910649,0.0965435776032897,0,-0.462421905431061,-0.428065385475613,1.80084299459122
0.446041052961866,0.16156007091807,-0.843053174487288,-0.443298625558346,1.33100295826265,1.22387866763713,1,0.529693255917207,0.607601123879936,1.5975613995688
-0.812384723790597,0.931074909335354,-0.0661953274558979,-1.04033346567429,1.25465594943585,-0.653187072259829,0,0.0399764697634829,0.118690185544757,0.97289119521156
2.21205548033514,-0.0599467492596211,0.311233498357864,-1.27389707840725,-0.287334553809268,2.89007358074851,0,0.466510297009814,2.15210873107551,1.07968101766892
-0.12370597157743,0.0487397000774502,-0.112590228303414,0.770151612011796,-0.546735518159085,0.235699756507241,1,-0.652853278443521,-0.0749662714999797,0.998668985790573
-0.477335506030052,-1.07287540073396,0.658738838942645,0.031522621976529,1.253927471065,-1.24699198256331,1,-1.3340187459449,-1.55021090676402,0.634666956728324
-0.166261491486608,-2.29297143048067,-0.16686150010949,-1.90485475143827,-0.0717229189590111,-0.610829249940957,0,-1.40872257549222,-2.45923292196728,1.63558340375312
0.862563383626431,-1.20720685006434,1.20887346516015,-0.123755177145571,-0.682436621264268,1.78943632903402,1,-0.192479950146293,-0.344643466437911,1.4044527458027
0.0973404852028189,0.114109429797191,0.170419433884223,0.000328377213438334,-1.02499645828567,-1.16460182729594,1,-0.241147667928206,0.21144991500001,0.718099958845414
-1.62561673921129,-1.03329707910538,0.692419636244747,-0.843778344728857,1.30157781471653,-2.45852008438446,1,-1.34803639113628,-2.65891381831667,0.548776225186884
-0.0046207678264578,0.688807752342063,-1.18554693655878,-1.22133337042893,0.758060825406684,-0.0867813120446766,0,0.0962495485498746,0.684186984515605,1.22565221239347
0.760242167662055,0.725083017674864,-0.658389290697043,-0.452985993615507,1.4796143353762,0.967308324832779,0,1.52449112762235,1.48532518533692,1.16685429180507
0.0389909128725626,0.217380210939088,1.08950794879155,-0.702319931281127,-0.619562406414632,0.237203040941648,1,-0.131896789934157,0.256371123811651,0.590578384930268
0.735072141614441,-0.201656731618378,0.508785941160661,-0.674380385485126,0.259687227256229,0.425435542156299,1,0.194533142887847,0.533415409996063,0.991259033093229
-0.14647262699887,-1.36568986058868,-0.135906625600424,-2.30302319048591,-1.08652092497737,-0.612959906537887,0,-1.33361552571188,-1.51216248758755,1.81764357094653
-0.0578873353812826,-0.30893760867716,-0.108782736956893,-0.149332904782873,0.086223563193975,1.45856169371371,0,-0.729958771270474,-0.366824944058442,1.89590732939541
0.482369466104533,-0.452902886537227,0.754900160454641,0.948689589970129,-0.846202449052606,2.55633086073409,0,-0.206069969656709,0.0294665795673059,1.08826768549625
0.992943636775734,0.663229144519792,-0.223811321619966,1.15636246052357,0.388905864370388,1.59236965314412,1,1.47469910193861,1.65617278129553,0.738270162255503
-1.24639549803204,1.3086295367487,0.0749551709399243,2.07435248589762,-0.0376358153463912,-0.828912664422034,1,0.0694003229156483,0.0622340387166544,0.979921401594765
-0.0334875248456097,0.501040309894498,-1.64595480215,0.265289970321459,1.44560164892583,-0.103561416111973,1,-0.177389554060653,0.467552785048889,0.960448430385441
-0.0709621812499963,-1.12828853519737,1.77400936515502,-1.05200382914047,0.317224482102685,-1.179896531839,1,-1.1086456942723,-1.19925071644736,0.661716881673783
-0.75892065373095,1.67099730539817,0.765967915976574,0.50234223621863,-0.403980490819091,-0.410382369128363,0,0.348034871531041,0.912076651667215,1.96900145511609
-1.03435936093915,1.01035303245212,0.832287843010755,1.09984502312187,-1.74023733047524,-1.551878356039,0,0.0347081679260349,-0.0240063284870291,1.24535514216404
-0.63073195397082,0.223521215874458,-1.90545752247312,1.88650483041417,-0.452821278920118,-0.343430651555552,0,-0.509230789400479,-0.407210738096361,0.639612007886171
0.586807720012995,-2.20648459320962,-0.0208366761944145,0.811253500689395,-0.586087506559595,2.25488271685883,0,-0.376614512445209,-1.61967687319663,0.817660487256944
-0.416322656183652,-0.954585618553158,-0.408933912448218,1.41824380879396,1.14791904431639,-1.49725938077012,0,-1.15501803267185,-1.37090827473681,1.89575111935847
-0.78488780950532,-0.0685730672102366,-1.3763863065768,0.439169901702954,0.457363259644693,-1.18273891412769,0,-0.948639221048077,-0.853460876715557,0.945269610150717
0.163416319486097,0.76130590156527,0.727430374393256,-1.2775016086011,-0.587806362058572,1.38534735698087,1,0.432194295584289,0.924722221051367,1.47982737328857
-1.23671423510935,-1.17990419995829,1.23413078123709,-0.861373205211443,0.227914940694947,-3.27990361091055,1,-1.45176169110186,-2.41661843506764,1.85160571685992
1.04587377623667,3.21119895676729,-0.553224405877467,1.88698587497109,0.134147741846246,5.37053099078365,1,1.63034355023252,4.25707273300396,1.98619368986692
-0.484595416218709,-2.55382485095083,-0.229190177928735,0.704087313182904,0.329327772114258,-3.17638165289355,1,-1.5312006369645,-3.03842026716954,1.14549983199686
0.189128811680665,-0.235933949334065,1.71146198892227,-0.667720525332029,-0.297512213642794,0.024557438880079,0,-0.577904010482481,-0.0468051376533996,1.09066538338084
0.0510063315749732,-0.259562643261435,-1.64980790329702,-0.705714342057153,1.18498797306452,0.240989138160744,0,-0.532916639245713,-0.208556311686461,0.712863343185745
-0.000240668886441977,-0.663366916619193,0.744220785437818,-0.920718579914376,1.30953538662527,-0.73254688953101,1,-0.792004200696864,-0.663607585505635,0.91971004451625
1.80938204244287,-0.318990710826149,-0.314021323980916,0.148473291996029,-1.17045526511543,2.72583225013713,0,0.376124741541399,1.49039133161672,1.34723333385773
-0.825327957109945,0.742395157572315,-0.115310841404454,-0.250017361132774,0.996118866300114,-0.114778342347824,0,-0.192259840833435,-0.0829327995376298,1.9027092581382
1.14547045222799,-0.874292675785773,-0.61097434277214,-0.941768954111299,-0.746997016690059,1.39755854254439,1,0.201404616593237,0.271177776442212,1.03760021761991
0.0315731875532431,-2.08281376630328,1.09669537901904,1.21419901863892,0.221867656465582,-0.706540518118687,1,-1.32593990667772,-2.05124057875004,1.76301077136304
-0.83520580530672,0.0937679028102176,-1.12716761108376,0.018566433000226,1.0009452311825,-1.40625755199872,1,-0.76859721020196,-0.741437902496502,1.58361382153817
-0.0687636490165125,-0.00181981200279561,0.962609492438297,0.757831699457548,0.494143258559294,0.510052956517275,0,-0.555299497920722,-0.0705834610193081,1.62610398395918
0.746771687012467,-0.013100652371574,1.40646401623189,-0.380062699996006,-0.00844441753463621,0.974676562010132,0,0.414918000110327,0.733671034640893,1.88598267827183
-0.425518734394604,0.667968074558104,-1.6416495088997,0.174948713347219,0.0961369855328748,-0.795529259828421,1,-0.248954944930609,0.2424493401635,0.503567160223611
-0.772082235193457,-0.0131677029521626,-1.12690419254923,1.03352330902476,2.25070523918321,-0.0380521021628329,0,-0.739437105284032,-0.785249938145619,0.740644872421399
0.152764106747895,0.776047030476303,0.591545480502423,0.67572399543247,1.4366346913565,-0.76892661855906,1,0.724796727863185,0.928811137224198,1.09890942694619
0.988596845178799,-2.01073533263526,-0.956309119505936,0.94128124291257,0.0104077495384871,-1.00208648204822,1,0.0275779920528085,-1.02213848745646,1.51297936600167
-0.073458334672174,-1.1281804949718,-0.691529886346393,-1.82663007251395,-0.320791891518128,-0.647470695265859,1,-1.19526274579712,-1.20163882964398,1.22055802447721
-1.38702655355974,0.34879957158572,-0.445352767351361,0.177204381296563,1.84167486726203,-1.18497590615232,1,-0.763550629050405,-1.03822698197402,1.30074317113031
-1.30667590437536,-0.352898482096924,-0.344484228326568,-0.191807861947269,0.0899247252253416,-2.81357896150566,0,-1.19439038269429,-1.65957438647229,0.975425235927105
-0.768395325077939,0.944774597917623,0.703698185246122,-0.650198710009829,0.402792818116791,0.41420156863495,0,0.286362103666269,0.176379272839684,1.72213638527319
-0.527108125374458,-1.00471985252646,-0.60300576479426,-0.560696341260001,1.30939370465749,-3.39312466263821,1,-1.14072323821294,-1.53182797790092,0.938329281867482
-0.0214270650416246,0.723902732496846,0.0893504124146815,1.67576579329994,-0.613254222725411,0.0847283083978831,1,0.125711706555424,0.702475667455221,1.11369813699275
0.670498070996282,-0.668832740990364,0.737494637219904,0.430534600439241,-0.435480084919432,-0.658994094040099,0,-0.116163017313968,0.0016653300059174,0.636377461487427
-0.434617038572407,-1.1130401937158,-1.54037944457177,-0.144606620357246,-0.382106084270801,-0.616730457189621,0,-1.28097485845986,-1.54765723228821,1.69789495703299
-1.11387978331285,-0.342805189366945,-0.689632292648809,0.939025712144101,0.171328176109932,-2.52142621135531,1,-1.094196712075,-1.45668497267979,1.03967787453439
0.6071059948785,0.0497793231687396,0.859793460209431,-0.545496749523291,-2.4165624634469,1.67606774453915,1,0.495092603419427,0.65688531804724,0.560731365112588
0.275456968739591,-1.22768196152554,-0.376519740675772,0.138850363215646,-0.41817143658625,-0.146896577645508,0,-0.818388198169785,-0.952224992785944,0.561629509786144
1.15734706941474,-0.764005910827448,-2.53508347030523,1.44686231335255,0.707195564900496,1.53103456826756,1,0.240110837013658,0.393341158587289,1.93165135756135
-1.68248085947826,-1.24618206161788,-0.857809228617209,-0.332628086150536,0.31180753531698,-4.30812735524056,1,-1.53336616575713,-2.92866292109614,1.06001186731737
0.0873190888948744,1.01677397775977,0.816026406926163,-0.799156272263214,0.350640156782387,0.218989812094434,1,0.730414387744607,1.10409306665465,1.70962950133253
1.35336189394267,0.723612624058863,-0.426588909225775,-0.548292745132407,-1.58686541262596,0.652206840326081,0,1.37736631434453,2.07697451800153,1.86508851347025
0.724173800683369,-1.03252713710511,-0.40463684004168,-1.05079620451942,0.216521654079693,2.10260570129046,0,-0.0287184650491519,-0.308353336421744,1.16011431929655
-0.832552825764212,0.557346004122758,-0.145769224262472,0.252662491033329,-0.114749842879395,-4.06089696098942,1,-0.436642313640846,-0.275206821641454,1.3645047545433
0.732528486768414,-0.255581423099522,0.71946636806737,0.327861853995298,0.0203381232290744,2.16531211345672,1,0.0949825771974214,0.476947063668892,0.610501692746766
-0.871926869997213,-1.11339175714667,-0.491090752219327,0.855672400490503,0.892790261937783,-1.79721126222057,1,-1.33286639959094,-1.98531862714388,0.746941091609187
-0.453397511229793,0.421197439614804,0.475958438418499,1.80176227162749,1.44808414754465,0.86536298315378,1,-0.426985409585744,-0.0322000716149888,1.60983616381418
1.18753427862908,-0.322950311846374,0.573153668052675,1.40524081174873,-0.252030872055031,1.65056250423312,1,0.171585700246195,0.864583966782703,1.21356651908718
-0.290145311790079,0.880179901191523,-1.01885957771565,-1.25079179413567,-0.597471279167578,1.13987625779869,1,0.166313962297088,0.590034589401443,1.52828142989893
0.828546144965436,-0.194863606775901,-0.0618722344363663,1.99910885447275,-0.247740839749518,1.04398540269387,0,0.326115359740401,0.633682538189535,1.92727241420653
-0.291227708779169,1.18805498210378,-0.538305101604451,0.139278487592147,0.774365940151648,-0.929204910737414,0,0.206116819296013,0.896827273324609,1.24619673134293
-1.57636240474791,-0.509764511767954,0.416954726110764,-0.386669103439724,-0.118587206170082,-3.10964133921308,1,-1.22354751201861,-2.08612691651586,1.20575093990192
-0.848815696948922,0.219548010873294,-1.50827665613024,1.85563569044348,-0.417581271100897,-0.47846487195817,0,-0.645430910328735,-0.629267686075628,1.34028792509343
-1.08851986195719,0.370294421364558,1.53916992776747,0.42885538447628,-0.052426353257736,-2.19576907008199,1,-0.523080236515438,-0.718225440592636,1.47876518080011
-0.484290571117173,0.279108393730607,1.346018088596,1.73079013958977,1.35395020283372,-0.944383419748418,0,-0.363157962276252,-0.205182177386567,0.919360248139128
-0.336311209009573,0.201942437313324,-0.842855777501525,-0.0435236741393199,-0.920651427306943,-0.602197402396842,0,-0.388149114958155,-0.134368771696249,1.96986138424836
-0.153357890661644,-0.0129965424313442,-0.669874227807658,-0.73108580813751,-0.310771373996955,0.348083472659925,0,-0.599812078457768,-0.166354433092988,1.46579616202507
-0.243247228574846,-0.0908650060774901,-0.908487448146122,-1.96596407622063,-1.05580296818196,-0.629712290216796,1,-0.669472416187328,-0.334112234652336,1.37386765365954
1.89220204160011,1.36503136531884,-0.136540641797694,1.12686531518852,2.2387442557997,0.54003069813084,0,1.58594321064676,3.25723340691895,1.42380653892178
-1.38599833728542,0.908130568883166,-0.501037963291251,-0.888084388434115,-0.473062140033249,-1.07741980717971,0,-0.0216520855655581,-0.477867768402254,1.88771044171881
-0.41482430070778,-0.609888171401906,0.1126384468164,0.871359260391993,0.906054085480868,-1.80653317663112,1,-0.927477879992815,-1.02471247210969,1.08503434294835
0.349081528106831,1.39643722121945,-1.87521756309427,0.119893566616341,0.037916931594142,2.8554155339614,1,1.08829778557442,1.74551874932628,0.931879527517594
1.62844226581541,0.144798373308446,0.158546714458315,0.472434944803404,-0.175362283023761,2.19290461346145,1,0.899445101441308,1.77324063912385,0.636103947064839
0.0885218957136163,-0.640606771595302,0.0155626712640042,1.26663990982006,-0.361609025278738,-1.82003483631016,0,-0.923240807487187,-0.552084875881686,0.983050856040791
1.23915070840056,0.169802259558534,-1.60060346126013,-0.485316378946902,-0.803621542084907,2.15035429033479,1,1.06955703125831,1.4089529679591,1.63740516884718
-1.64455553575371,-0.157187487420844,0.275973089169957,-0.461533586184343,1.34157635107538,-4.0833430695586,1,-0.983105565587896,-1.80174302317455,0.656619394430891
1.44635652537848,0.100939594546104,0.0549526398709077,-0.231758337278765,0.625930654378281,2.12258845740897,0,0.945636261357876,1.54729611992458,1.56541677890345
-0.690560171665183,-0.97339415414828,-0.230573354697258,1.06035377243819,0.0311307079941854,-2.55997120192318,0,-1.48759943139307,-1.66395432581346,1.94971607543994
-0.276431085453852,-0.819825275253199,-0.0132162906038914,-0.474785704501272,-1.09491334946943,-2.44123993241676,1,-1.08761530582775,-1.09625636070705,0.802236839313991
-1.10941875989944,1.36291896902543,0.384949196022327,-0.175510280957715,-0.486414065558645,-0.981923966707804,1,0.143278412259753,0.253500209125989,0.662732981727459
0.133869316429452,0.961370930531278,0.346723717001246,0.796324499089145,0.953093683264103,0.492825144961516,1,0.736590693449952,1.09524024696073,0.583103268174455
1.78533905173155,-0.883724474401114,-0.431612760578627,0.77874531585307,-0.994513348092816,2.4957118198775,1,0.199173066794829,0.901614577330438,1.74458527262323
2.42216335525159,-0.900092115436322,1.1501780393287,0.796802566246094,-0.571870322518041,2.74593433168216,1,0.0658511451728282,1.52207123981527,1.37179663486313
-1.07682890211841,1.72333313279683,-0.0365321928878792,0.0490515728363375,0.783173181570287,-1.90108352062449,0,0.138394173865103,0.646504230678419,1.20513856294565
0.485941110403099,1.90904216212893,-0.135801421736564,0.762612934834823,0.381366421089077,-0.433591560771469,0,1.2074524251214,2.39498327253203,1.04752118000761
1.38852173874429,-0.777141195855263,0.944618045644523,0.285993069636396,-0.60005817395716,0.256033937911418,1,0.0607635365724308,0.611380542889028,0.920186940929852
-0.195656817284544,-1.30230526261311,0.992041361670064,-0.632815038152827,1.65261512009413,-1.31058147292043,1,-1.32824576928353,-1.49796207989765,1.3995737824589
-0.218174797706211,2.62349516681868,-0.700669754968901,1.8043844808011,-1.19076693514159,-0.759244220968557,0,0.312189136986733,2.40532036911247,1.72785441938322
-0.304777954546445,0.229628914346807,-0.991058671834594,-1.86301097301425,1.41567745190252,-0.935868092580929,1,-0.273613975471049,-0.0751490401996379,0.646748420665972
0.597832724111443,0.186749892141885,-0.705618052658819,0.845528381213056,0.814172817192482,2.49137387164229,1,0.877913269797886,0.784582616253328,1.94553428911604
1.39742941081576,0.0761366349502805,-1.17577589332822,0.341667682894606,-2.09757104835645,3.53873905141857,1,0.781761608144131,1.47356604576604,0.753104665083811
0.687619761239963,1.40486018632133,-1.78119695174032,0.0227776061434687,0.320165082487674,-0.00605927512201954,0,1.68013271387297,2.0924799475613,0.629125108825974
0.320188014296969,-0.191722235336317,0.310607521838391,-0.611399988446644,0.801025120424051,1.3286465979696,1,-0.386948053786347,0.128465778960651,1.79181604355108
-0.301869925777261,1.45939216415609,-0.145110360949431,-0.260526772474753,-0.791680654042777,0.47667895541305,1,0.454596801641464,1.15752223837883,1.28718590305652
0.49834868555795,-0.220655451134541,0.642549753692457,1.80567031464304,-0.0106662632339682,0.344793287377647,1,-0.0483284366428371,0.277693234423408,1.48521631292533
-0.549536917916756,0.50514588627314,-0.00165936230130426,-0.0969992670036506,-1.62351793994448,-0.427483249878356,1,-0.442858417916746,-0.0443910316436159,0.84427905920893
-0.279256503637243,-1.03349700607288,0.409162962077351,-0.384486699785057,-0.907567051887799,-0.13873689897045,0,-1.2035795559802,-1.31275350971012,1.58183904713951
1.09651344311173,0.17047347145922,-0.496058147310148,-0.878362142505014,0.136766722422639,0.988967170456679,0,1.12779082030782,1.26698691457095,1.23612559249159
0.442013088178811,1.20066816089193,-0.960107958901165,-0.495578521936919,0.271187956531974,1.83270672793803,1,1.32408081692253,1.64268124907074,1.94788338872604
0.241016294026112,-0.163405914765736,0.778132224570433,-0.0842924535744518,-0.07366121520502,0.641036678473472,0,-0.430153397780514,0.0776103792603761,1.86041372071486
-0.255607655355518,1.28247586312264,0.761120616327841,-1.357722067055,-0.77443032842804,0.738562574936616,0,0.473258525732352,1.02686820776712,1.32687579176854
0.931032901484882,2.72719638791127,-1.73371218388323,1.14269781676707,0.593816135526189,4.19538860092594,1,1.77779618814947,3.65822928939615,0.613398649264127
1.33491258537547,0.941924217330924,0.877294651826758,0.0978270374471885,1.32750455958168,2.78667486075573,0,1.66206537274451,2.2768368027064,0.534050016896799
-0.869271763875442,-0.248614037279559,-1.7733714389337,1.46502102859676,-0.600835831817181,-2.82215469460409,1,-0.880331175036761,-1.117885801155,1.26985929172952
0.0554869546651026,0.0964788597064851,-0.0456873243111543,0.990435852724288,0.0565068582510194,2.05694410801471,0,-0.284207014437463,0.151965814371588,1.44608922745101
0.0490669131919192,-0.433930941301739,-0.394872253984139,1.41438675072227,-0.531076289581877,0.869359937210893,0,-0.726432457326156,-0.38486402810982,1.12815743649844
-0.578355728360897,2.17866786745157,-0.128056266421018,-1.33589776931334,-0.0808987843769502,-0.939881086539642,0,0.276136839941969,1.60031213909067,1.81889891775791
-0.998738655996004,-2.95877961913012,1.09623773188662,0.579583638393261,0.160755586671381,-7.08190875102216,1,-1.44226031570315,-3.95751827512613,0.661980609525926
-0.00243278000660164,0.0808882391991137,-1.2552178606199,-0.361821214298648,-0.102140564663634,-0.32202676769535,1,-0.427757082468228,0.0784554591925121,1.97041804459877
0.655511882812969,0.110137804617221,-0.265483694629895,-0.046852449651786,-0.354749969786071,0.3079139596223,0,0.728942147000207,0.76564968743019,0.897449946962297
1.47684227897655,0.213448326312653,2.55330249004026,-0.599477471411771,-0.471227347093368,2.92179458780989,0,1.10986933104588,1.69029060528921,0.62641628482379
-1.90915278827921,-1.55781961263232,-1.47830630595052,0.215104493222833,0.0340441773616117,-1.53291671438042,0,-1.54893433994777,-3.46697240091154,1.07886076357681
-0.702439473312409,0.216211546257758,-0.626587568230723,0.0936314854790409,-0.200721207356766,-3.00978293244154,1,-0.640557806475688,-0.486227927054652,0.68734374071937
-0.311430218011919,0.18766381702644,-0.0410520223413907,-2.11983441513135,-0.544448628769274,-0.16250934788192,1,-0.462607428520782,-0.123766400985479,1.37233133253176
-1.66315703066738,1.2586221252136,0.199953219832439,0.852443088824704,0.377362269645537,-3.01049967061941,1,0.0364401382117995,-0.404534905453776,0.860224412172101
-0.75053344179229,0.523517780908964,-0.533305600527376,0.15437457231326,0.403728160580446,-2.67844220490701,1,-0.517851836755099,-0.227015660883326,1.58283183292951
-0.777351759181508,1.11545427747996,-0.266032317684011,-0.971861640205415,0.170236937543032,0.479787522346242,1,0.104498746873761,0.33810251829845,0.718893036013469
-0.722569699859602,-0.957502242170469,1.08414781411867,-1.10142783592314,-1.10107992122072,-1.80093592613933,1,-1.31771393424441,-1.68007194203007,0.729258155450225
-2.18883459914707,-0.124405579855432,-0.180745479625044,-0.690244888297098,0.402469699291095,-4.90209750237191,1,-0.990174832775606,-2.3132401790025,0.88883400533814
0.213418550286554,0.191737829049968,0.251555319378233,-1.58363492221125,0.425816177210946,1.65089023081529,0,0.232365762659486,0.405156379336522,1.66682939010207
-0.631922936254832,0.272217250603347,0.369542235154893,0.137766066513836,-0.283128718862383,-0.944128306518292,0,-0.481290010855459,-0.359705685651485,1.13969944952987
1.52049119383216,-0.693814463673254,0.407034259389767,1.50234395496283,0.553632072115556,0.661783529275653,1,0.247645312807261,0.826676730158909,0.590072504244745
0.795955949415082,1.47917192085213,0.492505019245782,0.192881587148273,1.26435623247709,1.70690804048758,0,1.66952382309497,2.27512787026722,0.67224880552385
-1.4535295651328,-0.611767021642771,0.0546325790523077,0.527154734523825,0.327802463194629,-4.19382698048492,1,-1.11545263738598,-2.06529658677557,1.22413534601219
0.0983954210058388,-1.61430997435935,-0.708674076161911,-1.48320629120238,0.765106373309395,0.2357069876538,0,-1.09783870116,-1.51591455335351,1.9687603758648
-0.593770984233153,0.40249011059067,-0.0582707524435477,-1.53920072330941,1.28257345881025,-1.70829365536184,1,-0.449485767377448,-0.191280873642483,1.71727518038824
0.888281168634515,0.664555447289484,-0.963421822237506,-0.896432886914323,1.65888693382934,-0.416178580105163,0,1.45462653981962,1.552836615924,1.31436922564171
0.0530704154986666,0.944127070994937,0.0933932966058741,0.721069979748221,-0.480729813134911,0.494503040773202,0,0.601046592764568,0.997197486493603,0.608550630509853
-0.557023625844656,-0.946260797708289,-0.347901133459108,-0.884501944686544,-0.407834514587087,-2.95899508002412,1,-1.17772315530895,-1.50328442355294,1.19972786912695
0.43839703617272,-0.248288449238896,-0.118334438145549,0.558598525708553,-0.328918791729082,0.0869335233555717,1,-0.251886692747106,0.190108586933824,1.00985846889671
0.152608158642419,-1.32843646853908,-1.09909095717492,-0.218737504846289,1.10107658785062,0.876690061704179,0,-1.0101027015828,-1.17582830989666,1.5348779077176
-0.164617581749564,0.844763742098917,-0.283076412422231,0.383623482386597,0.581717960782718,-2.04685024817939,1,0.240183728561498,0.680146160349353,1.27123605809174
2.01989062147597,0.347696732438648,-1.08973467284561,-1.03912011024684,0.957779202757363,1.0826729469508,0,1.20139370180177,2.36758735391462,1.27238452341408
-0.529385886317261,0.913762586431107,-0.405665544099862,-0.948992248570827,0.301421804337359,1.38455146203298,1,-0.105492211290018,0.384376700113846,1.31827153102495
-0.470786972984042,0.608274553380681,0.526907259597763,-0.104160953983452,-0.288461063573085,-0.338685530676701,1,-0.205197494779582,0.137487580396639,1.17118599510286
-1.54593692401752,-0.607547987804487,0.240419981775496,-0.208711102723908,-1.45615158789359,-3.22912061437768,0,-1.26092491586001,-2.15348491182201,0.625827260548249
-0.0405267232951771,0.179658070871844,0.898362457249367,-1.78873019525217,-1.70465154066219,0.0491858442565585,1,-0.312326384754157,0.139131347576667,1.89520053763408
0.890356305470676,-1.90840941941738,0.487968126935476,0.537084421086505,2.01122119129554,-0.0822036995282538,1,-0.237627219428604,-1.0180531139467,0.524672279367223
-2.07138785092921,0.502946257689096,0.111991365197539,-1.94969607009284,0.00396133245276825,-2.84725813373118,0,-0.676151457707029,-1.56844159324012,1.12113859911915
-0.250065120073019,0.968899153478499,0.998313347136219,-0.415234461553216,0.558221906568822,-0.935403226314923,0,0.275990109811951,0.71883403340548,0.840464140055701
-1.18165042665332,-0.875737125773327,1.19171680875342,0.0551296705930179,0.694493685600807,-1.2206752610073,0,-1.27644836786381,-2.05738755242665,0.649460881017148
1.44193726501691,-2.13602453869801,-1.39938756712371,-0.701999719088772,1.44632123678831,2.28168013535939,0,-0.060528549513586,-0.694087273681098,1.22438581264578
1.35789553887886,-1.52282758158501,0.892147736646772,-1.40383903257398,0.633468743359524,0.351555479128957,1,-0.132551431530159,-0.164932042706151,1.47519300715066
0.33450284734065,-1.11311820788607,0.777958970340806,-0.398823930892521,0.0263703369604992,1.05073112350207,0,-0.613666847335471,-0.778615360545421,1.88199466757942
1.42933808040023,1.2409838955359,0.94191451634695,-0.110421799564805,0.742875516154548,2.23219440337864,1,1.75541642648874,2.67032197593612,1.04390271066222
-0.867317850878684,0.00348193506299025,-0.908802712301102,-0.924078451273399,0.347303392127326,0.259702953013405,1,-0.988784968752866,-0.863835915815694,1.78270248509943
0.950651724971886,-1.23779458599307,2.40893084447621,-1.35724300041576,-0.628654925909304,1.43459535981071,1,-0.115821252547979,-0.28714286102118,0.95135922729969
-0.585011508633235,0.555699118898025,-2.59425017430808,-1.19460448275129,0.958491926298926,-1.23692200638088,1,-0.301213825068132,-0.0293123897352099,1.19849363772664
0.320957522525629,-2.1831493493599,0.00686303751409395,-0.528487779287787,0.164441350143759,-1.64482885466774,1,-0.859845558370034,-1.86219182683427,0.714095997391269
-0.299396016664908,-0.247024457097248,0.118106668928336,-0.45262688672095,-0.034705900963032,-2.07835481100687,1,-0.836980779547558,-0.546420473762156,1.71157849044539
-0.278543083293069,1.11285692758645,-0.14969732641009,1.41948519316134,-0.920743815374439,-0.377137101772931,1,0.27790326044978,0.834313844293377,1.49871144769713
0.546115158329532,-0.341673237009086,0.747873287863168,-1.28568114451572,1.14805514963721,0.843633672856002,0,-0.149281335931786,0.204441921320446,0.592911469866522
-1.30382115364487,1.30543834214107,0.12403480689883,0.381148939361978,-0.389880110029636,-3.36834711409374,0,-0.00909618869049376,0.00161718849619485,1.14638835249934
-0.25091446504246,1.79532387144079,-0.778054747212651,-0.417468601097774,-0.0992632632773881,1.97074416384692,1,0.240867556133542,1.54440940639833,1.09528262214735
0.17100737371791,-1.16783522747345,1.41003330549222,0.092861420787736,-0.0279660623672148,1.00739043163228,0,-0.973260731303157,-0.996827853755538,1.5454351271037
-0.403467478747509,-1.15228762498202,-0.293911808229858,-0.663584535776221,-0.0569888848706201,-0.281223602257088,0,-1.31928000132586,-1.55575510372953,1.48897947592195
0.104659440835727,-0.914455469345649,0.610678645005375,0.802827389507556,0.555659016748442,-0.68359019635386,0,-0.92877154645603,-0.809796028509922,1.11102606449276
-0.318880786734009,0.52872803253363,-0.666510079863262,-1.70308264539455,0.901923838993518,0.314756228904902,0,-0.244215988810226,0.209847245799621,0.960380330565386
1.61834393588343,0.835078927048582,-1.0598828782705,0.153907072564843,0.536623088234037,1.41505043770279,0,1.68132153776836,2.45342286293201,0.882661017589271
0.714188601488617,1.20913697409153,-0.605838699162315,0.0260754999213632,-1.47118613826484,2.48996361407461,0,1.75201824307235,1.92332557558015,1.5088522300357
2.96586536983324,1.29947254536082,-1.05684142085412,1.05586337908511,-2.40935940826857,3.46921951951113,0,1.86457824074997,4.26533791519406,1.84159015037585
-0.795077604559211,1.07573230420989,0.533106472674961,-0.224467114350504,-0.365017377779538,1.34552278878926,1,0.0772626334278307,0.280654699650682,1.76860423432663
0.814365914679913,0.939801023514297,-1.55209261464742,0.496596389373037,-0.181268484634166,1.95903980730382,1,1.68232032337811,1.75416693819421,1.08935278537683
2.09803081013037,0.163374693406766,-0.978489465308578,0.399633954636834,-0.149062942660811,5.51249163615528,1,0.943393051463804,2.26140550353714,0.618575809989125
0.30098005515257,-0.888138558640392,0.0272183551599775,-0.646912750685488,-1.39271469385941,1.27032921241095,0,-0.659851229433518,-0.587158503487822,1.74263458547648
-1.08307514183923,-0.72616098275635,-1.71557231699709,-0.0837627647875345,-0.679359244378277,-2.25500810936055,1,-1.23150509237024,-1.80923612459558,0.609337737318128
-1.00632250180328,0.407597005613739,-0.504888026492709,-0.133621200009519,-1.81911796861397,0.167119694515675,1,-0.693612769465436,-0.598725496189546,0.672144016367383
-0.035414564917612,1.68353633925179,-0.304922680917571,1.11960385547419,2.63898221848215,1.1428959997044,0,0.425878664909015,1.64812177433418,1.45997640513815
1.30912436085341,1.70597982356461,1.34607823542665,0.239220972582604,0.546608278218245,5.42493118143278,1,1.73549901385035,3.01510418441803,0.980849300278351
0.750400486646719,-1.92616670082608,-0.257536690796696,0.290602215857855,-0.0061539389294077,2.12734856250147,0,-0.284949876004507,-1.17576621417936,0.783124289242551
-2.13836832761242,-0.833998015228465,-0.523287300658334,2.34360141841864,-1.8901394678583,-2.85563370106231,0,-1.3271866656457,-2.97236634284088,1.09074446174782
-0.700354108866634,1.41913251633319,-0.663217798972631,0.4162981123864,-0.266783371165174,-0.0118413712886892,0,0.275691451912986,0.718778407466555,1.79303902399261
-0.00905647529298544,-1.06410971501924,0.447221039692659,0.362481077869282,0.820431010197318,1.25904498149113,0,-0.997790620064373,-1.07316619031222,1.02186710981186
-1.45813348724477,-1.61357747248045,-0.319450981926009,0.531682625476121,0.778193540049604,-3.33022226568919,0,-1.56011507072217,-3.07171095972522,0.502150847692974
0.694529646494869,0.599811088697427,-0.543778849936917,1.54804223833981,0.454092023522563,1.94261259462176,0,1.56675201925863,1.2943407351923,1.86692668055184
-2.46133547518649,1.73296470538705,-0.279673442488512,0.961488300605771,1.41005217305168,-4.26700665443045,1,0.231064075734762,-0.728370769799437,1.92758517339826
0.143289764040456,1.93450456245773,1.06523260036693,0.338436178606463,-1.81106410509648,-1.3308798026164,0,0.626450096805832,2.07779432649819,1.23637847451027
-0.391222119127056,0.532820575670794,1.56782874914562,-0.610953004269112,-1.10245174108699,-0.493983371970849,0,-0.247617133468185,0.141598456543737,1.19547757296823
-0.491164085614076,0.719665756019784,-0.643112078958536,0.357052050410198,-0.0191678713168816,-1.97752856251218,1,-0.156200700255389,0.228501670405709,1.39470807020552
-0.283647452452051,0.560093385755184,0.0205217485106878,0.141508679877188,0.149303719680044,-0.781603156362384,1,-0.298039772321575,0.276445933303133,1.85907643591054
0.314794804707843,-0.018086931659967,-0.324184458375485,-1.83629134377865,-0.532431870264935,1.45905664564541,1,-0.10352649521457,0.296707873047876,0.759501768508926
0.396326577938989,-3.37173908255051,1.85739602217537,-1.54103104639384,1.19784612620355,0.479561814596023,0,-0.769682197479728,-2.97541250461152,1.67882161505986
-0.22560371103596,0.760703244759755,0.590763995069064,-1.79438286441787,-2.0425957688947,1.05948125754727,0,0.181798235881652,0.535099533723795,0.849401576910168
-1.92495043034056,-0.39122685224321,-1.7806267173964,1.41451490845874,-1.01431086481328,-3.96508279497076,1,-1.08268515613598,-2.31617728258377,1.36557231354527
-1.43922929832198,1.00990122381185,-0.434108699575314,0.618337891760976,1.60391822138318,-3.15037204374607,0,-0.101372836853733,-0.42932807451013,1.76131554995663
-1.4696577739724,-0.626973147073749,-2.29274971170602,-2.35045538719928,0.892350034157026,-2.61920779551607,0,-1.05381586991519,-2.09663092104615,0.698305665282533
0.761863446891932,-1.63457736950186,-0.0929652384515409,0.467031586094115,-1.51770556163796,0.0489358439231796,1,-0.189420135924903,-0.872713922609933,1.84383678436279
-0.24361498187128,1.24524265203048,0.70396445332971,0.0638319381435125,0.823528276152144,0.330800001372696,1,0.444262752692768,1.0016276701592,1.17520601174328
0.269676607418008,0.181377446555404,-0.894489621256767,-0.256260441820274,0.365562248008499,1.62773286530043,1,0.18952485719601,0.451054053973411,1.84121380676515
-1.55892752095582,3.4953042639856,-1.28250679207462,-0.74452203825337,-1.33092166830989,0.528348184904806,1,-0.0133412802574924,1.93637674302978,0.872817770810798
-0.535588006696314,0.915591913326913,1.25578417415048,-1.26902527654423,0.3595761544677,-1.26511136355426,1,0.255493846837389,0.380003906630599,0.625542940455489
0.562451973173495,1.04850651742624,-0.964629979588376,0.862628007930791,0.892994609988693,0.0136432420338234,0,1.48366633035741,1.61095849059974,0.572961612022482
-0.178326123419918,0.763824936934856,0.907783881064091,-0.576934671897016,-0.995098995899314,0.840462331580512,0,0.223857458471157,0.585498813514937,1.96972380054649
-0.115135986202651,-0.6033873768594,0.214073613669174,-0.13226734829003,0.51967192258579,-1.77907142959291,1,-0.84881295378513,-0.71852336306205,1.22625161171891
-0.0720614721063666,-0.370429662702776,0.881023122748974,0.586828100587993,-1.23573344828329,-2.01486845999227,1,-0.700360839229575,-0.442491134809142,1.76808955089655
1.2109098069263,1.05982593833365,1.00254499828277,0.535000276997602,0.529726874322074,4.04680961524543,1,1.65853567246932,2.27073574525995,1.12444040679839
-0.614896900799703,1.05511052983939,1.13991050456775,-0.393409936967253,-0.983041720955936,-0.432158132874959,0,0.28011273767061,0.440213629039685,1.23401381424628
0.6761264583147,0.582972161120319,1.23603585230776,-0.540609417209361,-0.375745484254249,1.13849699584139,1,1.19158350010066,1.25909861943502,0.774931726278737
0.898599605537552,-0.986567435539539,0.295401510142675,0.259450915234582,-1.04173538449989,0.764445290486035,1,0.0610851573576732,-0.0879678300019874,1.63874220184516
-1.18931790352102,1.68462181174398,0.171761023605458,-1.17827876100886,0.697667357430169,-1.03569115868629,0,0.164537443514666,0.495303908222961,0.957714953809045
0.121258849819009,-1.36684104568263,-0.955389282695439,0.306138478548671,-0.144448803419361,-0.645365564549405,0,-1.24171265300041,-1.24558219586362,0.748517370666377
-0.0112216861304115,-0.433214348611114,-1.21040912105673,0.173481229120353,0.498543397139294,-0.0909043885332358,1,-0.714141796101014,-0.444436034741525,0.549213714431971
